1470 200
Anna_Karenina_(2012_film) 0.1490572839975357 -0.03262767568230629 -0.2821192741394043 0.3333115577697754 -0.1038668304681778 0.20744970440864563 0.28199419379234314 -0.8278030753135681 0.20335543155670166 -0.8561325073242188 0.20802226662635803 -0.00193275255151093 0.282710999250412 -0.7232953310012817 0.526847243309021 -0.02493344433605671 0.1731034517288208 0.588952898979187 -0.5370014905929565 0.3417341709136963 -0.011392989195883274 0.23880858719348907 -0.6165767908096313 0.6974403262138367 -0.07972773164510727 0.4223969578742981 0.20201145112514496 0.1113123670220375 0.3077559471130371 0.0892009362578392 0.4883619546890259 -0.16989921033382416 0.20362798869609833 -0.534043550491333 -0.4717826247215271 -0.004266118165105581 -0.12770797312259674 -0.0812704935669899 -0.4432111084461212 -0.0772174522280693 0.27992162108421326 0.2881651520729065 0.29962241649627686 -0.47017860412597656 -0.2661457657814026 -0.043651387095451355 -0.2794114649295807 -0.5168275237083435 -0.8145678639411926 0.2118622213602066 -0.3338482975959778 0.8097488284111023 -0.01137502957135439 0.038432903587818146 0.6056216359138489 -0.18515357375144958 -0.0015351951587945223 0.14528274536132812 0.2009737193584442 0.12198427319526672 -0.011186676099896431 -0.01927175745368004 -0.15247099101543427 0.18966755270957947 -0.286526083946228 -0.14818474650382996 -0.8852069973945618 0.047229841351509094 0.25033074617385864 0.1947028636932373 0.3517637550830841 0.5705224871635437 0.33803296089172363 0.30712994933128357 -0.3094385266304016 -0.4208484888076782 0.4410506784915924 -0.22186200320720673 -0.21601000428199768 0.34687885642051697 0.3411368131637573 -0.1652766913175583 0.24147957563400269 -0.14252597093582153 -0.7086213231086731 -0.5100486278533936 0.4019509255886078 0.3352108597755432 -0.5491964817047119 0.48898032307624817 0.1334940642118454 0.14447157084941864 0.037400729954242706 -0.5818344354629517 0.2691778838634491 0.024276582524180412 -0.35667210817337036 0.8529369831085205 0.6070631742477417 -0.35150089859962463 0.23272448778152466 -0.16079524159431458 0.3065383732318878 -0.3353360593318939 0.1135198250412941 0.42933350801467896 -0.1475861519575119 0.08227165788412094 -0.3778998851776123 -0.5172910690307617 1.1465240716934204 -0.36715325713157654 0.32377001643180847 -0.19427597522735596 -0.2833492159843445 0.26764073967933655 -0.15214721858501434 0.20147356390953064 -0.6189863681793213 0.2181856483221054 -0.47736066579818726 0.3415488302707672 0.08869154006242752 0.24857285618782043 0.6413789987564087 0.502783477306366 -0.01149565726518631 0.5053960084915161 0.06497844308614731 0.28732821345329285 1.4349054098129272 0.021151088178157806 0.14559520781040192 0.663271963596344 0.15220211446285248 -0.4757370948791504 -0.30044427514076233 -0.4030689001083374 -0.2623756527900696 -0.06017313897609711 0.25845280289649963 -0.6905612945556641 0.27979886531829834 -0.6244505047798157 0.4614235758781433 0.45898231863975525 0.42539411783218384 0.12395535409450531 0.7036311030387878 0.059696827083826065 -0.5189189314842224 0.0747416764497757 -0.19964148104190826 -0.0770895704627037 0.23792804777622223 0.24740442633628845 0.4375056326389313 -0.33305099606513977 0.10688967257738113 -0.40277546644210815 0.5422697067260742 -0.21677635610103607 0.22999878227710724 -0.1435868740081787 0.9000148773193359 -0.22942839562892914 0.20314142107963562 -0.6727428436279297 -0.1641877144575119 -0.08636993914842606 0.4724913537502289 0.7495505213737488 -0.06692171096801758 -0.39162978529930115 -0.31760433316230774 0.06140341982245445 -0.8028345704078674 -0.20647433400154114 -0.3200356662273407 0.24995160102844238 0.44802823662757874 0.16973279416561127 -0.4209747016429901 -0.38662606477737427 -0.055865898728370667 0.28791218996047974 -0.2474900782108307 0.31674420833587646 -0.2501090466976166 0.2749868333339691 -0.14280292391777039 0.8509376049041748 0.16847090423107147 -0.0972210019826889 0.07724522799253464 -0.8294422030448914 -0.6029008626937866 0.21003912389278412 -0.009306817315518856 0.6122580766677856
Shadow_Dancer_(film) -0.11598363518714905 0.2179863601922989 0.07810843735933304 0.4623739719390869 -0.12034965306520462 -0.1859983503818512 0.4486956298351288 -0.4952143132686615 0.4365162253379822 0.0703880563378334 0.7078390121459961 0.18638944625854492 -0.22275349497795105 -0.47754794359207153 0.6077651381492615 -0.29237058758735657 0.14570297300815582 0.6808513402938843 -0.30915212631225586 0.6141728162765503 -0.3696400821208954 0.42181921005249023 0.12986616790294647 0.1894771307706833 -0.16785797476768494 0.9215308427810669 -0.21476957201957703 0.529775083065033 0.10199786722660065 0.5962442755699158 0.7645458579063416 0.45621174573898315 0.13314427435398102 -0.48333433270454407 0.12487546354532242 0.11477773636579514 -0.6232920289039612 -0.38615962862968445 0.21067596971988678 -0.4462043344974518 0.15408983826637268 0.5089699625968933 -0.05945689231157303 -0.18500226736068726 -0.13248075544834137 0.16637609899044037 0.29793891310691833 -0.11152868717908859 -0.33833736181259155 0.10153554379940033 -0.10232209414243698 0.4798019826412201 0.04272134229540825 -0.4973432719707489 0.8276287317276001 0.33769097924232483 -0.3290742039680481 0.2155759334564209 0.8044676184654236 -0.017135553061962128 0.047520238906145096 0.0196737851947546 0.22057387232780457 0.371791809797287 -0.344198077917099 -0.7594584822654724 -0.40065664052963257 0.6403395533561707 0.01085145864635706 0.3063563108444214 -0.15538646280765533 0.07895712554454803 0.5967743396759033 0.04013380408287048 -0.135442316532135 -0.2452138215303421 0.23757462203502655 0.14398151636123657 -0.022603118792176247 0.30786463618278503 0.41385501623153687 0.22758150100708008 0.19743335247039795 -0.8226944804191589 -0.903935432434082 -0.39589154720306396 0.27030742168426514 -0.0373338982462883 -0.46414417028427124 -0.12132515013217926 0.07941357046365738 0.6313749551773071 -0.15166395902633667 -0.35515493154525757 0.5592491626739502 0.5270131826400757 -0.08211974799633026 0.4926753044128418 0.10180267691612244 -0.3045418858528137 0.08804132044315338 0.42755359411239624 0.20041224360466003 -0.03703227639198303 -0.027619535103440285 0.021573742851614952 0.07986345142126083 0.18705593049526215 0.21066386997699738 -0.5915000438690186 0.2854026257991791 -0.14161866903305054 0.16888126730918884 0.1908358335494995 -0.2779235541820526 -0.4011479616165161 -0.34496358036994934 0.36048775911331177 0.0010291091166436672 0.21057535707950592 -0.24641147255897522 0.065642349421978 0.029552454128861427 0.155888631939888 0.4744549095630646 0.07113773375749588 0.3020787835121155 0.25315919518470764 0.2939409017562866 0.2355649620294571 0.8057183027267456 0.4996913969516754 0.08960121124982834 0.48798415064811707 0.2208530455827713 -0.7102637887001038 -0.6416488885879517 -0.24628619849681854 -0.18034809827804565 -0.11255127191543579 0.35692280530929565 0.07017110288143158 -0.003354549640789628 -0.8363094925880432 0.022435031831264496 -0.12251949310302734 -0.17252804338932037 -0.7134613394737244 0.18052901327610016 0.24086052179336548 -0.07383666187524796 -0.03959337994456291 -0.43546703457832336 -0.0779920294880867 0.5923445820808411 -0.19815324246883392 0.2950788736343384 0.18142801523208618 -0.35659998655319214 -0.12113766372203827 0.6457889080047607 -0.5667892694473267 0.12448468804359436 0.012821855023503304 0.45364513993263245 -0.21313828229904175 0.2464785873889923 -0.9578815698623657 -0.32823002338409424 0.605845034122467 0.26918232440948486 -0.12067918479442596 -0.14889483153820038 0.23553891479969025 -0.8693279027938843 0.10186105221509933 -0.669161856174469 0.015778623521327972 0.10138679295778275 0.28636670112609863 0.2956821322441101 0.7505670785903931 -0.23220768570899963 -0.0012154898140579462 0.0902605727314949 -0.09963779896497726 -0.4235967993736267 -0.1360716074705124 0.2596336007118225 0.11635255813598633 0.3643230199813843 -0.008821497671306133 0.8000615239143372 0.40900900959968567 -0.18619202077388763 -0.9986038208007812 0.22479113936424255 0.11673791706562042 0.7371660470962524 0.36084994673728943
Upside_Down_(2012_film) 0.0 0.0 0.0 0.0 0.0 0.0 0.0 0.0 0.0 0.0 0.0 0.0 0.0 0.0 0.0 0.0 0.0 0.0 0.0 0.0 0.0 0.0 0.0 0.0 0.0 0.0 0.0 0.0 0.0 0.0 0.0 0.0 0.0 0.0 0.0 0.0 0.0 0.0 0.0 0.0 0.0 0.0 0.0 0.0 0.0 0.0 0.0 0.0 0.0 0.0 0.0 0.0 0.0 0.0 0.0 0.0 0.0 0.0 0.0 0.0 0.0 0.0 0.0 0.0 0.0 0.0 0.0 0.0 0.0 0.0 0.0 0.0 0.0 0.0 0.0 0.0 0.0 0.0 0.0 0.0 0.0 0.0 0.0 0.0 0.0 0.0 0.0 0.0 0.0 0.0 0.0 0.0 0.0 0.0 0.0 0.0 0.0 0.0 0.0 0.0 0.0 0.0 0.0 0.0 0.0 0.0 0.0 0.0 0.0 0.0 0.0 0.0 0.0 0.0 0.0 0.0 0.0 0.0 0.0 0.0 0.0 0.0 0.0 0.0 0.0 0.0 0.0 0.0 0.0 0.0 0.0 0.0 0.0 0.0 0.0 0.0 0.0 0.0 0.0 0.0 0.0 0.0 0.0 0.0 0.0 0.0 0.0 0.0 0.0 0.0 0.0 0.0 0.0 0.0 0.0 0.0 0.0 0.0 0.0 0.0 0.0 0.0 0.0 0.0 0.0 0.0 0.0 0.0 0.0 0.0 0.0 0.0 0.0 0.0 0.0 0.0 0.0 0.0 0.0 0.0 0.0 0.0 0.0 0.0 0.0 0.0 0.0 0.0 0.0 0.0 0.0 0.0 0.0 0.0 0.0 0.0 0.0 0.0 0.0 0.0
On_the_Road_(2012_film) 0.0 0.0 0.0 0.0 0.0 0.0 0.0 0.0 0.0 0.0 0.0 0.0 0.0 0.0 0.0 0.0 0.0 0.0 0.0 0.0 0.0 0.0 0.0 0.0 0.0 0.0 0.0 0.0 0.0 0.0 0.0 0.0 0.0 0.0 0.0 0.0 0.0 0.0 0.0 0.0 0.0 0.0 0.0 0.0 0.0 0.0 0.0 0.0 0.0 0.0 0.0 0.0 0.0 0.0 0.0 0.0 0.0 0.0 0.0 0.0 0.0 0.0 0.0 0.0 0.0 0.0 0.0 0.0 0.0 0.0 0.0 0.0 0.0 0.0 0.0 0.0 0.0 0.0 0.0 0.0 0.0 0.0 0.0 0.0 0.0 0.0 0.0 0.0 0.0 0.0 0.0 0.0 0.0 0.0 0.0 0.0 0.0 0.0 0.0 0.0 0.0 0.0 0.0 0.0 0.0 0.0 0.0 0.0 0.0 0.0 0.0 0.0 0.0 0.0 0.0 0.0 0.0 0.0 0.0 0.0 0.0 0.0 0.0 0.0 0.0 0.0 0.0 0.0 0.0 0.0 0.0 0.0 0.0 0.0 0.0 0.0 0.0 0.0 0.0 0.0 0.0 0.0 0.0 0.0 0.0 0.0 0.0 0.0 0.0 0.0 0.0 0.0 0.0 0.0 0.0 0.0 0.0 0.0 0.0 0.0 0.0 0.0 0.0 0.0 0.0 0.0 0.0 0.0 0.0 0.0 0.0 0.0 0.0 0.0 0.0 0.0 0.0 0.0 0.0 0.0 0.0 0.0 0.0 0.0 0.0 0.0 0.0 0.0 0.0 0.0 0.0 0.0 0.0 0.0 0.0 0.0 0.0 0.0 0.0 0.0
Paranoia_(2013_film) 0.341916024684906 0.10177753865718842 -0.13600866496562958 -0.2057320773601532 -0.6349765658378601 0.24296168982982635 0.10726813971996307 -0.44328367710113525 -0.5880072116851807 -0.5265828371047974 -0.23094871640205383 0.06757818907499313 -0.5394927859306335 -0.5631242394447327 0.8795245885848999 -0.04398743063211441 0.01806388981640339 0.44199347496032715 0.04783488065004349 0.845137894153595 -0.5159037113189697 0.015769628807902336 -0.41059890389442444 0.253023236989975 0.008186315186321735 0.5436577200889587 -0.19828224182128906 0.06986462324857712 0.020730173215270042 -0.16713285446166992 -0.2942483723163605 0.46052032709121704 0.34632256627082825 -0.2840525805950165 0.42769625782966614 0.21247389912605286 0.08327557146549225 -0.42498868703842163 0.2563498914241791 -0.13776268064975739 -0.7573441863059998 0.12170570343732834 0.181020125746727 0.23503264784812927 -0.6171460151672363 0.06267926096916199 0.005781527608633041 -0.5812974572181702 -0.1253240555524826 -0.3112165927886963 -0.5234990119934082 0.7845237851142883 -0.3599231541156769 -0.01259047631174326 0.33615294098854065 -0.2101196050643921 -0.03538784384727478 0.09602423012256622 0.17466533184051514 0.22396501898765564 0.39371824264526367 0.43401286005973816 0.5008185505867004 -0.18289455771446228 0.09448682516813278 0.035067252814769745 -0.33535704016685486 0.07522255182266235 0.6408293843269348 0.7303618788719177 -0.5322883725166321 0.8649303913116455 0.28619301319122314 0.6832171082496643 0.04903466999530792 -0.12165915966033936 -0.18833649158477783 -0.12161706387996674 -0.3415994942188263 0.5202708840370178 0.07316143810749054 0.06849856674671173 -0.10015753656625748 -0.10927404463291168 -0.33862534165382385 -0.4202897846698761 0.10030335187911987 0.27957919239997864 -0.05546479672193527 -0.17211292684078217 0.1801760345697403 -0.11064314097166061 -0.013509326614439487 -0.6535502076148987 0.33656758069992065 0.5796205997467041 -0.36216074228286743 0.7430568933486938 0.739179253578186 -0.6361553072929382 0.227971613407135 0.43141570687294006 0.2561025321483612 -0.22821418941020966 -0.012627771124243736 -0.14565414190292358 -0.3618200421333313 0.33105504512786865 -0.04071228578686714 -0.30529457330703735 0.18156272172927856 0.26233094930648804 0.11774145066738129 0.30188196897506714 0.15240339934825897 0.14097647368907928 -0.4131220281124115 0.20141956210136414 0.2220194935798645 -0.46976137161254883 -0.07717374712228775 0.3434564471244812 -0.10984804481267929 0.48106300830841064 -0.27469125390052795 -0.030170096084475517 0.45202043652534485 0.10620392113924026 0.34071964025497437 0.5318419933319092 0.8711777925491333 0.15380032360553741 -0.2500503361225128 0.2540663182735443 0.41518697142601013 -0.1435886174440384 -0.03960909694433212 -0.23024646937847137 0.23734526336193085 -1.3415387868881226 0.3801508843898773 0.2912810444831848 -0.1268610805273056 -0.6649455428123474 0.29741090536117554 -0.1930789053440094 0.30185964703559875 -0.5619416236877441 0.5549011826515198 0.5625545382499695 0.054179273545742035 -0.1257009506225586 0.33940446376800537 -0.3957797586917877 0.400612473487854 0.1284559816122055 0.23236508667469025 0.6924638748168945 0.37245944142341614 0.03243451938033104 -0.08352711796760559 -0.7161581516265869 0.5248165130615234 0.018333133310079575 0.2821432650089264 0.13621191680431366 0.15782059729099274 -0.4842918813228607 -0.8664907813072205 0.0779048278927803 0.1388596147298813 0.295189768075943 -0.6267458200454712 0.15331293642520905 -0.4932108521461487 0.2310248762369156 -0.5935828685760498 0.05741564929485321 -0.1713545322418213 -0.02130030281841755 0.10696979612112045 -0.15140962600708008 -0.09074443578720093 0.18849311769008636 -0.5243778824806213 0.5113883018493652 0.0460435226559639 0.10907825827598572 -0.5429801940917969 0.24291923642158508 0.14603029191493988 0.6798974871635437 0.02630745619535446 -0.08660230785608292 0.017695153132081032 -0.3587786555290222 -0.25602445006370544 0.2080984264612198 0.2568293511867523 0.14432163536548615
Diana_(film) -0.39205777645111084 0.481296569108963 0.31856149435043335 -0.024676397442817688 -0.4029083847999573 0.08919305354356766 0.3770377039909363 -0.26733970642089844 -0.367214173078537 0.20165817439556122 0.17196713387966156 0.3330968916416168 -0.2569511830806732 0.00274950684979558 0.8017613291740417 0.5513988137245178 0.10174138098955154 0.2724005877971649 0.4528251886367798 0.8359668850898743 0.35399800539016724 0.2917397618293762 -0.3502146005630493 0.1403874158859253 -0.008379805833101273 0.4019075334072113 -0.3769908547401428 0.05508672446012497 0.13171076774597168 0.04111062362790108 -0.09489058703184128 -0.061288982629776 0.037433382123708725 -0.5419657230377197 0.003855800721794367 -0.1332205832004547 -0.11981883645057678 -0.3101479113101959 0.24232515692710876 -0.3176281154155731 0.15701931715011597 0.26584362983703613 0.42689189314842224 -0.3943805396556854 -0.5973466038703918 0.3717513382434845 -0.061365313827991486 -0.31061890721321106 -0.49529600143432617 0.16983360052108765 -0.0017128550680354238 0.3561713993549347 -0.5447749495506287 0.23565158247947693 0.731857180595398 -0.13596151769161224 0.3671092689037323 0.021743223071098328 0.23862141370773315 -0.3350614607334137 -0.20072270929813385 0.1902128905057907 0.32985618710517883 0.20713642239570618 -0.3335835039615631 -0.7692113518714905 -0.11477016657590866 0.10129597783088684 -0.08662449568510056 -0.3336948752403259 -0.4083048403263092 0.423462450504303 0.37850818037986755 0.4834880232810974 -0.32594630122184753 -0.16013763844966888 0.13147351145744324 -0.6480942964553833 -0.09849344193935394 0.6135019659996033 -0.3218846619129181 0.4958863854408264 0.410927414894104 -0.08957257866859436 0.08770594000816345 -0.13922345638275146 0.2654419541358948 0.823315441608429 -0.22620117664337158 0.3316812217235565 -0.4819819927215576 0.3071298599243164 0.41280296444892883 -1.049871563911438 0.10804629325866699 0.1268632858991623 -0.2374391406774521 0.8748580813407898 0.5661183595657349 -0.326748788356781 0.4668242037296295 0.5130841732025146 -0.15826132893562317 0.15269450843334198 0.3525671064853668 -0.16692718863487244 -0.2065325826406479 0.7021349668502808 0.2541908919811249 -0.5505800247192383 0.03378444164991379 -0.0749029740691185 0.40620771050453186 0.17679160833358765 -0.16487644612789154 -0.30041027069091797 -0.6742724776268005 0.27390536665916443 0.1993061751127243 -0.10812515020370483 -0.5164827704429626 -0.06766580790281296 -0.06317826360464096 0.4240477979183197 0.4818716049194336 0.3269425630569458 0.48354917764663696 0.5929639935493469 0.3048659861087799 0.3431394696235657 0.44863295555114746 0.6489260196685791 -0.03166501969099045 0.4980275630950928 0.20622430741786957 -0.2458416223526001 -0.28605905175209045 0.15788988769054413 0.1856142282485962 -0.7348322868347168 0.5071285963058472 -0.3108832538127899 0.34189650416374207 -0.45200973749160767 -0.012876803986728191 0.25324714183807373 0.5374628901481628 -0.2645263373851776 -0.08964890986680984 0.2444116622209549 -0.13467612862586975 0.170675128698349 0.49606993794441223 0.22986531257629395 0.17352360486984253 0.04527309164404869 0.7083581686019897 0.8792312145233154 -0.1526595652103424 -0.4693361520767212 -0.07937668263912201 -1.045755386352539 0.6487678289413452 0.34294557571411133 0.4630386531352997 0.14083698391914368 0.5845734477043152 -0.6720770597457886 -0.23885586857795715 0.09149112552404404 0.7481245994567871 0.21512363851070404 -0.11056602746248245 -0.030810195952653885 -0.5758229494094849 -0.004084566608071327 -0.40926167368888855 -0.2748866081237793 0.11301586776971817 0.5031905174255371 0.34852567315101624 0.29847097396850586 0.03229213133454323 -0.13562163710594177 -0.01928870379924774 0.10113681852817535 0.2631360590457916 -0.19834363460540771 0.01117956917732954 0.03716197982430458 0.10005797445774078 -0.1456783413887024 0.06956397742033005 0.5614234805107117 -0.45007777214050293 -0.16928181052207947 -0.09005449712276459 0.6206730008125305 0.35081449151039124 0.4390399754047394
360_(film) -0.18675830960273743 0.11671962589025497 -0.2238888144493103 0.17542435228824615 -0.19996044039726257 0.2802833318710327 0.03265593200922012 -0.6866824626922607 -0.3513038158416748 0.25657328963279724 0.3134859800338745 -0.22743862867355347 -0.9648517966270447 -1.054701566696167 0.7052341103553772 0.2201947718858719 0.2180696576833725 0.7852774858474731 -0.4610011577606201 0.8273860812187195 -0.06811505556106567 0.6204960942268372 -0.11107125878334045 0.41375407576560974 -0.08612046390771866 0.7158846259117126 -0.699255645275116 0.33498117327690125 0.3508603274822235 0.17022427916526794 0.9991952180862427 0.12747657299041748 0.11763234436511993 -0.7133073210716248 -0.1990375816822052 0.1214832216501236 -0.35500046610832214 0.022210396826267242 0.28170639276504517 -0.16430969536304474 -0.14515525102615356 0.1984507143497467 -0.03259724751114845 -0.05688241496682167 -0.3064385950565338 0.05559775233268738 -0.12174543738365173 -0.21879053115844727 -0.6096992492675781 0.1723669022321701 -0.3107134699821472 0.7436331510543823 -0.10109065473079681 -0.3765362799167633 0.42294615507125854 0.1595701426267624 0.08275570720434189 0.07158557325601578 0.21672649681568146 0.41157692670822144 0.005841544363647699 -0.05716385692358017 -0.044208839535713196 0.11308698356151581 -0.3589649796485901 -0.12207936495542526 -0.41543665528297424 0.1031961441040039 0.4011734127998352 0.14440692961215973 -0.5557904839515686 0.493974506855011 -0.27145740389823914 0.18479801714420319 -0.13097064197063446 -0.527462899684906 0.48225247859954834 -0.24472013115882874 0.043308887630701065 0.6622424721717834 0.29775893688201904 -0.0428033247590065 0.0037863783072680235 -0.22181153297424316 -0.6287156343460083 0.18733026087284088 0.3613729476928711 0.28210073709487915 -0.04281805455684662 0.3076326251029968 0.348136305809021 0.3330746591091156 -0.18743494153022766 -0.6282020807266235 0.3483389616012573 0.09769962728023529 -0.2205771505832672 0.28689512610435486 0.17479918897151947 -0.03316205367445946 0.19622375071048737 0.5677917003631592 0.3809317350387573 -0.24758556485176086 0.26654303073883057 0.24210785329341888 0.17015747725963593 -0.08314865827560425 0.05353469401597977 -0.7176875472068787 0.15735016763210297 0.021347306668758392 -0.23272359371185303 0.04046376049518585 0.35154345631599426 -0.3925306797027588 0.4317779242992401 -0.24510551989078522 -0.08427062630653381 -0.14040112495422363 0.4282393455505371 0.10914486646652222 0.16626420617103577 0.47374585270881653 0.3686656355857849 0.03050784021615982 -0.15127725899219513 1.0260541439056396 0.8498493432998657 0.3917931318283081 0.7843413352966309 0.10655839741230011 -0.08578234910964966 0.37173235416412354 0.9389805197715759 -0.695816159248352 -0.674289345741272 0.08737129718065262 0.33535391092300415 -0.6054733991622925 1.5182701349258423 -0.3008040189743042 0.23819798231124878 -0.6091340184211731 -0.09086130559444427 0.29642173647880554 0.3398626446723938 0.3824494779109955 0.3959757387638092 0.128221333026886 -0.35238268971443176 -0.34372323751449585 0.6535084843635559 0.443082720041275 0.6691571474075317 -0.10501305758953094 0.5853379368782043 -0.01747039146721363 0.07590244710445404 -0.6624160408973694 0.22685720026493073 -0.4900064468383789 0.0028227369766682386 -0.19268669188022614 0.3398746848106384 -0.12486673891544342 -0.4000648856163025 -0.6737975478172302 -0.5047975182533264 0.4123571217060089 0.14806564152240753 0.22723224759101868 -0.006642314605414867 -0.5685112476348877 -0.012000342831015587 0.29990142583847046 -0.9304915070533752 -0.00956488773226738 0.2309911996126175 -0.08403310179710388 0.0983678475022316 0.7809237241744995 0.20158571004867554 0.2651473879814148 -0.21423760056495667 0.0048043676652014256 0.3646284341812134 0.22700463235378265 0.1980949342250824 0.23966915905475616 -0.12426996976137161 0.583114504814148 0.43985438346862793 0.43083497881889343 0.05607912689447403 -0.5392544269561768 -0.19586411118507385 -0.21438691020011902 0.18962810933589935 0.44889912009239197
Thérèse_Desqueyroux_(2012_film) 0.0 0.0 0.0 0.0 0.0 0.0 0.0 0.0 0.0 0.0 0.0 0.0 0.0 0.0 0.0 0.0 0.0 0.0 0.0 0.0 0.0 0.0 0.0 0.0 0.0 0.0 0.0 0.0 0.0 0.0 0.0 0.0 0.0 0.0 0.0 0.0 0.0 0.0 0.0 0.0 0.0 0.0 0.0 0.0 0.0 0.0 0.0 0.0 0.0 0.0 0.0 0.0 0.0 0.0 0.0 0.0 0.0 0.0 0.0 0.0 0.0 0.0 0.0 0.0 0.0 0.0 0.0 0.0 0.0 0.0 0.0 0.0 0.0 0.0 0.0 0.0 0.0 0.0 0.0 0.0 0.0 0.0 0.0 0.0 0.0 0.0 0.0 0.0 0.0 0.0 0.0 0.0 0.0 0.0 0.0 0.0 0.0 0.0 0.0 0.0 0.0 0.0 0.0 0.0 0.0 0.0 0.0 0.0 0.0 0.0 0.0 0.0 0.0 0.0 0.0 0.0 0.0 0.0 0.0 0.0 0.0 0.0 0.0 0.0 0.0 0.0 0.0 0.0 0.0 0.0 0.0 0.0 0.0 0.0 0.0 0.0 0.0 0.0 0.0 0.0 0.0 0.0 0.0 0.0 0.0 0.0 0.0 0.0 0.0 0.0 0.0 0.0 0.0 0.0 0.0 0.0 0.0 0.0 0.0 0.0 0.0 0.0 0.0 0.0 0.0 0.0 0.0 0.0 0.0 0.0 0.0 0.0 0.0 0.0 0.0 0.0 0.0 0.0 0.0 0.0 0.0 0.0 0.0 0.0 0.0 0.0 0.0 0.0 0.0 0.0 0.0 0.0 0.0 0.0 0.0 0.0 0.0 0.0 0.0 0.0
Le_grand_soir_(film) -0.11669990420341492 0.7465752959251404 -0.25697699189186096 -0.4996282458305359 0.4027475416660309 0.0948864221572876 0.11135295778512955 -0.515326738357544 -0.12525305151939392 0.11299588531255722 0.052868958562612534 0.37764549255371094 -0.41962891817092896 0.11231721192598343 0.8512580394744873 -0.11332237720489502 -0.042304616421461105 -0.01975051872432232 0.00927335862070322 0.5063470005989075 -0.35632622241973877 0.39995837211608887 -0.6303218603134155 -0.0266876220703125 -0.0863303691148758 0.43592432141304016 -0.49577194452285767 0.14999830722808838 0.1521611511707306 0.2614383101463318 -0.2048899382352829 0.052217260003089905 0.024551622569561005 -0.3023562729358673 0.7836441397666931 -0.13117194175720215 0.03913320228457451 0.06500627845525742 0.014134394004940987 -0.4528254568576813 0.2825804352760315 0.5342040061950684 0.07165549695491791 0.08765607327222824 0.12715338170528412 -0.12077387422323227 -0.7177668809890747 -0.0050346264615654945 -0.06290192902088165 0.4683762192726135 -0.4816287159919739 0.0898425430059433 -0.3837100863456726 0.13589635491371155 0.4294774830341339 -0.12401372194290161 0.2948843538761139 0.19585612416267395 0.07617074251174927 -0.0988125130534172 0.054635632783174515 0.42092224955558777 0.42502519488334656 0.09393755346536636 -0.014001138508319855 -0.6817467212677002 -0.6462696194648743 0.06488066911697388 -0.1984434723854065 -0.3543166518211365 0.27213847637176514 0.8176313042640686 0.2898118495941162 0.5010029673576355 0.12757669389247894 -0.14395509660243988 0.053538087755441666 0.6675582528114319 0.023071525618433952 0.35516494512557983 0.1712576150894165 0.20683754980564117 0.2816082537174225 -0.1879989355802536 -0.028421496972441673 0.07511452585458755 0.5484374165534973 0.35153940320014954 0.1663387566804886 0.0014327922835946083 -0.3778625726699829 0.18201489746570587 -0.2637811601161957 -0.8187443017959595 0.4193187355995178 -0.35386574268341064 0.10882733017206192 0.22532901167869568 0.4894408881664276 -0.184127539396286 0.1133466586470604 0.2150060385465622 0.9479379653930664 0.18384124338626862 0.2399294674396515 0.0025737048126757145 -0.19262787699699402 0.3627101480960846 -0.18795324862003326 -0.05496424436569214 -0.18642376363277435 0.23260124027729034 0.05620682239532471 -0.17749089002609253 -0.30495840311050415 -0.45384716987609863 -0.10084259510040283 -0.005620693787932396 0.4304322302341461 -0.04819370061159134 -0.439583957195282 0.18493959307670593 -0.04840469732880592 0.11013542115688324 0.41286569833755493 0.7693994045257568 0.2683148682117462 -0.25240710377693176 0.8471733927726746 0.7223573923110962 -0.017346499487757683 0.24813136458396912 -0.1962723582983017 0.4157143533229828 0.542256772518158 -0.7978799343109131 -0.026041602715849876 -0.14678330719470978 -0.4220629930496216 -0.48697027564048767 0.2885621190071106 -0.062238000333309174 0.5395336151123047 -1.1745057106018066 0.12092052400112152 -0.5458845496177673 0.3632749915122986 -0.25844046473503113 0.2796609699726105 0.1933032125234604 -0.6275597214698792 0.2624366581439972 0.2884056568145752 0.09403612464666367 0.6192600727081299 -0.17694100737571716 0.4414612948894501 -0.008560155518352985 -0.17523667216300964 -0.16525858640670776 0.2015325129032135 -0.1445627063512802 0.2613603174686432 -0.382296085357666 0.28631702065467834 -0.2034756988286972 0.06729216873645782 -0.5663118362426758 -0.42471596598625183 -0.1055007055401802 0.1444484442472458 0.17768630385398865 -0.07304046303033829 0.046596597880125046 -0.3099639415740967 -0.30667436122894287 -1.1288658380508423 0.17502835392951965 0.06258687376976013 -0.060375381261110306 0.0700141116976738 0.38812774419784546 -0.03220325708389282 0.0524091012775898 0.003615181427448988 0.5155184864997864 -0.2056824415922165 0.1086755245923996 -0.13661956787109375 -0.21542559564113617 0.07956055551767349 0.20052960515022278 0.3132212460041046 -0.02378525771200657 0.42861852049827576 -0.1322157233953476 -0.05579627305269241 0.3230677843093872 0.24847711622714996 1.2197961807250977
Inside_Llewyn_Davis 0.2395065277814865 0.7066196203231812 -0.35642579197883606 0.19096921384334564 -0.4951237142086029 -0.3741299510002136 0.08449265360832214 -0.8573449850082397 0.12834542989730835 0.1924206018447876 -0.06541327387094498 0.3099823296070099 -0.49751755595207214 -0.4061398208141327 1.010811448097229 0.14622312784194946 0.08982596546411514 0.5500383973121643 -0.09232554584741592 0.1390228569507599 -0.1320880949497223 0.26393550634384155 -0.17108221352100372 0.02657940424978733 -0.04666348546743393 0.380302757024765 -0.2771962285041809 -0.05560913681983948 0.666447639465332 -0.13145262002944946 0.16857478022575378 0.35470783710479736 0.20423097908496857 -0.1849130392074585 -0.0962643250823021 -0.15406692028045654 0.023734550923109055 0.2063746303319931 -0.3148361146450043 0.4861401915550232 0.27772313356399536 0.47836166620254517 0.2031009942293167 -0.8991366028785706 0.2522686719894409 -0.12413858622312546 0.051362261176109314 -0.09569136053323746 -0.6591355800628662 0.2311229407787323 -0.1476990282535553 0.48564231395721436 0.3928825855255127 -0.48095932602882385 0.8832336664199829 -0.043387625366449356 -0.22799229621887207 0.2518444061279297 -0.14806979894638062 -0.00756812933832407 -0.2071893960237503 -0.4369010925292969 -0.1917712390422821 0.030967239290475845 -0.5111441016197205 -0.4816925823688507 -0.03432849049568176 0.5176075100898743 -0.10414022952318192 0.25893476605415344 0.26562777161598206 0.7506695985794067 0.17922337353229523 0.589086651802063 -0.24731802940368652 0.11671953648328781 -0.06132011488080025 0.04472173750400543 -0.5571162104606628 -0.0471578985452652 0.04653725028038025 -0.05152157321572304 0.13583679497241974 -0.5992377996444702 -0.40027180314064026 -0.5179921388626099 0.680815577507019 1.3663585186004639 0.32137683033943176 0.03673549368977547 -0.26429393887519836 -0.29446473717689514 0.4376954734325409 -0.4758497178554535 0.33537617325782776 0.4014832079410553 -0.1043463721871376 0.16487975418567657 0.23226448893547058 -0.8324807286262512 0.227049320936203 0.39281710982322693 0.5049528479576111 0.005966016091406345 0.4907757341861725 0.019881434738636017 -0.48392826318740845 0.44554731249809265 0.5195401906967163 -0.8292102217674255 0.11678953468799591 -0.08195812255144119 0.9343579411506653 0.2802249789237976 -0.15632551908493042 -0.38110166788101196 -0.7426744103431702 0.2439901977777481 0.3633881211280823 0.5004276633262634 -0.2489987462759018 0.19573552906513214 0.37557944655418396 1.040589690208435 -0.23990367352962494 -0.17419077455997467 0.05444899573922157 0.14321187138557434 0.3754209280014038 0.12576530873775482 0.2792932093143463 0.2559940814971924 -0.18691642582416534 0.17961692810058594 0.2967728078365326 -0.8357624411582947 -0.358860582113266 -0.5336396098136902 -0.46755722165107727 -0.4904089868068695 -0.2875416576862335 -0.25076815485954285 -0.22011874616146088 -1.2653591632843018 -0.042432866990566254 0.2490534633398056 -0.07937087118625641 0.035058774054050446 0.5609629154205322 0.4616021513938904 -0.032845914363861084 0.3463227450847626 -0.48884037137031555 -0.06943849474191666 0.1482708603143692 -0.5455967783927917 0.2304406762123108 0.29565829038619995 -0.29579243063926697 -0.08966671675443649 0.2659364342689514 -0.6500691771507263 -0.041912101209163666 -0.22202466428279877 0.8300550580024719 -0.3720617890357971 -0.2526858448982239 -0.29649171233177185 -0.506565511226654 0.271806001663208 0.590682864189148 0.32312750816345215 -0.03778316080570221 0.0296294204890728 -0.6365676522254944 -0.27564409375190735 -0.6315241456031799 0.17159231007099152 -0.03521159291267395 0.17038123309612274 0.42097795009613037 0.686048686504364 0.02747226506471634 0.23281177878379822 -0.8281247019767761 -0.04784579202532768 -0.8932622075080872 -0.14454612135887146 0.25527113676071167 0.20976705849170685 -0.04892987012863159 0.6320978403091431 0.5166088938713074 -0.18736115097999573 0.11165346950292587 -0.7384737730026245 -0.06767809391021729 0.41410958766937256 0.38031160831451416 0.2142210155725479
Play_(2011_film) -0.18932558596134186 0.10547628998756409 -0.23930172622203827 -0.24105562269687653 0.03865164890885353 -0.05552765727043152 -0.21115705370903015 -0.45105618238449097 0.10757488757371902 0.17026014626026154 0.05519114434719086 0.07507383823394775 -0.19227507710456848 -0.43343299627304077 0.2047501653432846 0.17516127228736877 -0.37112531065940857 0.28460875153541565 0.14154772460460663 0.4764299690723419 -0.2179974913597107 0.5274758338928223 0.0077984947711229324 0.053269851952791214 0.11764799058437347 0.09630623459815979 -0.5031754970550537 0.1337026208639145 0.4318253695964813 -0.2766611874103546 0.685958981513977 -0.07280918955802917 0.3215104639530182 -0.03918657824397087 -0.037840586155653 0.4421567916870117 -0.19562502205371857 0.056238509714603424 0.354163259267807 0.18190373480319977 -0.14355774223804474 0.4598939120769501 0.3764066994190216 -0.34612035751342773 -0.6915953159332275 -0.4045232832431793 0.09057381749153137 -0.0874045267701149 -0.3019656538963318 0.4556342363357544 -0.2927096486091614 0.2119370400905609 -0.361545592546463 0.39373987913131714 0.39917975664138794 0.216970294713974 -0.3111955225467682 0.4287942051887512 0.23150010406970978 -0.5610691905021667 -0.18695026636123657 -0.09798754006624222 0.0015810987679287791 0.22009103000164032 0.35022974014282227 -0.5707883238792419 -0.5326898694038391 0.3067483901977539 -0.1807425618171692 0.029987799003720284 -0.3458053171634674 0.4820542335510254 0.563174843788147 0.254686564207077 -0.30070769786834717 -0.028783932328224182 0.14740727841854095 0.027416223660111427 -0.028770219534635544 0.5022983551025391 0.25649696588516235 -0.012639643624424934 -0.0022581564262509346 0.10272767394781113 -0.6777142882347107 -0.26423174142837524 0.2806859314441681 0.2367710918188095 0.7308447360992432 0.23004478216171265 -0.27539393305778503 0.0711592510342598 -0.3533724248409271 -0.12402092665433884 -0.042437225580215454 0.3111434876918793 -0.22589370608329773 0.2999035120010376 -0.16106832027435303 -0.27879372239112854 -0.1353749781847 -0.41268497705459595 0.0657489225268364 0.37223580479621887 -0.07218681275844574 0.006290081888437271 0.5802605152130127 0.36257919669151306 -0.2330576479434967 0.04546138271689415 0.24888545274734497 0.11669011414051056 -0.26691049337387085 -0.17800700664520264 0.5612918734550476 -0.47022390365600586 -0.24113613367080688 0.04640877619385719 0.48844805359840393 0.14106562733650208 -0.18495136499404907 0.10173725336790085 -0.1358746737241745 -0.1734960675239563 0.43401265144348145 0.12385422736406326 0.09287053346633911 -0.10431648045778275 -0.038361672312021255 0.3035487234592438 0.43469563126564026 0.3096297085285187 0.07423971593379974 0.3151855766773224 0.07412540912628174 -0.31352582573890686 -0.20573189854621887 0.21932746469974518 0.08257850259542465 -0.24824684858322144 0.046807095408439636 0.2703882157802582 -0.0854000598192215 -0.5928252935409546 -0.27743640542030334 -0.05790160596370697 0.18356266617774963 -0.2169158011674881 0.3355676829814911 0.34662649035453796 -0.1004025787115097 -0.12851081788539886 -0.2052493542432785 -0.10169986635446548 0.34267473220825195 -0.16710636019706726 0.08877962827682495 0.05805947259068489 -0.08722905069589615 0.04088092967867851 -0.06895077973604202 0.03077741526067257 0.03856528922915459 -0.04050954058766365 0.5157853960990906 -0.1954592764377594 -0.2738317549228668 -0.8437783718109131 -0.5953865051269531 0.6335424184799194 0.43795090913772583 0.4397876262664795 -0.3689001500606537 0.15583288669586182 -0.8200771808624268 -0.051105666905641556 -0.7557119131088257 -0.11184585094451904 -0.1805611401796341 -0.11687078326940536 -0.054556358605623245 0.30452126264572144 -0.19342410564422607 0.2172313928604126 -0.46968331933021545 -0.06226864457130432 -0.02902177721261978 0.45936307311058044 -0.2902483642101288 0.4374952018260956 0.08698250353336334 0.18930859863758087 -0.19469015300273895 0.5117139220237732 0.4417041838169098 -0.2640312612056732 -0.18943746387958527 -0.28822970390319824 0.21739859879016876 0.7637336850166321
No_(2012_film) 0.014009812846779823 0.3478662073612213 0.19331324100494385 0.505523145198822 0.08456207811832428 -0.32834914326667786 0.013024138286709785 -0.13131876289844513 -0.7071088552474976 -0.398911714553833 -0.010049859061837196 0.1771322786808014 -0.6543246507644653 -0.4215652346611023 0.23653022944927216 0.29719090461730957 -0.43323180079460144 0.47886720299720764 0.10956892371177673 0.13696828484535217 -0.41955816745758057 0.028337111696600914 -0.17764557898044586 0.5193222761154175 0.14102929830551147 0.08295543491840363 -0.4904884099960327 0.2355027198791504 0.37690719962120056 -0.06033328175544739 0.5417382717132568 0.567995011806488 0.3045605719089508 -0.7493681311607361 -0.4328366816043854 0.03116677515208721 -0.04562383517622948 -0.08154593408107758 0.477611780166626 -0.11972534656524658 0.25710055232048035 0.31257712841033936 0.36686578392982483 -0.62373948097229 -0.12093907594680786 0.015597117133438587 -0.2632063627243042 0.039410315454006195 -0.4697923958301544 0.7159644365310669 -0.6732180118560791 -0.04949043691158295 0.1296398788690567 -0.497460275888443 0.2937701344490051 0.2680005729198456 0.48163944482803345 0.12226910144090652 0.21351635456085205 -0.2551194429397583 0.2720073461532593 0.24296291172504425 -0.09062064439058304 -0.039907701313495636 0.11513103544712067 -0.8029711246490479 -0.6900159120559692 -0.08647241443395615 0.18644125759601593 0.3677704930305481 0.2676926553249359 0.17304423451423645 0.48340314626693726 0.7014397382736206 0.04558385908603668 -0.08087669312953949 -0.23192304372787476 -0.3373332917690277 0.3857349753379822 0.4270729422569275 0.3202848732471466 -0.31592056155204773 0.07626103609800339 -0.13378338515758514 -0.6595476865768433 -0.4190555512905121 0.679068922996521 0.006617847364395857 -0.21972957253456116 0.3905651271343231 -0.05723606422543526 -0.2516794502735138 0.18472491204738617 -0.7751098275184631 -0.07764918357133865 0.4192221760749817 -0.11635319888591766 0.22958126664161682 0.7927665114402771 -0.7653959393501282 0.16210706532001495 -0.04945380613207817 0.18764755129814148 -0.10264849662780762 0.11046555638313293 0.18950393795967102 -0.2324092835187912 0.1876736283302307 -0.005251417402178049 -0.18774330615997314 0.2641049325466156 0.4006279408931732 0.2407919317483902 -0.3400070071220398 -0.03267455846071243 0.4371161162853241 0.018294116482138634 -0.13830797374248505 0.20956382155418396 0.375342458486557 -0.22990678250789642 0.3326049745082855 -0.2056502401828766 -0.07845471799373627 0.2902643382549286 0.04899394512176514 0.3437475860118866 0.11186796426773071 0.17545047402381897 0.4575892686843872 0.49505284428596497 0.18581493198871613 -0.14458909630775452 0.314836710691452 0.354626327753067 -0.2129921019077301 -0.25449487566947937 0.02149163745343685 0.4713839888572693 -0.1323673576116562 -0.013033549301326275 -0.4029618501663208 0.6298633813858032 -0.25542402267456055 -0.445462167263031 -0.1857549399137497 0.22726497054100037 0.1855856478214264 0.5129764676094055 0.180275559425354 -0.05478512868285179 -0.3634953200817108 0.17404629290103912 -0.3423859179019928 0.27834799885749817 0.4161025583744049 0.19276835024356842 -0.17432990670204163 0.027653899043798447 -0.3642234206199646 0.4670719802379608 -0.36208707094192505 0.6462945342063904 -0.16687250137329102 0.3954794704914093 -0.2629545331001282 -0.1828167587518692 -1.4839997291564941 -0.47031235694885254 0.4569699466228485 0.8359559774398804 0.9576057195663452 -0.37741294503211975 0.24156072735786438 -0.3565065264701843 -0.10458521544933319 -0.7855432629585266 0.24591971933841705 -0.116245798766613 -0.10164500027894974 -0.3836943805217743 0.2456214427947998 0.34208306670188904 -0.11838994175195694 -0.6741232872009277 0.23348140716552734 -0.7942777872085571 0.05450925976037979 -0.12042819708585739 0.32229140400886536 0.7146403193473816 0.32075235247612 0.37825968861579895 -0.16840900480747223 0.3174717426300049 -0.1836775690317154 -0.5489640235900879 -0.2496194988489151 0.19591055810451508 0.7996301054954529
Passion_(2012_film) 0.05468712002038956 0.06014697998762131 -0.024526363238692284 0.1234293207526207 -0.06396324932575226 -0.07520721852779388 0.002367853419855237 -0.5919732451438904 0.21676653623580933 -0.12193305045366287 -0.02606886811554432 0.20218512415885925 0.16910280287265778 -0.34369486570358276 0.13669241964817047 0.09740303456783295 -0.23609115183353424 0.5014414191246033 -0.28453966975212097 0.42800650000572205 -0.16410133242607117 0.6946949362754822 -0.18514862656593323 0.36380741000175476 0.17564022541046143 0.39776667952537537 -0.01391241978853941 -0.10648079216480255 0.2082628309726715 0.09959916770458221 0.8239359855651855 0.2806498408317566 0.4616616666316986 -0.9609962701797485 -0.24687038362026215 0.21568971872329712 -0.38606777787208557 -0.15847012400627136 0.42736923694610596 0.2269212156534195 -0.3324470520019531 -0.22899965941905975 0.21444937586784363 -0.6347223520278931 -0.43617501854896545 -0.2043461799621582 -0.06164341792464256 -0.2305307537317276 -0.819532573223114 0.6784018278121948 -0.11132092773914337 0.7572212815284729 -0.42731985449790955 0.15691664814949036 0.6807151436805725 -0.15074235200881958 0.22825880348682404 0.14684846997261047 0.34991419315338135 -0.18201547861099243 -0.08489371836185455 0.3378896415233612 0.37731629610061646 0.36960306763648987 -0.2023162543773651 -0.40033775568008423 -0.23183737695217133 -0.23453564941883087 -0.1279860883951187 0.43285661935806274 -0.1336115002632141 0.3201172351837158 0.3786575496196747 0.022215496748685837 -0.21689878404140472 -0.45531976222991943 -0.20353902876377106 -0.3945983052253723 -0.0027163580525666475 0.4687623381614685 0.1389753818511963 0.42414340376853943 -0.04704783484339714 -0.33969950675964355 -0.6579054594039917 0.3180794417858124 0.32072168588638306 0.4202420711517334 0.10963574796915054 0.24952231347560883 -0.5359747409820557 -0.0277717262506485 -0.23873084783554077 -0.046563342213630676 0.5039711594581604 -0.15075458586215973 -0.6455240249633789 0.19482754170894623 0.8100704550743103 -0.1423737108707428 0.0750717893242836 -0.049960751086473465 -0.30265945196151733 0.47113847732543945 0.2872556149959564 -0.004285773728042841 -0.06379003077745438 0.21357247233390808 -0.15596231818199158 -0.2922517657279968 0.701029896736145 -0.1512329876422882 0.34907278418540955 -0.21360255777835846 0.2057645171880722 -0.4948112666606903 0.09399411082267761 0.3119468688964844 0.5841147899627686 0.25504767894744873 -0.1818486899137497 0.4286734163761139 0.13065265119075775 0.17801204323768616 0.4354546070098877 -0.06135685369372368 0.3998878300189972 0.5410715937614441 0.4585362672805786 0.440207839012146 0.5698911547660828 0.5929943323135376 -0.08493097126483917 0.30550894141197205 0.4374005198478699 -0.6118156909942627 -0.19889791309833527 0.13439269363880157 0.4131801128387451 -0.31198909878730774 0.22441352903842926 -0.007336951792240143 -0.3201974034309387 -0.9814367294311523 0.0018040335271507502 -0.18031446635723114 0.11558159440755844 -0.2118307501077652 0.11418869346380234 0.360412061214447 -0.5130372643470764 0.5008432865142822 0.003394812811166048 0.09878422319889069 0.5568602085113525 0.015985991805791855 0.21654513478279114 0.25837305188179016 0.24150702357292175 -0.11244373023509979 0.36370420455932617 -0.5024625658988953 0.20634350180625916 -0.03054400347173214 0.6732030510902405 -0.28450721502304077 0.05705179274082184 -0.8093050718307495 -0.4746161997318268 1.0794100761413574 0.3200443983078003 0.40778565406799316 -0.49369534850120544 -0.06801716983318329 -0.13230100274085999 -0.0665898397564888 -0.1619308888912201 0.1325066238641739 -0.1804019659757614 -0.20064768195152283 0.08836987614631653 0.509392261505127 0.13870744407176971 0.17773425579071045 -0.34236106276512146 0.15324603021144867 0.30731362104415894 0.24524760246276855 0.15384411811828613 -0.011794832535088062 0.704167902469635 0.18174932897090912 -0.04248514026403427 0.17428219318389893 -0.03666485846042633 -0.2801286578178406 -0.6134724020957947 -0.543326199054718 0.2413751631975174 0.5203671455383301
The_Nun_(2013_film) -0.17893804609775543 0.3124178647994995 -0.08025895059108734 0.032222576439380646 0.1168881431221962 -0.07553102821111679 0.2235874980688095 -0.36045944690704346 -0.24326732754707336 0.21037210524082184 -0.11160989105701447 0.12543033063411713 0.1876639574766159 -0.2890309691429138 0.5021575689315796 0.4359537363052368 0.10106505453586578 0.2506955564022064 -0.05995938926935196 0.29603487253189087 -0.27565473318099976 0.3137616515159607 -0.20337602496147156 -0.11193566024303436 0.02833031304180622 0.21318873763084412 -0.47294703125953674 -0.023786397650837898 0.021523043513298035 -0.00010703317821025848 0.08649183809757233 0.44692447781562805 0.40535804629325867 -0.6349169015884399 0.1389106810092926 0.2253609150648117 0.11544419825077057 0.19153311848640442 -0.16308549046516418 -0.5541871786117554 0.06392285227775574 -0.17960107326507568 0.3155747652053833 -0.10350270569324493 -0.39304736256599426 -0.19847732782363892 -0.02950695902109146 -0.06395343691110611 -0.2794378697872162 0.6557144522666931 -0.3097713589668274 0.6912714838981628 -0.36168521642684937 -0.2878721058368683 0.6089746356010437 0.24296486377716064 0.38955193758010864 -0.13257063925266266 0.16772037744522095 -0.030887331813573837 -0.04031054303050041 0.04196631535887718 0.7138143181800842 0.09408538043498993 0.03166915476322174 -0.6724497079849243 -0.10899330675601959 -0.088972307741642 -0.19409844279289246 -0.15484285354614258 0.5473460555076599 0.6929174065589905 0.010468152351677418 0.20280511677265167 0.3006330728530884 -0.30446046590805054 -0.20088043808937073 -0.025138389319181442 0.034035470336675644 0.15179218351840973 0.06383078545331955 0.36892959475517273 -0.11339899152517319 -0.2013023942708969 -0.686309278011322 0.18257126212120056 0.3604867458343506 0.4645412862300873 0.19477634131908417 0.30613958835601807 -0.9837865233421326 0.04628044739365578 -0.03756987676024437 -0.5327231884002686 -0.17100384831428528 -0.04928210750222206 -0.133374884724617 0.3074406385421753 0.5914487242698669 0.0014983897563070059 0.14018145203590393 -0.008624515496194363 0.8215230703353882 -0.0138760507106781 0.5914852619171143 -0.14309833943843842 0.21079742908477783 0.15789693593978882 -0.12918595969676971 -0.744407057762146 0.353813111782074 0.012344524264335632 0.42476487159729004 -0.016476286575198174 0.24989992380142212 0.03842325508594513 -0.20028921961784363 -0.3606773316860199 0.009563351050019264 -0.12424913793802261 -0.32027894258499146 -0.16852642595767975 -0.13580948114395142 0.5792447328567505 0.5674539804458618 0.3153456449508667 0.38756534457206726 0.3848142623901367 0.38470762968063354 0.511479377746582 0.6841520667076111 0.18817415833473206 -0.2716448903083801 0.3814937174320221 0.15377718210220337 -0.3988988995552063 -0.3786814212799072 0.1735321283340454 -0.006234746426343918 0.009052914567291737 0.2978871166706085 -0.25660350918769836 0.7270458340644836 -0.7607876658439636 0.0692104697227478 0.10528596490621567 0.5787144303321838 -0.4344579577445984 0.388685941696167 0.44529563188552856 -0.4668653607368469 0.6202839612960815 -0.010669379495084286 0.10808403044939041 0.6929728388786316 -0.3083522319793701 0.8241660594940186 0.08053607493638992 0.04444700852036476 -0.20195811986923218 0.9782178997993469 -0.5197973847389221 0.26083895564079285 -0.041979238390922546 0.1316944658756256 -0.12944354116916656 -0.5125181078910828 -0.40521368384361267 -0.5901459455490112 0.494022935628891 0.0993526354432106 0.5295704007148743 0.0672440305352211 0.5160667896270752 -0.3319399058818817 0.25419095158576965 -0.8206068277359009 -0.083883136510849 -0.28477558493614197 0.058267515152692795 -0.47826990485191345 -0.028851432725787163 -0.1627039611339569 -0.02200273610651493 -0.223820298910141 0.43339258432388306 -0.16352927684783936 0.21890290081501007 -0.07405576854944229 0.06653779000043869 0.10791950672864914 0.4898431599140167 -0.04490009695291519 0.1089773178100586 0.2956816554069519 0.0856364294886589 -0.14189648628234863 0.20014049112796783 0.19408105313777924 0.7306206226348877
Angélique_(film) 0.0 0.0 0.0 0.0 0.0 0.0 0.0 0.0 0.0 0.0 0.0 0.0 0.0 0.0 0.0 0.0 0.0 0.0 0.0 0.0 0.0 0.0 0.0 0.0 0.0 0.0 0.0 0.0 0.0 0.0 0.0 0.0 0.0 0.0 0.0 0.0 0.0 0.0 0.0 0.0 0.0 0.0 0.0 0.0 0.0 0.0 0.0 0.0 0.0 0.0 0.0 0.0 0.0 0.0 0.0 0.0 0.0 0.0 0.0 0.0 0.0 0.0 0.0 0.0 0.0 0.0 0.0 0.0 0.0 0.0 0.0 0.0 0.0 0.0 0.0 0.0 0.0 0.0 0.0 0.0 0.0 0.0 0.0 0.0 0.0 0.0 0.0 0.0 0.0 0.0 0.0 0.0 0.0 0.0 0.0 0.0 0.0 0.0 0.0 0.0 0.0 0.0 0.0 0.0 0.0 0.0 0.0 0.0 0.0 0.0 0.0 0.0 0.0 0.0 0.0 0.0 0.0 0.0 0.0 0.0 0.0 0.0 0.0 0.0 0.0 0.0 0.0 0.0 0.0 0.0 0.0 0.0 0.0 0.0 0.0 0.0 0.0 0.0 0.0 0.0 0.0 0.0 0.0 0.0 0.0 0.0 0.0 0.0 0.0 0.0 0.0 0.0 0.0 0.0 0.0 0.0 0.0 0.0 0.0 0.0 0.0 0.0 0.0 0.0 0.0 0.0 0.0 0.0 0.0 0.0 0.0 0.0 0.0 0.0 0.0 0.0 0.0 0.0 0.0 0.0 0.0 0.0 0.0 0.0 0.0 0.0 0.0 0.0 0.0 0.0 0.0 0.0 0.0 0.0 0.0 0.0 0.0 0.0 0.0 0.0
Under_the_Rainbow_(2013_film) -0.2824673056602478 0.7302929162979126 -0.5075418949127197 -0.19000746309757233 0.20151756703853607 -0.09408959001302719 -0.2120921015739441 0.030121829360723495 0.0027457105461508036 0.0829356387257576 -0.32881462574005127 0.12601423263549805 -0.1785403937101364 -0.12717373669147491 0.5651408433914185 0.3549474775791168 0.09636640548706055 0.2588157057762146 0.22204232215881348 0.45471271872520447 -0.3252558708190918 0.20068848133087158 -0.3254505693912506 0.16735006868839264 -0.02284306101500988 0.4720080494880676 -0.26583659648895264 0.08317117393016815 0.286690354347229 0.23411956429481506 0.4883260726928711 0.1415862739086151 0.1779470294713974 -0.4868892431259155 0.3694046139717102 -0.015177473425865173 0.3481205999851227 0.07667795568704605 -0.11884243041276932 0.00738091254606843 0.0872349739074707 0.14674177765846252 0.29036760330200195 -0.40543869137763977 -0.19049207866191864 -0.26688656210899353 0.09021372348070145 -0.014338109642267227 -0.2832985520362854 0.3071831166744232 0.02009437046945095 0.38006487488746643 0.04253259301185608 -0.00968688353896141 0.6650322675704956 -0.06477774679660797 0.008905401453375816 -0.031886011362075806 0.08417624980211258 -0.008251156657934189 -0.33211949467658997 0.07517639547586441 0.5100131630897522 0.35789021849632263 -0.012724412605166435 -0.38101720809936523 -0.1354323774576187 0.25714465975761414 -0.38204893469810486 0.09278583526611328 0.11426988244056702 0.9489685297012329 0.23209571838378906 0.5932724475860596 0.0960773155093193 -0.35364922881126404 0.12597371637821198 -0.016680056229233742 0.1509455144405365 0.27792420983314514 -0.04355131462216377 -0.02629448100924492 0.2772809863090515 -0.02022620663046837 -0.021448899060487747 0.10090329498052597 0.6082910299301147 0.8370413780212402 0.27022066712379456 -0.06496776640415192 -0.3630257248878479 -0.06825052946805954 -0.3365185856819153 -0.29335665702819824 0.24432918429374695 -0.18380604684352875 -0.2952576279640198 0.5095503330230713 0.3916749358177185 -0.1184990257024765 -0.053089689463377 -0.0984743982553482 0.5665884017944336 -0.08286983519792557 0.3755040168762207 -0.16729728877544403 -0.2151787132024765 0.6842185258865356 -0.16820374131202698 -0.3316482901573181 0.3805052936077118 0.18176928162574768 0.2375301718711853 -0.1321459710597992 0.3032534122467041 -0.08058032393455505 -0.31365036964416504 0.037710774689912796 0.030497487634420395 0.0040169889107346535 -0.36886274814605713 0.28641030192375183 0.14132186770439148 0.257220059633255 0.5015057325363159 0.38563013076782227 0.26913130283355713 0.18158210813999176 0.4260404407978058 0.17906080186367035 0.6962080597877502 0.2186601310968399 0.03226381167769432 -0.03172522038221359 0.1832807958126068 -0.45759084820747375 -0.3570844531059265 0.4894804060459137 0.017787573859095573 -0.23616762459278107 0.2792316973209381 -0.47844576835632324 0.20031973719596863 -0.7465505003929138 -0.04246482998132706 -0.033213160932064056 0.8625067472457886 -0.26057854294776917 0.28866440057754517 0.29961666464805603 -0.4258343577384949 0.29230085015296936 0.26453059911727905 0.11125099658966064 0.30714118480682373 -0.3436799943447113 0.4857039451599121 0.15063291788101196 -0.003869706066325307 -0.13118481636047363 0.1572926938533783 -0.42530953884124756 0.37531760334968567 -0.1343371719121933 0.2321126013994217 -0.01741263084113598 -0.16752175986766815 -0.4967350363731384 -0.48622265458106995 0.14698351919651031 0.27210789918899536 0.21559183299541473 -0.2825068533420563 0.10293304920196533 -0.09556425362825394 -0.769142746925354 -0.8469194173812866 -0.11774428188800812 -0.027920404449105263 -0.13876216113567352 0.14249807596206665 0.18909616768360138 -0.12027846276760101 0.08652123808860779 -0.005391366314142942 0.39628785848617554 -0.032482679933309555 0.2826840877532959 0.21715672314167023 -0.2228393852710724 -0.0884375274181366 0.5995276570320129 0.20699596405029297 0.13657841086387634 0.20255841314792633 -0.097388356924057 -0.12505464255809784 0.3755650222301483 0.5329891443252563 1.0628446340560913
Blood_Ties_(2013_film) 0.09424799680709839 0.31065186858177185 -0.10865458101034164 0.0281728133559227 0.059819478541612625 0.017431680113077164 -0.2282770723104477 -0.3294370472431183 -0.27130764722824097 -0.08605300635099411 -0.10093120485544205 0.12431515753269196 -0.13444359600543976 -0.3669334053993225 0.6061744093894958 0.04538019374012947 -0.05576399713754654 0.30269166827201843 -0.012383497320115566 0.18429884314537048 -0.2897961735725403 0.2698065936565399 -0.305878221988678 0.037369463592767715 0.027105752378702164 0.2550291121006012 -0.23733505606651306 0.21640239655971527 0.201614648103714 -0.08887984603643417 0.3573265075683594 0.07060714811086655 0.4340410530567169 -0.3498840630054474 0.14319755136966705 0.12678593397140503 0.006856642663478851 -0.0883011743426323 0.12904149293899536 0.14888133108615875 -0.018639137968420982 0.040700677782297134 0.07656802237033844 -0.21459023654460907 -0.22155287861824036 0.11817461252212524 0.09172867983579636 0.0014262542827054858 -0.29808756709098816 0.35808315873146057 -0.13784241676330566 0.773353099822998 -0.39708325266838074 -0.1993064135313034 0.5961954593658447 0.1142970398068428 0.09138808399438858 0.13616639375686646 0.2822960317134857 -0.087651327252388 -0.2638210356235504 0.01732434518635273 0.13216716051101685 0.25807130336761475 -0.020770864561200142 -0.37702688574790955 -0.29853394627571106 0.17153754830360413 0.09691610932350159 0.3073402941226959 -0.19327910244464874 0.36331844329833984 0.371590793132782 0.42344042658805847 -0.02412266656756401 -0.20403580367565155 0.16741415858268738 -0.16943570971488953 0.0008972661453299224 0.4250721335411072 0.021352753043174744 0.16196441650390625 0.20474867522716522 -0.1083812415599823 -0.38694822788238525 -0.09577799588441849 0.2291872799396515 0.5199763178825378 0.1857895404100418 0.24388951063156128 -0.06619250029325485 -0.18948088586330414 0.3393203616142273 -0.4125775694847107 0.21112565696239471 0.19324705004692078 -0.1291702389717102 0.35909393429756165 0.11843708157539368 -0.31629329919815063 -0.10868427902460098 -0.07734795659780502 0.3210584819316864 0.11188534647226334 0.3511405885219574 -0.14042867720127106 -0.14056017994880676 0.13478337228298187 -0.045712925493717194 -0.22913874685764313 0.25787827372550964 0.0676148384809494 0.22268129885196686 0.019736604765057564 0.03344207629561424 -0.1644728183746338 -0.19934920966625214 0.06652895361185074 0.25699982047080994 0.22683392465114594 -0.02044883742928505 0.10673823952674866 0.23187628388404846 0.2635207772254944 0.0032648227643221617 0.022276103496551514 0.2485957145690918 0.23407550156116486 0.5566323399543762 0.39446109533309937 0.6401179432868958 0.14916527271270752 -0.06377530097961426 0.1995195597410202 0.250397652387619 -0.3006172776222229 -0.1792517751455307 -0.07589665055274963 0.0443076528608799 -0.3998740017414093 0.0005647623329423368 -0.2277071177959442 -0.08154656738042831 -0.5917587280273438 0.24128374457359314 -0.271817147731781 0.15589220821857452 -0.04713070020079613 0.5840602517127991 0.23776167631149292 -0.0099148815497756 -0.20100368559360504 0.20117060840129852 -0.0056365616619586945 0.23605148494243622 -0.008679168298840523 0.5700011253356934 0.2840973436832428 0.12727519869804382 -0.2656651735305786 -0.006545085459947586 -0.5152455568313599 0.24990439414978027 -0.08511205017566681 0.27175354957580566 0.11418940126895905 0.04223931208252907 -0.4352416694164276 -0.3989163935184479 0.28961658477783203 0.2804988920688629 0.4438936710357666 -0.012574057094752789 -0.009195617400109768 -0.17343886196613312 -0.2048160880804062 -0.5595391988754272 0.13378804922103882 -0.037623126059770584 0.07584022730588913 0.17168357968330383 0.05044000968337059 -0.08169706910848618 0.19115063548088074 -0.09708604216575623 0.35939401388168335 0.03322669491171837 0.04963869974017143 -0.1329045444726944 -0.08588207513093948 0.319282203912735 0.590674102306366 0.23866701126098633 0.020383073017001152 -0.1121385470032692 -0.28862884640693665 -0.3660200238227844 0.2459067404270172 0.4602665901184082 0.3419398367404938
Camille_Rewinds -0.01801566407084465 0.4536285698413849 -0.22274155914783478 -0.05772656947374344 0.11477755010128021 0.040986061096191406 0.11300688982009888 -0.45306140184402466 -0.22415995597839355 0.0685441866517067 -0.282647967338562 0.052835993468761444 -0.2641772925853729 -0.05250268429517746 0.6726406216621399 0.4846201241016388 -0.12062294781208038 0.4023367166519165 -0.002564178081229329 0.008405914530158043 -0.18516123294830322 0.09083449840545654 -0.1648440808057785 0.0911330059170723 -0.03464462235569954 0.5717886686325073 -0.39446786046028137 0.3157191574573517 0.5037149786949158 0.09381884336471558 0.3948414623737335 0.2124580591917038 0.20380468666553497 -0.44905149936676025 0.19437842071056366 -0.03344043344259262 0.18172959983348846 0.11152485013008118 -0.05384420230984688 -0.27433720231056213 -0.18949592113494873 0.39405280351638794 0.16734102368354797 -0.1328783929347992 -0.07855311036109924 -0.1619790941476822 -0.18678578734397888 0.0872269943356514 -0.41842877864837646 0.4440092444419861 -0.2213180512189865 0.5213855504989624 -0.35577061772346497 0.23937052488327026 0.4152054786682129 0.23846155405044556 0.26047709584236145 0.0342557467520237 0.09143038094043732 -0.14364716410636902 -0.14324209094047546 0.15758399665355682 0.6144775152206421 -0.2236463725566864 -0.19375552237033844 -0.4941915273666382 -0.17360819876194 0.1949988156557083 -0.07647329568862915 0.26415199041366577 -0.17144981026649475 0.7330740690231323 -0.12488631904125214 0.7979580163955688 0.45178118348121643 -0.09665939211845398 -0.19621999561786652 0.07876729220151901 0.3342098295688629 0.45567309856414795 -0.18828754127025604 0.06265193223953247 0.15033966302871704 0.23092013597488403 -0.7740523815155029 0.07413648813962936 0.5175613164901733 0.8247556686401367 0.33431509137153625 0.11610253155231476 -0.48411744832992554 0.19317853450775146 0.20170415937900543 -0.538274347782135 0.06416910141706467 0.09092573821544647 -0.2490985244512558 0.4056389331817627 0.5441566705703735 -0.0035527513828128576 -0.2743252217769623 0.2890804409980774 1.0802769660949707 -0.12380032986402512 0.695505678653717 -0.21217849850654602 -0.15566851198673248 0.25004711747169495 -0.12339351326227188 -0.7059364318847656 0.02608454041182995 -0.09010851383209229 -0.0678972378373146 -0.3301260471343994 0.06589508801698685 -0.03335157409310341 -0.48726576566696167 0.07971227914094925 0.023411612957715988 0.15386997163295746 -0.2551186680793762 0.013642819598317146 0.2551567554473877 0.33951425552368164 0.5228124856948853 0.1905430108308792 0.41600167751312256 -0.011650736443698406 0.15660926699638367 0.48661214113235474 0.33757367730140686 -0.08419159054756165 -0.24082958698272705 0.30458393692970276 0.10647176951169968 -0.4416162371635437 -0.312973290681839 0.3066904842853546 -0.293403297662735 -0.6647067070007324 0.25055983662605286 -0.12334319204092026 0.7281711101531982 -0.7097305059432983 -0.025128383189439774 0.012484408915042877 0.49628886580467224 -0.24137668311595917 0.36861473321914673 0.37979480624198914 -0.3524593710899353 0.3134376108646393 0.08707994967699051 0.2512154281139374 0.5927399396896362 0.010331620462238789 0.6514996886253357 -0.08091620355844498 0.11412212252616882 -0.3006400465965271 0.230844646692276 -0.29111942648887634 0.2801729142665863 -0.3160722851753235 0.5428591966629028 -0.07860583066940308 -0.19170306622982025 -0.3412787616252899 -0.6745340824127197 0.13280963897705078 0.3531874418258667 0.7130346894264221 0.12719550728797913 0.45788097381591797 -0.5142987966537476 0.000965609448030591 -0.7172711491584778 -0.21908533573150635 -0.30887770652770996 0.10081233829259872 0.11561688780784607 0.39109572768211365 -0.12671197950839996 0.18408338725566864 -0.38024282455444336 0.4027411639690399 -0.015873773023486137 0.20311200618743896 -0.38894152641296387 0.05103953927755356 0.029123838990926743 0.3443484306335449 0.2994404435157776 -0.017523132264614105 0.39981409907341003 0.07620886713266373 -0.36302244663238525 0.07769463956356049 0.38929641246795654 0.7920736074447632
Mood_Indigo_(film) -0.24822814762592316 0.6543752551078796 -0.27628499269485474 0.260844886302948 0.2354263961315155 -0.0031197413336485624 -0.07774323225021362 -0.6381351351737976 0.11824855953454971 0.1700390726327896 0.08443020284175873 0.03974267095327377 -0.17541250586509705 -0.6038228869438171 0.3278564512729645 0.5031009912490845 0.11272590607404709 0.5359277129173279 -0.0965961366891861 0.25844648480415344 -0.3781096041202545 0.6563964486122131 -0.35318082571029663 0.2093021124601364 -0.022037846967577934 0.3208487927913666 -0.5145319104194641 0.19954080879688263 0.4631640613079071 0.13701394200325012 0.45698440074920654 0.19334028661251068 0.1390266716480255 -0.4558578133583069 0.2258109152317047 0.09988689422607422 -0.08286883682012558 0.29455381631851196 0.44008755683898926 -0.17779597640037537 0.30612075328826904 0.6195429563522339 0.30736884474754333 -0.28583019971847534 -0.29479876160621643 -0.15068881213665009 0.007965254597365856 0.26023387908935547 -0.43031132221221924 0.6789875030517578 -0.6380680799484253 0.1064319834113121 -0.3080548048019409 0.34277644753456116 0.6265727281570435 0.08449370414018631 0.5266177654266357 0.3408231735229492 0.5499767661094666 -0.11018145084381104 -0.2886033058166504 0.03844965994358063 0.6430690884590149 -0.11196695268154144 -0.10713504254817963 -0.4377197027206421 -0.5749773979187012 0.6735777854919434 0.1280841827392578 0.17062035202980042 -0.3630043864250183 0.7478762269020081 -0.12030114233493805 0.31316331028938293 0.4585372507572174 -0.06490670889616013 0.0010181633988395333 -0.0771503746509552 0.45284178853034973 0.08374078571796417 -0.05370701104402542 0.24311946332454681 0.0033095392864197493 0.024749847128987312 -0.627336323261261 -0.10057563334703445 0.7087298035621643 0.8126006722450256 0.12281996756792068 0.2359151989221573 -0.6934797763824463 -0.2997937500476837 0.006701805163174868 -0.3309558033943176 0.22212456166744232 -0.059223562479019165 -0.47809699177742004 0.7599184513092041 0.06028013676404953 -0.19788813591003418 -0.28132444620132446 0.16347043216228485 0.5982915759086609 0.21615254878997803 0.5302233695983887 0.05407021567225456 -0.09085176885128021 0.18237894773483276 -0.43639788031578064 -0.28372302651405334 0.7089095115661621 0.04866670072078705 -0.0788809284567833 -0.43166786432266235 -0.185549795627594 -0.45452430844306946 -0.43006661534309387 0.12036678940057755 0.2452123612165451 0.20080584287643433 -0.21969465911388397 -0.03488291800022125 0.2746613621711731 0.6023485660552979 0.5617970824241638 0.3469976484775543 0.30705273151397705 0.2059459537267685 0.3067644238471985 0.3240070044994354 0.5111854672431946 0.3195914328098297 0.13962949812412262 0.1870119720697403 0.09001245349645615 -0.4455849826335907 -0.27260303497314453 0.4176587164402008 0.029051566496491432 -0.38102325797080994 0.12811195850372314 -0.09893644601106644 0.3941243290901184 -0.6367928981781006 -0.14184926450252533 -0.006709768436849117 0.6867464184761047 -0.03654808923602104 0.4262036979198456 0.2673901915550232 -0.05317918211221695 0.31446635723114014 0.5362106561660767 0.29227176308631897 0.666005551815033 -0.10897605866193771 0.5568252801895142 0.23436598479747772 0.2678527534008026 -0.4649120271205902 0.7913948893547058 -0.43941381573677063 0.30436408519744873 -0.1476101130247116 0.18303661048412323 0.1266574114561081 -0.2708662748336792 -0.08567342162132263 -0.12480279058218002 -0.1292697787284851 0.3309987187385559 0.20574748516082764 0.10363591462373734 -0.2523968815803528 -0.4547852575778961 -0.2710108160972595 -0.9181615114212036 -0.058761339634656906 0.3093256950378418 -0.09946157783269882 0.15071338415145874 0.21605242788791656 0.25367891788482666 0.14939579367637634 -0.588433027267456 0.35313451290130615 -0.007068411447107792 0.110390305519104 -0.24368496239185333 -0.21378642320632935 -0.04150061309337616 0.414797842502594 -0.21416829526424408 -0.31679078936576843 0.30382591485977173 0.007576087024062872 -0.3843610882759094 0.1451631784439087 0.4365752637386322 0.7077159285545349
Non-Stop_(film) 0.320846825838089 -0.21094636619091034 -0.13539892435073853 0.22948509454727173 -0.6977981328964233 0.5054340958595276 0.30751127004623413 -0.10016735643148422 -0.17345106601715088 -0.05145842954516411 0.19340111315250397 0.11210978031158447 0.10019394755363464 -1.1714497804641724 0.5715780854225159 0.2832707166671753 -0.0011377864284440875 0.41266265511512756 -0.06509421020746231 0.5829073190689087 -0.3723487854003906 0.3619718849658966 -0.37842121720314026 0.05848954990506172 0.3591650426387787 0.2373417615890503 -0.18436133861541748 -0.1741294264793396 0.08828253298997879 -0.3131959140300751 0.45012325048446655 0.34048280119895935 0.43189141154289246 -0.5879483819007874 -0.15627829730510712 -0.11820293962955475 0.19245706498622894 -0.3348223567008972 0.0785452127456665 0.1115679144859314 -0.07412780821323395 -0.1237139031291008 0.7790299654006958 -0.23600587248802185 -0.31523001194000244 0.4456486105918884 0.015314004383981228 0.34090501070022583 -0.302499920129776 0.5228047370910645 -0.7671328783035278 0.549045205116272 -0.13200590014457703 -0.07392065972089767 0.6298955678939819 0.45072340965270996 0.105412058532238 0.10949698835611343 0.17966008186340332 0.12072362005710602 -0.2879335284233093 0.48461395502090454 0.1645682454109192 -0.06266110390424728 -0.028059056028723717 -1.0025930404663086 -0.6113333702087402 0.16117152571678162 0.03232759237289429 0.45913657546043396 0.1573646515607834 0.6936193108558655 0.236617311835289 0.31611254811286926 -0.16510720551013947 0.14959882199764252 0.2322041094303131 0.05354563146829605 0.46381890773773193 0.20913928747177124 0.32767727971076965 0.3350031077861786 0.5379946827888489 -0.4299258887767792 -0.32862192392349243 -0.1970902681350708 0.0091320239007473 0.4439842998981476 0.2579416036605835 -0.4848407208919525 -0.15778958797454834 -0.4498916566371918 0.15242062509059906 -0.5555412173271179 0.3349993824958801 0.34273678064346313 -0.5894994139671326 0.6808677315711975 0.12140019983053207 -0.25298887491226196 0.047074947506189346 0.23990504443645477 0.12436193972826004 0.15192463994026184 0.39269760251045227 0.20858900249004364 -0.3043356239795685 -0.1808495670557022 0.31872740387916565 -0.5903921127319336 0.5605152249336243 -0.08013082295656204 0.2782517075538635 -0.11188963055610657 -0.013124749064445496 -0.3748948276042938 -0.8905755281448364 0.1810159832239151 0.3258707523345947 0.14988680183887482 -0.43277233839035034 0.45991235971450806 -0.08575204759836197 1.0618205070495605 0.21826738119125366 -0.2595624327659607 0.04930596798658371 0.35082656145095825 0.029939256608486176 0.2944222092628479 0.9625676870346069 0.3076954782009125 -0.09719670563936234 0.5954002737998962 -0.005185886286199093 -0.2811397314071655 -0.5465273857116699 0.04737887158989906 -0.38017913699150085 -0.4833614230155945 -0.3835861086845398 -0.10460543632507324 0.29414913058280945 -0.42652615904808044 -0.07365784794092178 -0.06235908716917038 -0.12560851871967316 -0.11579857021570206 0.546622633934021 -0.378170371055603 0.3883111774921417 -0.3195894956588745 0.16885654628276825 0.08042873442173004 -0.22301363945007324 -0.34367576241493225 0.4945317208766937 0.06930580735206604 -0.09596432745456696 -0.13579529523849487 0.21332614123821259 -0.4598532021045685 0.17774105072021484 -0.20141232013702393 0.11386579275131226 0.4108780026435852 -0.12043974548578262 -1.012843370437622 -0.3258538544178009 0.30907174944877625 0.5151438117027283 0.9230810403823853 -0.42559778690338135 0.15799850225448608 -0.2483845353126526 -0.14733706414699554 -0.6596713662147522 0.0923270434141159 0.06637297570705414 -0.15961119532585144 -0.08015419542789459 0.11631742864847183 0.05721655488014221 0.4486701786518097 -0.306746244430542 0.5859687328338623 -0.3407447934150696 0.18037176132202148 -0.23262658715248108 0.13997380435466766 0.506993293762207 0.32075637578964233 0.030421817675232887 -0.1292911171913147 -0.026013247668743134 -0.21543970704078674 -0.5357227921485901 -0.2291136384010315 0.32440897822380066 0.44600069522857666
After_the_Battle_(film) -0.05785004049539566 0.030657388269901276 -0.07115376740694046 -0.12577351927757263 0.18514224886894226 -0.07084821909666061 -0.042329538613557816 -0.032238878309726715 0.06770902127027512 0.5321338772773743 -0.009656730107963085 0.09247274696826935 -0.1310187578201294 -0.20138229429721832 0.12526066601276398 0.16923342645168304 -0.32202887535095215 0.46625852584838867 -0.10431469231843948 0.5003537535667419 -0.43883034586906433 0.7943863868713379 -0.21429350972175598 0.004195407964289188 -0.0039933486841619015 0.013209122233092785 -0.16636765003204346 -0.06691300868988037 0.1702948361635208 0.15905310213565826 0.19510851800441742 -0.06648854166269302 0.18545770645141602 -0.19865231215953827 0.29190874099731445 0.04713199660181999 0.13093151152133942 -0.5155277848243713 0.03352312371134758 0.547127902507782 0.45348334312438965 0.24940964579582214 -0.0771438330411911 -0.21814166009426117 -0.35522598028182983 -0.011653131805360317 0.23228618502616882 0.4461769163608551 -0.14855757355690002 0.6830185651779175 -0.7525647878646851 0.2357640117406845 -0.5226857662200928 0.4592418372631073 0.5120855569839478 0.07572948187589645 0.11295513063669205 0.01717347279191017 0.21318957209587097 -0.2790188491344452 -0.18282769620418549 0.19235335290431976 -0.0005168932257220149 0.012262048199772835 0.15355238318443298 -0.653963029384613 -0.6623787879943848 0.22648859024047852 -0.33369261026382446 -0.024348732084035873 -0.4285162687301636 0.26760679483413696 0.44267481565475464 0.5616961121559143 0.12125041335821152 -0.04074838384985924 0.06407664716243744 -0.2885269522666931 0.3711985945701599 0.49890202283859253 0.04131702706217766 0.026268206536769867 0.28143414855003357 -0.11033070832490921 -0.6750068664550781 -0.4861891269683838 0.2737526297569275 0.6552651524543762 0.059496521949768066 0.10824170708656311 -0.49458056688308716 -0.3778938055038452 -0.13351009786128998 0.2882174551486969 0.49821051955223083 -0.1464381217956543 -0.2795676589012146 -0.0866352990269661 0.10996824502944946 -0.17395296692848206 -0.21581150591373444 0.13064807653427124 0.14204981923103333 0.014412431977689266 0.18905551731586456 -0.1396910399198532 0.34220442175865173 0.0010062046349048615 -0.2361767292022705 -0.17171712219715118 0.31103694438934326 -0.05855929106473923 0.04019145295023918 -0.1403442621231079 0.1952420324087143 -0.0848512277007103 -0.42417681217193604 -0.038550179451704025 0.47912654280662537 0.07059299945831299 0.06259053200483322 0.5230816602706909 0.173226997256279 0.3797444701194763 0.6784871816635132 0.484039306640625 0.04372701421380043 0.329732745885849 0.4533810615539551 0.3519570827484131 0.4310295283794403 0.06660819053649902 -0.06587778776884079 0.22564201056957245 0.24842017889022827 -0.37760064005851746 -0.3386847972869873 0.41740772128105164 0.39063385128974915 -0.15014521777629852 0.27872005105018616 -0.4008415937423706 0.5619608759880066 -0.4683838188648224 -0.27115437388420105 0.18104276061058044 0.5362722277641296 0.14208756387233734 0.35467544198036194 0.310345858335495 -0.33003872632980347 0.22396254539489746 0.4645135700702667 0.3863828480243683 0.12122873961925507 0.06774414330720901 0.3288695216178894 0.38850441575050354 0.00141767761670053 0.03886714205145836 0.21635107696056366 -0.12640970945358276 0.6294422149658203 -0.21895816922187805 0.20888923108577728 -0.08564745634794235 -0.27966636419296265 -0.5232573747634888 -0.19291290640830994 0.22008521854877472 0.38057127594947815 0.5392231941223145 -0.0032126125879585743 0.05138877034187317 0.09504958987236023 -0.0770217701792717 -0.7079966068267822 0.21030482649803162 -0.037944894284009933 0.22688589990139008 0.14777515828609467 0.4719886779785156 -0.37987658381462097 0.48424631357192993 -0.10586076229810715 0.13098649680614471 -0.0068356930278241634 0.3134748637676239 -0.054076146334409714 -0.14916114509105682 0.21600942313671112 0.2787450850009918 -0.13029040396213531 -0.2882753014564514 0.570435643196106 -0.026545731350779533 -0.09870248287916183 0.14141947031021118 0.13433296978473663 0.9498729705810547
The_Artist_and_the_Model -0.3604673147201538 0.4958433210849762 -0.4256230592727661 0.16108885407447815 0.16824349761009216 0.45481613278388977 -0.34253016114234924 -0.09221187233924866 -0.4663084149360657 -0.1672120839357376 0.032127246260643005 0.6593206524848938 -0.36771631240844727 -0.43238919973373413 0.6529155373573303 0.8078644871711731 -0.16697250306606293 0.6070238351821899 0.29106611013412476 0.09512833505868912 -0.24042151868343353 0.7099964618682861 -0.16469287872314453 0.1533985584974289 0.012063615024089813 0.14488741755485535 -0.19154496490955353 0.14155636727809906 0.3657611906528473 0.6161150932312012 0.9050066471099854 0.05923723429441452 0.6490708589553833 -0.7277821898460388 0.07961834222078323 -0.19906096160411835 0.39335498213768005 -0.3535647392272949 0.26901063323020935 -0.015457328408956528 0.015097314491868019 -0.3019583821296692 0.25313371419906616 -0.008470564149320126 -0.03714529424905777 -0.38500726222991943 -0.1647689789533615 0.3721989393234253 -0.11714129149913788 0.31909018754959106 -0.6295892000198364 0.3298022449016571 -0.3236843943595886 0.03508679196238518 0.9141806960105896 -0.07054939866065979 0.047928523272275925 0.03766951709985733 0.2570006549358368 -0.3562218248844147 0.1453060358762741 0.1832932084798813 0.17193762958049774 0.028008082881569862 0.4037536680698395 -0.8642125129699707 -0.5144788026809692 0.3888402283191681 -0.3256462812423706 -0.04735437408089638 -0.3110601305961609 0.6944186091423035 -0.20046767592430115 0.4435935616493225 0.24337081611156464 0.09526445716619492 0.15538208186626434 -0.07460309565067291 0.5083204507827759 0.21583212912082672 -0.4383198618888855 0.05871514976024628 0.2012324184179306 0.07982568442821503 -0.09004448354244232 -0.33512136340141296 0.46149009466171265 0.5684335827827454 0.5761820673942566 -0.08663859218358994 -0.3054814636707306 0.2886326313018799 -0.06771817058324814 -0.4234732389450073 -0.06942692399024963 -0.36969584226608276 -0.4652448892593384 0.29424774646759033 0.5233709812164307 0.1315615177154541 0.3797980546951294 -0.4294964671134949 0.678066074848175 0.442883163690567 0.5612174272537231 0.19154953956604004 -0.25101327896118164 0.2461002767086029 -0.08305500447750092 -0.4742843806743622 0.049622949212789536 0.3598007559776306 0.240875706076622 -0.4593242108821869 0.4423484206199646 -0.17753401398658752 -0.2832965552806854 -0.11018036305904388 -0.03897484764456749 0.15927834808826447 -0.4455314874649048 0.7616798877716064 0.10905448347330093 0.1630934625864029 0.6283217668533325 0.4438239634037018 0.2209356129169464 0.2974257171154022 0.09381742775440216 0.7582504749298096 0.23467516899108887 0.07727915793657303 -0.4141533672809601 0.13073335587978363 0.23060910403728485 -0.28263208270072937 -0.048263147473335266 0.32696008682250977 -0.007583350408822298 -0.17088988423347473 0.10572480410337448 -0.021632513031363487 0.32738277316093445 -0.8140715956687927 0.10850315541028976 0.3316822350025177 0.490780234336853 -0.07540866732597351 0.581553041934967 0.03731073439121246 -0.3607056140899658 0.5033571720123291 -0.2402208000421524 0.26303523778915405 0.5119627118110657 0.19809626042842865 0.3630511462688446 -0.06740576773881912 0.15593241155147552 -0.26741623878479004 -0.12904790043830872 -0.1859835684299469 0.3151198625564575 -0.354595810174942 0.2803058624267578 -0.13973304629325867 -0.04574204236268997 -0.3658128082752228 -0.18291087448596954 0.32979217171669006 0.3068830072879791 0.4096739888191223 0.2765294313430786 0.5444900989532471 -0.39781835675239563 -0.2954631447792053 -0.7225524187088013 -0.35061806440353394 0.011920461431145668 -0.14361931383609772 -0.2989386320114136 0.23625504970550537 0.23600922524929047 0.08487726002931595 -0.030645936727523804 0.28001874685287476 0.09349235147237778 0.28262314200401306 -0.31644120812416077 -0.10735592991113663 0.15505291521549225 0.3732510209083557 0.28907543420791626 -0.030912848189473152 0.16647447645664215 -0.1352386772632599 -0.26081758737564087 0.4845392107963562 0.06464990228414536 0.9864686131477356
Do_Not_Disturb_(2012_film) 0.0 0.0 0.0 0.0 0.0 0.0 0.0 0.0 0.0 0.0 0.0 0.0 0.0 0.0 0.0 0.0 0.0 0.0 0.0 0.0 0.0 0.0 0.0 0.0 0.0 0.0 0.0 0.0 0.0 0.0 0.0 0.0 0.0 0.0 0.0 0.0 0.0 0.0 0.0 0.0 0.0 0.0 0.0 0.0 0.0 0.0 0.0 0.0 0.0 0.0 0.0 0.0 0.0 0.0 0.0 0.0 0.0 0.0 0.0 0.0 0.0 0.0 0.0 0.0 0.0 0.0 0.0 0.0 0.0 0.0 0.0 0.0 0.0 0.0 0.0 0.0 0.0 0.0 0.0 0.0 0.0 0.0 0.0 0.0 0.0 0.0 0.0 0.0 0.0 0.0 0.0 0.0 0.0 0.0 0.0 0.0 0.0 0.0 0.0 0.0 0.0 0.0 0.0 0.0 0.0 0.0 0.0 0.0 0.0 0.0 0.0 0.0 0.0 0.0 0.0 0.0 0.0 0.0 0.0 0.0 0.0 0.0 0.0 0.0 0.0 0.0 0.0 0.0 0.0 0.0 0.0 0.0 0.0 0.0 0.0 0.0 0.0 0.0 0.0 0.0 0.0 0.0 0.0 0.0 0.0 0.0 0.0 0.0 0.0 0.0 0.0 0.0 0.0 0.0 0.0 0.0 0.0 0.0 0.0 0.0 0.0 0.0 0.0 0.0 0.0 0.0 0.0 0.0 0.0 0.0 0.0 0.0 0.0 0.0 0.0 0.0 0.0 0.0 0.0 0.0 0.0 0.0 0.0 0.0 0.0 0.0 0.0 0.0 0.0 0.0 0.0 0.0 0.0 0.0 0.0 0.0 0.0 0.0 0.0 0.0
The_Other_Son -0.029795542359352112 0.24225476384162903 -0.2925003170967102 -0.44901713728904724 0.26773205399513245 -0.28000879287719727 -0.33253031969070435 0.17582514882087708 -0.31568238139152527 0.4342634677886963 -0.42958351969718933 0.13809902966022491 -0.12445585429668427 0.09868040680885315 0.12112735211849213 0.1521989405155182 -0.47037625312805176 -0.4336039423942566 0.027075929567217827 0.3064267039299011 -0.5954504013061523 -0.009275887161493301 -0.38705581426620483 -0.03065640851855278 0.13782356679439545 0.3828306794166565 -0.7160928845405579 0.08495405316352844 -0.09193193912506104 -0.22761914134025574 0.09980886429548264 0.3901163339614868 -0.13718050718307495 -0.4406377077102661 0.45336222648620605 -0.11278291791677475 -0.17820079624652863 -0.3580567538738251 -0.36925047636032104 -0.32866233587265015 -0.07632239907979965 0.001045159762725234 0.27921047806739807 -0.13150043785572052 0.002951161004602909 -0.57661372423172 -0.08775214850902557 0.2962244153022766 -0.0684785321354866 0.849950909614563 -0.11962367594242096 0.29506444931030273 -0.5691595673561096 -0.10949113219976425 0.7610508799552917 0.11059501767158508 0.6135767698287964 0.3215522766113281 -0.13942185044288635 -0.038478702306747437 0.11794775724411011 0.3548367917537689 0.4623689651489258 0.1418696939945221 0.031921014189720154 -0.29418131709098816 -0.7481124997138977 -0.2058599591255188 -0.26959773898124695 -0.13421066105365753 0.03260933980345726 0.5283209681510925 0.3796595633029938 0.5760607123374939 -0.07541623711585999 0.15680237114429474 -0.18077686429023743 0.4659023880958557 0.4511721432209015 0.17359663546085358 -0.6717641353607178 -0.13331584632396698 -0.39020147919654846 0.16915090382099152 -0.4378841817378998 -0.1564023643732071 0.07072325795888901 0.10533806681632996 0.25220614671707153 0.9612049460411072 -1.0822243690490723 -0.2758752703666687 0.06173683702945709 -0.4498920738697052 0.49147453904151917 0.04156423360109329 -0.4607129395008087 0.49407005310058594 0.7044759392738342 -0.20343759655952454 -0.022673623636364937 0.3027992248535156 0.7438596487045288 -0.05790136009454727 0.4700291156768799 -0.03677445277571678 -0.013859178870916367 0.6319776773452759 0.038883037865161896 -0.1858845204114914 -0.09072908014059067 -0.4092441201210022 0.19201481342315674 -0.5752357840538025 0.07373134046792984 -0.18623724579811096 -0.17487993836402893 0.07169000059366226 0.19601738452911377 0.04560472443699837 -0.3180554211139679 0.42218899726867676 -0.43414583802223206 0.5261469483375549 0.9531323909759521 0.10694647580385208 0.34124988317489624 0.156400665640831 0.7809358835220337 0.4551754295825958 0.26685115694999695 0.501417875289917 0.23502151668071747 0.06789197772741318 0.42322102189064026 -0.22570161521434784 -0.6782483458518982 0.41528478264808655 0.03492053598165512 -0.20437811315059662 0.4474426805973053 -0.025954969227313995 0.6689788699150085 -0.8089643716812134 -0.330435186624527 0.23381364345550537 0.6509975790977478 -0.2792326807975769 0.1857209950685501 0.45103058218955994 -0.22948592901229858 -0.01076523307710886 0.16645196080207825 -0.06289748847484589 0.18722853064537048 -0.04442005231976509 0.3618318438529968 0.1354685127735138 0.38572120666503906 -0.08124975115060806 0.6480996012687683 -0.645570695400238 0.31748318672180176 0.03765946999192238 0.08168751746416092 -0.07713475823402405 0.020826920866966248 -0.33208152651786804 -0.4554377794265747 -0.17489120364189148 0.5584084391593933 0.455471932888031 -0.4976177513599396 0.07581763714551926 -0.404485821723938 0.5851670503616333 -0.6325446367263794 -0.2778519093990326 0.050968237221241 -0.0496876984834671 -0.11635192483663559 0.203805074095726 -0.08347265422344208 0.18896327912807465 0.06637904047966003 0.5080882906913757 0.6134864687919617 0.16947750747203827 0.05867081880569458 -0.15631695091724396 0.573070228099823 -0.0770791545510292 -0.03615492954850197 0.36380645632743835 0.15465183556079865 -0.22135868668556213 -0.42083659768104553 0.25358882546424866 -0.5309842228889465 0.8377165198326111
Twentynine_Palms_(film) 0.3712035119533539 0.4035811722278595 -0.40016648173332214 -0.09793383628129959 0.2899378836154938 -0.397904634475708 -0.014925063587725163 -0.257661908864975 0.002558685839176178 0.0669158473610878 0.2480994164943695 0.12422255426645279 -0.1866646260023117 0.10271535813808441 0.39441749453544617 0.6071580648422241 -0.05319919437170029 0.535839319229126 -0.11025767028331757 0.33967122435569763 -0.7469565868377686 0.3426492512226105 -0.24764804542064667 -0.04213760048151016 0.3449926972389221 0.1118793785572052 -0.42086926102638245 0.024054188281297684 0.19051867723464966 -0.13088104128837585 0.21771463751792908 0.0889459103345871 0.36211803555488586 -0.21774785220623016 -0.27436187863349915 0.22457104921340942 0.19261053204536438 -0.1379431188106537 -0.27409765124320984 0.07869776338338852 0.449334979057312 -0.2610291540622711 0.3512669801712036 0.13304853439331055 -0.2601296007633209 -0.11471320688724518 -0.6291744112968445 -0.04904964566230774 -0.14995156228542328 0.25248846411705017 -0.09933829307556152 0.2235058695077896 -0.3542872965335846 -0.3136497735977173 0.20171090960502625 -0.4435884952545166 -0.19697459042072296 -0.3064405918121338 -0.10714294761419296 0.42435458302497864 -0.5636967420578003 0.277598112821579 0.2744377553462982 0.2896246612071991 0.168925940990448 -0.808094322681427 -0.2690413296222687 -0.03844736889004707 0.04024140164256096 -0.0401320643723011 -0.17559660971164703 0.5450113415718079 0.4527890980243683 0.9555184841156006 -0.022274896502494812 0.16882376372814178 -0.09141074866056442 -0.07211709767580032 0.3838154077529907 0.660338819026947 -0.196654811501503 -0.10435459762811661 0.41007235646247864 -0.030357157811522484 -0.1500239372253418 0.30115407705307007 -0.0857195183634758 0.45619627833366394 0.2825240194797516 0.20494447648525238 0.07957573980093002 0.2033795714378357 0.05670187994837761 -0.7178679704666138 -0.055080316960811615 -0.034183140844106674 -0.36042842268943787 0.07793458551168442 0.30786484479904175 0.15914401412010193 -0.192552849650383 0.15154781937599182 0.7836582064628601 0.18563643097877502 -0.13073894381523132 0.0014751075068488717 0.11031770706176758 -0.3867442309856415 0.3683486878871918 -0.4738028645515442 0.11494395136833191 -0.3759196400642395 0.08616079390048981 -0.11682950705289841 0.4771113991737366 -0.6987888216972351 -0.8136119246482849 -0.0725894421339035 0.31942543387413025 -0.2747091054916382 -0.5117862224578857 0.23197965323925018 -0.43426433205604553 0.701085090637207 0.2818327248096466 0.11462797969579697 0.4858694076538086 0.48800429701805115 0.17418234050273895 0.30608460307121277 0.7369390726089478 0.4230778217315674 -0.026569848880171776 -0.0880153700709343 0.18116958439350128 -0.04729006066918373 -0.23755352199077606 0.570898711681366 0.15704071521759033 -0.15672731399536133 0.20982351899147034 0.01994011551141739 0.21343937516212463 -0.4496653974056244 -0.2829647660255432 -0.04171089455485344 0.29630568623542786 -0.4263416826725006 0.15136410295963287 0.37337157130241394 -0.4956263601779938 -0.22221171855926514 0.26707395911216736 0.4415459632873535 -0.12486410140991211 0.06966522336006165 0.23057830333709717 0.2894608676433563 0.31832587718963623 -0.4628750681877136 0.3131805956363678 -0.5310800671577454 0.1440592259168625 -0.30596014857292175 0.443469375371933 -0.3405456840991974 -0.17776529490947723 -0.609104573726654 -0.3923993408679962 0.7815061211585999 0.18454906344413757 0.6018549799919128 -0.019934603944420815 0.09436894208192825 0.030254729092121124 0.036846015602350235 -0.7084714770317078 0.0983331948518753 -0.03890003263950348 -0.26909589767456055 -0.4727120101451874 0.5892012119293213 -0.4172784984111786 0.3780432343482971 -0.1763763427734375 0.30927786231040955 0.004592781886458397 0.4059015214443207 -0.1792209893465042 -0.08566232770681381 -0.14456701278686523 0.06043023243546486 -0.15762484073638916 0.22909964621067047 -0.2178926169872284 -0.12745659053325653 -0.23925235867500305 0.006468167062848806 0.23976753652095795 0.20625868439674377
Snowpiercer -0.30243831872940063 -0.07349482923746109 0.13379083573818207 0.26750004291534424 -0.3944035768508911 0.15083910524845123 0.21979661285877228 -0.32327231764793396 0.04835055395960808 -0.06696423888206482 0.20732061564922333 0.09299243241548538 -0.18415790796279907 -1.0206795930862427 0.5187166333198547 0.16684037446975708 -0.003177724312990904 0.5373575091362 -0.18710334599018097 0.27713078260421753 -0.21010254323482513 -0.08907385170459747 -0.20716889202594757 0.2127925604581833 -0.4342050552368164 0.6539161801338196 -0.17024491727352142 0.02669518068432808 0.013287803158164024 0.09755276888608932 0.5831811428070068 -0.16109301149845123 0.27571770548820496 -0.4641871452331543 0.014925749972462654 0.19673502445220947 0.0357886478304863 -0.36612528562545776 0.3247850835323334 0.19416426122188568 -0.43740537762641907 -0.07512177526950836 0.2358660250902176 -0.4295114576816559 -0.7057643532752991 -0.3596721291542053 -0.20260435342788696 -0.13428066670894623 -0.3976365029811859 0.17193269729614258 -0.43037503957748413 0.6865088939666748 -0.1450352966785431 -0.1878190040588379 0.6329535841941833 0.183244526386261 0.44781601428985596 -0.08911949396133423 0.4350180923938751 0.17319588363170624 -0.22851592302322388 -0.009956328198313713 -0.05025520548224449 0.15156081318855286 -0.20060817897319794 -0.34202682971954346 -0.5438991189002991 0.02614441141486168 -0.10823825001716614 0.9051414132118225 -0.14154453575611115 0.3307017982006073 -0.04066990688443184 0.2101886123418808 -0.4051007330417633 -0.26912492513656616 0.11612982302904129 0.15035605430603027 -0.3168596029281616 0.20216001570224762 0.4675856828689575 -0.15974944829940796 0.0992562398314476 0.21175804734230042 -0.6007604002952576 0.13676957786083221 0.42758917808532715 0.47702351212501526 -0.16491012275218964 0.29954129457473755 -0.19514067471027374 0.11983554065227509 0.17649683356285095 -0.6354773640632629 0.34177014231681824 0.14786513149738312 -0.21060574054718018 0.459201842546463 0.33080771565437317 -0.8823068141937256 0.11814890801906586 -0.05946316942572594 0.10814116150140762 -0.01969827152788639 -0.13007129728794098 0.28124842047691345 0.21519821882247925 0.32608380913734436 0.02989271655678749 -0.5101872682571411 0.26134300231933594 0.31546127796173096 -0.38715606927871704 -0.10224359482526779 -0.47315943241119385 0.19986629486083984 -1.1967644691467285 0.08184006065130234 0.06917141377925873 0.036700960248708725 -8.759225602261722e-05 0.28863754868507385 -0.18760432302951813 0.8479619026184082 0.29877617955207825 0.07736814767122269 0.35132086277008057 0.8933578133583069 0.7675082087516785 0.39646512269973755 0.9971225261688232 -0.5400335788726807 -0.21503221988677979 0.2324831634759903 -0.040225040167570114 -0.035930220037698746 -0.4091428220272064 -0.07026918232440948 -0.0029428170528262854 -0.7839115858078003 0.3373003602027893 -0.26903611421585083 0.5313506722450256 -0.5482065677642822 0.04598049446940422 0.01049326453357935 0.02282935008406639 -0.30519700050354004 0.4437471628189087 0.37642228603363037 -0.34025633335113525 -0.014014460146427155 -0.4179019033908844 0.07162643224000931 0.31061604619026184 -0.08899927139282227 0.48328888416290283 0.36774101853370667 0.13031287491321564 0.2920127511024475 -0.10651779919862747 -0.30640488862991333 0.06853319704532623 -0.6664524078369141 0.37103086709976196 0.08076208829879761 -0.034055955708026886 -0.7572052478790283 -0.13016082346439362 0.2469734400510788 0.18784815073013306 0.781889796257019 -0.296581894159317 -0.07227158546447754 -0.48935797810554504 0.0848631039261818 -0.87418133020401 -0.06896265596151352 0.03142562136054039 0.22074930369853973 0.5603119730949402 0.2618659436702728 0.5697413086891174 0.016435032710433006 -0.17007669806480408 0.1991262435913086 -0.3100709915161133 -0.04655648395419121 -0.21165810525417328 -0.287291020154953 1.0614458322525024 0.20656175911426544 0.37503835558891296 0.12750548124313354 0.2032504379749298 -0.6423441171646118 0.32207757234573364 0.057535115629434586 0.20250067114830017 0.15209268033504486
Maniac_(2012_film) 0.16874346137046814 0.08335597068071365 -0.10145602375268936 0.018524304032325745 -0.0510069765150547 0.07168731093406677 0.03773556649684906 -0.30361002683639526 -0.17337045073509216 0.08702053129673004 0.09399820119142532 0.10186151415109634 -0.28349900245666504 -0.300981730222702 0.5270455479621887 -0.02807949110865593 -0.14724129438400269 0.12825030088424683 0.008879476226866245 0.26455020904541016 -0.14289003610610962 0.01288425549864769 -0.27733027935028076 0.1020955741405487 0.2321859449148178 0.13752789795398712 -0.056691963225603104 0.11962401121854782 0.11550721526145935 0.11392303556203842 0.25776973366737366 0.06864304095506668 0.2799699306488037 -0.5025730729103088 -0.13803553581237793 0.13720983266830444 -0.03178940713405609 -0.1452646702528 -0.0010342838941141963 0.02456275373697281 -0.057442326098680496 0.0761902704834938 0.1924760788679123 -0.2956591844558716 -0.4609660804271698 0.09644974768161774 -0.1317192018032074 0.2974775433540344 -0.3955216705799103 0.3558269739151001 -0.14794044196605682 0.3710230588912964 -0.35774698853492737 -0.14433102309703827 0.649029552936554 0.04091987386345863 -0.07049129903316498 0.06575458496809006 0.27023541927337646 -0.007685991935431957 -0.16469906270503998 -0.01879529282450676 0.49563711881637573 0.17297464609146118 -0.013682669959962368 -0.21131640672683716 -0.40697816014289856 0.016378723084926605 -0.08399645984172821 0.5087823271751404 -0.07006076723337173 0.22478456795215607 0.22474165260791779 0.44783830642700195 -0.06403279304504395 -0.3613724708557129 0.0815102607011795 -0.03336147964000702 -0.0008175781113095582 0.2057785838842392 -0.0967509001493454 0.4117399752140045 0.25707587599754333 0.024134889245033264 -0.22406989336013794 0.046222247183322906 0.32995522022247314 0.5656766295433044 -0.0037838630378246307 0.023748071864247322 -0.18048124015331268 -0.16208794713020325 0.17811374366283417 -0.5948874950408936 0.31183651089668274 0.374706506729126 -0.22560855746269226 0.2798106074333191 0.08090772479772568 -0.2712605893611908 0.11948032677173615 -0.007811019662767649 0.28404149413108826 0.08508497476577759 0.2565198838710785 -0.31913843750953674 0.14317284524440765 0.174441859126091 -0.038368601351976395 -0.24618780612945557 0.18332360684871674 0.17385895550251007 0.1738787293434143 0.04240693524479866 0.05275135859847069 -0.053447745740413666 -0.312107652425766 0.05915886163711548 0.28361377120018005 0.026873886585235596 0.08221633732318878 0.23736897110939026 0.039627596735954285 0.3067569434642792 0.2576461434364319 0.15403907001018524 0.36710020899772644 0.27756404876708984 0.46577247977256775 0.42945966124534607 0.5794398188591003 0.1300714910030365 0.08032288402318954 0.3855367600917816 0.22428172826766968 -0.38241302967071533 -0.1725030243396759 -0.07683192193508148 0.1704527884721756 -0.5452998876571655 -0.0015223115915432572 0.0048371306620538235 0.31874504685401917 -0.7259452939033508 -0.0240987129509449 -0.17218466103076935 0.29720231890678406 -0.17339162528514862 0.5762509107589722 0.04904080554842949 -0.0917322114109993 -0.1287662386894226 0.04334402084350586 0.1499699205160141 0.23373611271381378 0.09953546524047852 0.6255753636360168 0.27286088466644287 0.18712085485458374 -0.2770828306674957 0.10572479665279388 -0.3725537955760956 0.12133903801441193 -0.27718400955200195 0.38247254490852356 -0.08154376596212387 0.08398550748825073 -0.35081541538238525 -0.3359052240848541 0.20240497589111328 0.24020744860172272 0.4705561101436615 -0.10824662446975708 -0.06048489734530449 -0.37195661664009094 -0.34696337580680847 -0.40992534160614014 -0.11095117777585983 -0.18069246411323547 -0.06015206128358841 0.3460193872451782 0.18302206695079803 -0.08870518207550049 0.38867658376693726 0.00024991994723677635 0.3195432722568512 -0.06804247200489044 -0.03336115926504135 -0.10829845070838928 0.07473380863666534 0.18673329055309296 0.45705151557922363 0.182205468416214 -0.014271259307861328 -0.22844697535037994 -0.2066766619682312 -0.30202698707580566 0.11895085871219635 0.36797332763671875 0.3344976603984833
Like_Someone_in_Love_(film) 0.17826515436172485 0.4664883017539978 -0.2148667275905609 -0.15353618562221527 0.24832065403461456 0.14011125266551971 -0.5271806716918945 -0.334323912858963 -0.36097896099090576 0.551554262638092 0.07364601641893387 0.2721318304538727 -0.7735080718994141 -0.29182887077331543 0.3116723299026489 0.5831390023231506 0.03812369331717491 0.428433358669281 0.4963981807231903 -0.09848885983228683 -0.4191429615020752 0.31176409125328064 -0.36555853486061096 -0.11568089574575424 0.3984893262386322 0.577134370803833 -0.22654184699058533 0.12541957199573517 -0.13241969048976898 0.017347391694784164 0.27693015336990356 0.3235974907875061 0.7034070491790771 -0.384403795003891 -0.3529036045074463 0.056573595851659775 0.1623859405517578 -0.2775340676307678 0.40722087025642395 0.16496306657791138 0.3964267075061798 0.172079399228096 0.08288212865591049 -0.15441690385341644 -0.3012954294681549 0.12117257714271545 -0.5411050915718079 0.5683009028434753 -0.13557709753513336 0.27801284193992615 -0.46632155776023865 0.21596738696098328 -0.3727450966835022 0.0701698288321495 0.29260385036468506 0.10700379312038422 0.08006761968135834 0.4057542681694031 0.3316958248615265 0.08298695087432861 0.08205974102020264 0.017675308510661125 -0.1345071941614151 0.15240198373794556 -0.043631087988615036 -0.605096161365509 -0.7601508498191833 0.21624863147735596 -0.08191492408514023 0.5057106614112854 0.032966338098049164 0.23915518820285797 0.5379406213760376 0.3881949484348297 -0.042026370763778687 -0.0690486803650856 -0.3434073328971863 -0.21807357668876648 0.042935874313116074 0.2612631618976593 0.17335054278373718 -0.0826183408498764 0.45793405175209045 0.021282115951180458 -0.4946536123752594 0.01205520424991846 0.7883871793746948 0.6444427967071533 -0.1830940693616867 0.43716496229171753 0.09226154536008835 -0.2422458827495575 0.17662857472896576 -0.1017056554555893 0.3978615999221802 0.3726131021976471 -0.4045376181602478 0.22057601809501648 0.8749922513961792 0.0386686697602272 0.24136032164096832 -0.03739854693412781 0.2094751000404358 -0.10408562421798706 -0.2527115046977997 0.2863978445529938 -0.11359111964702606 0.14715440571308136 -0.116782046854496 -0.11206533759832382 0.14704583585262299 0.14500346779823303 -0.10119477659463882 -0.05239713937044144 0.3808247148990631 -0.08279005438089371 -0.5829266309738159 0.5213952660560608 0.6018958687782288 -0.03448573499917984 -0.06155640631914139 0.23432181775569916 -0.2668999135494232 0.050733257085084915 0.5755629539489746 -0.3073402941226959 0.3435814082622528 0.4271512031555176 -0.0058400980196893215 0.6710061430931091 0.7106432914733887 0.05100638419389725 0.020748568698763847 0.30557188391685486 0.3297547996044159 -0.3087039589881897 -0.4083755314350128 0.2122088372707367 0.33305108547210693 -0.8741709589958191 0.8595338463783264 0.013499490916728973 0.23184186220169067 -0.2010284662246704 -0.16851897537708282 -0.42155352234840393 0.38347384333610535 0.0170738585293293 0.40518563985824585 1.1267008781433105 -0.10432712733745575 0.32122042775154114 -0.1985776573419571 0.31158748269081116 0.3708065152168274 0.24600982666015625 0.48166850209236145 0.26800626516342163 0.5456794500350952 -0.29774531722068787 0.006639685481786728 0.012847627513110638 0.05797545611858368 0.1625431776046753 0.2786525785923004 -0.16591766476631165 0.0033805170096457005 -0.6219801306724548 -0.5817801356315613 0.49964237213134766 0.1657164841890335 0.07638062536716461 -0.11127974838018417 0.13137754797935486 -0.15072248876094818 -0.13523004949092865 -0.7013393044471741 -0.05001197010278702 0.20117326080799103 -0.002192072570323944 0.4060523808002472 0.19426824152469635 -0.09420610219240189 0.2706752121448517 -0.4659358263015747 0.47565266489982605 0.15212145447731018 0.5664623975753784 -0.024497266858816147 0.1641877442598343 -0.19693104922771454 0.3496628403663635 -0.319101482629776 0.5277344584465027 0.4161696135997772 0.07500305771827698 -0.3116288185119629 0.1451844424009323 0.4071873724460602 0.9899441599845886
What's_in_a_Name%3F_(2012_film) 0.0 0.0 0.0 0.0 0.0 0.0 0.0 0.0 0.0 0.0 0.0 0.0 0.0 0.0 0.0 0.0 0.0 0.0 0.0 0.0 0.0 0.0 0.0 0.0 0.0 0.0 0.0 0.0 0.0 0.0 0.0 0.0 0.0 0.0 0.0 0.0 0.0 0.0 0.0 0.0 0.0 0.0 0.0 0.0 0.0 0.0 0.0 0.0 0.0 0.0 0.0 0.0 0.0 0.0 0.0 0.0 0.0 0.0 0.0 0.0 0.0 0.0 0.0 0.0 0.0 0.0 0.0 0.0 0.0 0.0 0.0 0.0 0.0 0.0 0.0 0.0 0.0 0.0 0.0 0.0 0.0 0.0 0.0 0.0 0.0 0.0 0.0 0.0 0.0 0.0 0.0 0.0 0.0 0.0 0.0 0.0 0.0 0.0 0.0 0.0 0.0 0.0 0.0 0.0 0.0 0.0 0.0 0.0 0.0 0.0 0.0 0.0 0.0 0.0 0.0 0.0 0.0 0.0 0.0 0.0 0.0 0.0 0.0 0.0 0.0 0.0 0.0 0.0 0.0 0.0 0.0 0.0 0.0 0.0 0.0 0.0 0.0 0.0 0.0 0.0 0.0 0.0 0.0 0.0 0.0 0.0 0.0 0.0 0.0 0.0 0.0 0.0 0.0 0.0 0.0 0.0 0.0 0.0 0.0 0.0 0.0 0.0 0.0 0.0 0.0 0.0 0.0 0.0 0.0 0.0 0.0 0.0 0.0 0.0 0.0 0.0 0.0 0.0 0.0 0.0 0.0 0.0 0.0 0.0 0.0 0.0 0.0 0.0 0.0 0.0 0.0 0.0 0.0 0.0 0.0 0.0 0.0 0.0 0.0 0.0
