1466 200
Anna_Karénine -0.20929059386253357 -0.12064129114151001 0.10585104674100876 -0.047644756734371185 0.38339295983314514 -0.10567885637283325 0.29257529973983765 0.0705910250544548 -0.21219627559185028 -0.037627216428518295 0.6469544768333435 0.49604332447052 0.2829260230064392 -0.06260304898023605 0.06813596934080124 0.45518210530281067 0.00047850885312072933 0.15302008390426636 -0.32443004846572876 -0.14203010499477386 -0.04675962030887604 -0.17892377078533173 -0.4968924820423126 -0.30149853229522705 -0.018053947016596794 0.528867781162262 -0.25276094675064087 -0.2488543838262558 -0.2790710926055908 0.5029677748680115 0.13714219629764557 -0.012224577367305756 0.06892426311969757 -0.469703733921051 -0.11049254983663559 -0.20403270423412323 -0.28696781396865845 0.1956683099269867 0.5367674231529236 0.08474592864513397 0.16575057804584503 0.8143985867500305 0.08847427368164062 -0.5281817317008972 0.3667568564414978 -0.2222612351179123 -0.10006067901849747 -0.07214958965778351 -0.017393037676811218 -0.12116952240467072 0.20832882821559906 0.3729448914527893 -0.1902923583984375 0.47432953119277954 0.3324495255947113 0.5127775073051453 -0.014507855288684368 0.24419927597045898 -0.2235316038131714 0.6909096837043762 -0.04929937422275543 -0.2972348928451538 -0.03903607279062271 -0.33529406785964966 0.1355273574590683 -0.2081855982542038 -0.36855509877204895 0.47033971548080444 -0.06467380374670029 0.11011186242103577 0.03615006059408188 0.04109462723135948 -0.1370665580034256 0.8996506929397583 0.024272652342915535 -0.16015441715717316 -0.5246742367744446 0.073130764067173 0.6067889928817749 -0.7272550463676453 0.42376309633255005 -0.2390669882297516 0.16508597135543823 0.04571681097149849 0.008347210474312305 -0.3520805239677429 0.6468462944030762 -0.11046074330806732 0.19358587265014648 0.12956567108631134 0.5317290425300598 -0.1650559902191162 -0.15934264659881592 0.40854939818382263 -0.06051173061132431 0.24450235068798065 0.11077523231506348 -0.19521963596343994 0.670408308506012 -0.24186843633651733 0.06304469704627991 -0.45040395855903625 -0.3370450735092163 0.08509700745344162 0.3133793771266937 0.159831702709198 0.1950370818376541 0.3261006474494934 0.08634751290082932 0.5810163021087646 -0.5024401545524597 0.33247286081314087 -0.1560341715812683 0.07275784015655518 0.011202163994312286 -0.6990689635276794 -0.30145949125289917 0.2361709326505661 0.2418110966682434 -0.29438522458076477 0.7593463063240051 -0.3448222279548645 -0.19666136801242828 0.014635797590017319 0.3297198712825775 0.2468736618757248 0.4750201404094696 -0.4294688403606415 0.08062071353197098 0.22164449095726013 -0.05724947154521942 0.17082072794437408 -0.43569934368133545 -0.16237573325634003 0.19169311225414276 -0.43236228823661804 0.22656172513961792 -0.7877935767173767 -0.35745981335639954 -0.2592214345932007 -0.44153428077697754 0.2746669352054596 -0.25460416078567505 -0.32883232831954956 -0.18672969937324524 0.4051935076713562 -0.4605558514595032 0.0847703143954277 -0.1890685260295868 0.2584361135959625 0.33062466979026794 0.45790356397628784 0.914247989654541 0.09977217018604279 0.052548445761203766 0.06997128576040268 0.7592903971672058 0.12643833458423615 -0.30668774247169495 0.35094496607780457 -0.6555227637290955 0.14873336255550385 -0.23425495624542236 -0.31518062949180603 0.42026999592781067 0.08901788294315338 -0.2361021637916565 0.15509280562400818 0.23714548349380493 0.17935441434383392 -0.2158132940530777 0.4379943013191223 0.22981685400009155 -0.12194066494703293 -0.307410329580307 0.11122138798236847 0.00693177105858922 0.15946578979492188 0.21455098688602448 -0.07574915885925293 -0.11325406283140182 0.6396838426589966 -0.6700499057769775 0.05429798364639282 0.04437818378210068 -0.48880571126937866 -0.1433497667312622 -0.38821476697921753 0.20898744463920593 0.4468550682067871 -0.2373758852481842 -0.6335204839706421 0.21958251297473907 -0.35536330938339233 0.3068860173225403 0.3041025400161743 -0.0840323194861412 0.25908273458480835 -0.37472355365753174 -0.12151028215885162
Shadow_Dancer -0.07906416058540344 0.06850731372833252 -0.27119144797325134 -0.17562423646450043 0.8866614103317261 0.4739065170288086 0.2618803083896637 0.37380728125572205 -0.22924041748046875 -0.2816050946712494 0.6406592726707458 0.34001418948173523 0.2916191518306732 -0.17474187910556793 0.2028047889471054 0.07231048494577408 0.44767627120018005 -0.008656362071633339 -0.3808668553829193 -0.0954187884926796 -0.06004670262336731 -0.24643076956272125 -0.8281498551368713 -0.6052954196929932 -0.11825482547283173 0.020611444488167763 0.11128775030374527 0.04558142274618149 -0.025131186470389366 0.2957116365432739 0.5165671110153198 -0.07269121706485748 -0.32382020354270935 0.016144458204507828 -0.42666512727737427 -0.25226765871047974 0.2003505378961563 0.04297592118382454 0.4060317277908325 0.06693926453590393 0.04036559537053108 0.4441710114479065 -0.4961746633052826 -0.010951527394354343 0.2367410510778427 0.035044390708208084 -0.11075989156961441 0.23841620981693268 -0.05919303372502327 -0.07499266415834427 0.15604443848133087 -0.13130562007427216 -0.21828772127628326 0.40350309014320374 0.1246362030506134 0.43370839953422546 -0.11781397461891174 0.02132553979754448 0.22120824456214905 0.45434972643852234 -0.38675275444984436 -0.5470547080039978 -0.07314906269311905 0.010932237841188908 -0.5962985157966614 -0.3080713152885437 -0.4181753098964691 0.1805763989686966 -0.16578985750675201 -0.15469413995742798 0.3653654456138611 0.10707588493824005 0.11824934184551239 0.5416859984397888 -0.12143567204475403 -0.23833231627941132 -0.8038344383239746 0.11997587233781815 0.3939465582370758 -0.22741162776947021 0.23508484661579132 0.4043816328048706 0.20494382083415985 -0.4100424349308014 0.4743625521659851 -0.1206328421831131 0.7167102694511414 -0.23167632520198822 0.059795133769512177 -0.11437574774026871 0.8106765747070312 0.18864771723747253 0.08530521392822266 0.5644498467445374 -0.1433044970035553 -0.10395421832799911 -0.23413272202014923 0.06935098767280579 0.1471635103225708 -0.03147685527801514 -0.11608310043811798 -0.5576619505882263 -0.1834939867258072 -0.37810423970222473 0.147503063082695 0.394582599401474 0.04875463619828224 -0.2586682140827179 -0.46344441175460815 0.17283080518245697 -0.10888304561376572 0.14749829471111298 -0.3783484995365143 -0.0550469234585762 -0.7047683000564575 -0.5650095343589783 -0.260309636592865 0.10719709098339081 0.20616395771503448 -0.0721239447593689 0.411444753408432 0.24154002964496613 0.05374377593398094 0.03203018009662628 -0.28664112091064453 -0.4104829430580139 -0.057418204843997955 0.0961669459939003 0.012152654118835926 0.266053706407547 0.1341060996055603 0.12159444391727448 -0.36612412333488464 -0.2462424337863922 -0.26267319917678833 -0.31130853295326233 0.02610761485993862 -0.4680841565132141 -0.8500020503997803 -0.12727680802345276 0.07369352132081985 0.1775103062391281 -0.21174249053001404 0.11298361420631409 -0.20198099315166473 0.49706852436065674 0.2452695071697235 -0.020579250529408455 -0.3356994688510895 -0.06678400933742523 -0.22010622918605804 0.34643158316612244 0.24564146995544434 0.05361093580722809 -0.1408425122499466 0.29907476902008057 0.6648330688476562 0.09104416519403458 -0.49208009243011475 0.41323399543762207 -0.2064846307039261 0.03528987243771553 -0.48306703567504883 0.26385387778282166 0.18465477228164673 -0.25886666774749756 -0.27049750089645386 -0.15214700996875763 -0.12510737776756287 -0.20988011360168457 -0.07184479385614395 -0.09103786200284958 0.20623451471328735 -0.6272678375244141 -0.27639317512512207 0.24656642973423004 -0.5213210582733154 0.5401310920715332 0.12379397451877594 -0.03079717792570591 -0.2083042562007904 0.6788544654846191 -0.11808208376169205 -0.3774438500404358 -0.26196351647377014 -0.4332093894481659 -0.35279276967048645 -0.269239604473114 -0.01141409669071436 0.12366808950901031 -0.5009406805038452 -0.1002541035413742 -0.19102665781974792 -0.27584394812583923 0.08142019808292389 0.187821164727211 -0.018648499622941017 0.218875452876091 -0.6058235764503479 0.19405372440814972
Upside_Down -0.3648560643196106 0.072263702750206 -0.40946516394615173 -0.2247566282749176 0.4651205241680145 0.3844562768936157 0.3923000693321228 0.23519720137119293 -0.262428343296051 -0.16415263712406158 0.25328248739242554 0.5204289555549622 0.37436914443969727 -0.442114919424057 0.15513424575328827 0.23776862025260925 0.21219930052757263 0.05303030088543892 -0.11025500297546387 -0.16709385812282562 0.12614504992961884 -0.0702381506562233 -0.7118110060691833 -0.1584758311510086 -0.09280459582805634 0.054915983229875565 -0.39170023798942566 0.062377024441957474 0.11993066221475601 0.4899713099002838 0.25760090351104736 -0.5202687382698059 -0.18636977672576904 -0.31095853447914124 -0.31411924958229065 -0.10111875832080841 -0.06430225074291229 0.03884332627058029 0.6667170524597168 -0.08585411310195923 -0.055672526359558105 0.35100626945495605 -0.5829368233680725 -0.26520389318466187 0.5368814468383789 -0.26807674765586853 0.2634164094924927 0.29340726137161255 -0.10315287113189697 -0.4090399742126465 -0.24745121598243713 -0.5405504703521729 0.04259882867336273 0.35495683550834656 0.4963915944099426 0.3951771557331085 -0.1392003744840622 0.43861931562423706 -0.027510369196534157 0.2774238586425781 -0.021111423149704933 -0.2707007825374603 -0.12149100750684738 -0.1854599416255951 -0.011035194620490074 0.07559307664632797 -0.04021919146180153 0.09223686903715134 0.16208775341510773 -0.3642248213291168 -0.28214430809020996 0.09617125242948532 0.24503572285175323 0.27917465567588806 0.007694047410041094 0.2064252495765686 -0.7624126076698303 0.14846695959568024 0.858021080493927 0.12672272324562073 0.37671056389808655 0.5411933064460754 -0.5059891939163208 -0.4020244777202606 0.025068024173378944 -0.2945208251476288 0.5531463623046875 0.23188409209251404 -0.07148782163858414 -0.5611823201179504 0.27316829562187195 0.24635280668735504 0.023307770490646362 0.0772455632686615 -0.44002944231033325 -0.13867413997650146 0.1408674567937851 0.0008905045106075704 0.07412508875131607 -0.09338118135929108 0.21735277771949768 0.12700828909873962 -0.24790695309638977 -0.5974700450897217 0.5669577121734619 0.18751442432403564 0.3101588487625122 0.23780979216098785 -0.12521417438983917 -0.4940638542175293 0.09495631605386734 -0.22154124081134796 -0.14330294728279114 -0.22596584260463715 -0.19833441078662872 -0.847406804561615 -0.6376301646232605 -0.08619437366724014 0.32157427072525024 -0.48573237657546997 0.5775159001350403 -0.14673027396202087 -0.6516458988189697 -0.09552568942308426 -0.40007907152175903 -0.0891549289226532 -0.1733500361442566 -0.0519387386739254 -0.04463878646492958 0.11964912712574005 -0.27504104375839233 -0.006231956649571657 -0.13952958583831787 0.2726350426673889 -0.012933656573295593 0.0024736481718719006 0.15103428065776825 -0.6264039278030396 -0.5718986988067627 -0.3086828887462616 -0.06441770493984222 0.2870450019836426 -0.12006508558988571 -0.3203359842300415 -0.43939000368118286 0.2056789994239807 -0.17887678742408752 -0.31549176573753357 -0.5177107453346252 0.3133562207221985 -0.09772845357656479 0.35518699884414673 -0.002968825399875641 0.3306749761104584 0.10756251215934753 -0.09719409048557281 0.6043410301208496 -0.11016161739826202 -0.4438335597515106 0.12676900625228882 -0.2823110818862915 0.39612555503845215 -0.42867493629455566 0.06026444956660271 0.46180903911590576 0.31834256649017334 -0.1502825915813446 0.29089847207069397 0.24929070472717285 0.5961883068084717 -0.038110725581645966 0.18029917776584625 -0.2393246591091156 -0.4561312794685364 -0.27709606289863586 -0.18565396964550018 -0.48177674412727356 0.51988285779953 0.5235198140144348 -0.0801427960395813 0.08589226007461548 0.6621586680412292 0.059731870889663696 -0.24473194777965546 -0.033793941140174866 -0.34192028641700745 -0.12704694271087646 -0.05305850878357887 0.383614718914032 -0.03546726703643799 -0.2385195940732956 -0.14977413415908813 0.49844425916671753 -0.814571738243103 -0.5170140862464905 0.34133756160736084 0.008668552152812481 0.2433161586523056 -0.5138227939605713 -0.6183391809463501
Sur_la_route -0.4819992482662201 -0.2142585963010788 0.04437663033604622 -0.41213351488113403 0.4722449779510498 0.06424714624881744 0.3156552314758301 0.6196128726005554 0.01892809011042118 -0.20128928124904633 0.07013575732707977 0.40583112835884094 0.2228933423757553 -0.011852904222905636 0.3633924126625061 0.02738671749830246 0.4451417028903961 0.03411007672548294 0.23449808359146118 -0.21104289591312408 0.03238358348608017 -0.08124802261590958 -0.574784517288208 -0.40568608045578003 0.08940162509679794 0.025022804737091064 0.05175551399588585 -0.3918670415878296 -0.00735320383682847 0.4007364511489868 0.514958381652832 -0.32058027386665344 -0.23343196511268616 -0.17837870121002197 -0.5064716339111328 0.10814707726240158 -0.22986385226249695 0.09220100194215775 0.341569721698761 0.029616979882121086 -0.08304595947265625 0.42703208327293396 -0.4339710772037506 -0.5886282324790955 0.4941604733467102 -0.10463842749595642 -0.13455091416835785 -0.05644422024488449 -0.16606079041957855 -0.490731805562973 -0.13318902254104614 -0.24728430807590485 -0.280705064535141 0.14497236907482147 0.09015239030122757 0.4131866693496704 -0.25958824157714844 0.199203222990036 -0.011292567476630211 0.5530710816383362 0.17711563408374786 -0.1409735083580017 -0.23758600652217865 -0.3566974401473999 0.08679218590259552 0.0754687711596489 -0.002514840569347143 0.08539564162492752 0.09883535653352737 -0.26395806670188904 -0.2734062075614929 -0.03474370762705803 0.02456558682024479 0.4771398603916168 -0.1617126762866974 -0.20783841609954834 -0.5922461152076721 0.0016714547527953982 0.9225441813468933 -0.5576874613761902 0.3313407599925995 -0.09587553143501282 0.033010318875312805 -0.2452986240386963 0.10153274983167648 0.09387576580047607 0.47365403175354004 -0.1216571107506752 0.05922393500804901 -0.41924163699150085 0.5013036727905273 0.06597966700792313 -0.34128332138061523 0.34947484731674194 -0.6086280345916748 0.2478339672088623 0.46145156025886536 0.045670635998249054 0.16703461110591888 0.2838704288005829 0.17831109464168549 -0.3560991883277893 -0.24872206151485443 -0.6343898773193359 0.5091375708580017 0.23712100088596344 0.297513872385025 0.5233080983161926 -0.16113412380218506 -0.2506487965583801 0.15480008721351624 -0.19234134256839752 -0.31518375873565674 -0.1700170636177063 -0.23459695279598236 -0.522074282169342 -0.15310361981391907 -0.2519367039203644 0.17289601266384125 -0.4457673728466034 0.5917063355445862 0.4442340135574341 -0.09502722322940826 0.12864674627780914 -0.1978255808353424 -0.06607471406459808 0.03919055685400963 -0.15187162160873413 -0.1694464534521103 -0.05574768781661987 -0.02199050970375538 0.4601410925388336 -0.16605181992053986 -0.06503964215517044 -0.24531519412994385 0.024713849648833275 0.17823635041713715 -0.4123234748840332 -0.6434230208396912 -0.42079076170921326 -0.2713993489742279 0.34166911244392395 -0.10334210097789764 0.013986811973154545 -0.06543571501970291 0.4127131402492523 -0.16197027266025543 -0.0038140842225402594 0.17457808554172516 0.1646849811077118 -0.34791988134384155 0.15930072963237762 -0.08228602260351181 -0.04241488128900528 -0.18858665227890015 -0.04227042943239212 0.6223127245903015 -0.080461785197258 -0.629826545715332 0.27283018827438354 -0.37003886699676514 0.5765609741210938 -0.5659264326095581 0.032839421182870865 0.2098381668329239 0.05485159531235695 -0.2732142210006714 0.6309850811958313 0.21459810435771942 0.43931347131729126 -0.17271248996257782 -0.09693444520235062 -0.17993198335170746 -0.1849593073129654 -0.7868844866752625 -0.1435793936252594 -0.6386528015136719 0.07705226540565491 0.5119491219520569 -0.020712560042738914 0.4005574882030487 0.3469117283821106 -0.3638054132461548 -0.15039631724357605 -0.2253485769033432 -0.3325870931148529 -0.025634795427322388 -0.04294103756546974 0.1508895456790924 0.1658194363117218 -0.06436507403850555 -0.4219856858253479 0.2150897979736328 -0.453522652387619 -0.21635790169239044 0.46192675828933716 0.27884021401405334 0.20685507357120514 -0.237008199095726 -0.3569753170013428
Paranoia -0.06772831082344055 -0.020222172141075134 -0.006170322652906179 -0.5363628268241882 0.21040083467960358 0.22565729916095734 0.25857189297676086 0.2937140166759491 -0.11348386108875275 -0.32479751110076904 0.3022893965244293 0.5317532420158386 0.595099687576294 -0.09388156980276108 0.4200765788555145 0.19003529846668243 0.08389373123645782 0.20056793093681335 0.02418644353747368 -0.26732465624809265 0.2395189255475998 0.1874074637889862 -0.7982102036476135 -0.28896382451057434 -0.0458889976143837 -0.06945393234491348 0.15711663663387299 0.050847578793764114 0.14599503576755524 0.7193867564201355 0.08714737743139267 -0.059787727892398834 -0.13450269401073456 -0.6342005133628845 -0.45273512601852417 -0.20709238946437836 -0.299832820892334 0.45797619223594666 0.4828258752822876 0.010228518396615982 -0.0956328809261322 0.19821985065937042 -0.18200595676898956 -0.5136733651161194 0.3992196023464203 -0.018212871626019478 -0.2992338538169861 0.10958104580640793 0.05293281748890877 -0.1901978850364685 -0.11500539630651474 -0.015123974531888962 -0.31533190608024597 -0.07840311527252197 0.16833436489105225 0.6944577693939209 -0.23886698484420776 0.305486261844635 0.021618569269776344 0.41021621227264404 0.012619530782103539 -0.35409367084503174 -0.14046379923820496 -0.1281362771987915 -0.16305100917816162 0.273560494184494 -0.17147204279899597 0.4577629268169403 0.14908698201179504 -0.09594421833753586 -0.01787979155778885 -0.0732986181974411 0.16202697157859802 0.13205234706401825 -0.19651973247528076 -0.2211024910211563 -0.4947819411754608 -0.1549624353647232 0.6457337141036987 -0.27750325202941895 0.29135599732398987 -0.041862428188323975 0.05446489527821541 -0.36626219749450684 0.10373899340629578 0.021781114861369133 0.7465463280677795 -0.1688121110200882 0.13807140290737152 -0.34958696365356445 0.4223594665527344 0.1290956735610962 -0.6071395874023438 0.18346017599105835 -0.10317538678646088 0.04918303340673447 0.33666864037513733 0.2536047399044037 0.012391181662678719 -0.03732195869088173 0.26619765162467957 -0.18733714520931244 -0.11100044846534729 -0.3139727711677551 0.5592193007469177 -0.09146686643362045 0.25735294818878174 0.46532467007637024 -0.11397211998701096 0.04550199955701828 -0.11954236775636673 -0.3481079936027527 -0.33706238865852356 0.18921761214733124 -0.07283803075551987 -0.43969064950942993 -0.26333996653556824 0.21742220222949982 -0.372680127620697 -0.43824559450149536 0.8825187087059021 0.2685615122318268 -0.061845358461141586 0.1010967269539833 -0.2593298554420471 -0.16280882060527802 0.10237665474414825 -0.38253942131996155 -0.02119961380958557 0.03543578460812569 -0.11924535781145096 0.3170410692691803 -0.27559930086135864 -0.1796305626630783 -0.4537349343299866 -0.3083992004394531 0.10339958965778351 -0.447649747133255 -0.7415986061096191 -0.23204518854618073 -0.06773494184017181 0.27406832575798035 -0.45780545473098755 -0.01393043715506792 -0.29785314202308655 0.5458503365516663 -0.44012928009033203 -0.002323281718418002 -0.22250181436538696 0.42369839549064636 -0.27562305331230164 -0.08108106255531311 -0.03518497571349144 -0.22967179119586945 0.1174444630742073 -0.2388271987438202 0.5334174036979675 0.30514979362487793 -0.6194729804992676 0.40071341395378113 -0.06834648549556732 0.38437819480895996 -0.4233201742172241 0.020312117412686348 0.2293243259191513 0.13019433617591858 -0.39446476101875305 0.16287407279014587 0.5705633759498596 0.3431842029094696 0.04806666448712349 -0.4813270568847656 0.07376600056886673 -0.3024440109729767 -0.33671852946281433 -0.06955303251743317 -0.07165679335594177 0.1488572657108307 0.2742534279823303 -0.16477251052856445 0.44348761439323425 0.5659490823745728 -0.34355151653289795 -0.3325529992580414 -0.29016149044036865 -0.4958406090736389 -0.14574968814849854 -0.27572643756866455 0.14790113270282745 0.16431251168251038 0.002381261670961976 -0.003247826127335429 0.12669546902179718 -0.433464914560318 -0.1289064586162567 0.2901793420314789 0.17959502339363098 0.18679530918598175 -0.6848101615905762 0.05021476373076439
Diana -0.2171182781457901 0.01226199883967638 0.2976706624031067 -0.3004675507545471 0.3714006245136261 0.2523766756057739 0.2875983715057373 0.10765523463487625 0.040040332823991776 -0.015072512440383434 0.7882625460624695 0.1254870444536209 0.2046918272972107 -0.13724491000175476 0.13114821910858154 0.3038252592086792 0.3274085521697998 0.24003241956233978 -0.2275078296661377 -0.04710541293025017 0.21923203766345978 -0.1599903702735901 -0.8407756090164185 -0.38131028413772583 -0.15548746287822723 -0.23148976266384125 -0.1150021031498909 0.09384685009717941 -0.12267035245895386 0.3731238842010498 0.13346266746520996 -0.544590413570404 0.11134938895702362 -0.321537047624588 -0.36078914999961853 -0.5996302366256714 -0.24028097093105316 -0.020489152520895004 0.5163148641586304 0.08010383695363998 -0.07033894956111908 0.4855705201625824 -0.5445728302001953 -0.40007948875427246 0.47212880849838257 -0.027582215145230293 -0.2039777636528015 0.3466527462005615 -0.030185997486114502 -0.42623835802078247 0.08345522731542587 0.2617754638195038 -0.5166836977005005 0.5701656937599182 0.23004227876663208 0.3408953845500946 0.2560836374759674 -5.7928060414269567e-05 -0.08537281304597855 0.07344309240579605 0.054541151970624924 -0.5069591999053955 -0.06958012282848358 -0.19711655378341675 0.08556059002876282 -0.08664674311876297 -0.2812238931655884 -0.18813209235668182 0.18914347887039185 -0.08840744197368622 0.25757792592048645 0.24108301103115082 -0.2213415503501892 0.19095464050769806 0.20038199424743652 0.22878915071487427 -0.6682533621788025 0.13615936040878296 0.35508912801742554 -0.08323078602552414 0.26572883129119873 0.18304882943630219 0.06325236707925797 -0.5038687586784363 0.22311367094516754 -0.31105363368988037 1.0048340559005737 -0.15388019382953644 0.17217954993247986 -0.37891197204589844 0.12510032951831818 -0.27618780732154846 -0.657111644744873 0.4108802378177643 0.03696856647729874 0.43748781085014343 0.38032057881355286 0.18197564780712128 0.021154604852199554 -0.20943711698055267 -0.17265711724758148 -0.1289985030889511 -0.048146337270736694 -0.2875728905200958 0.2600316107273102 0.351202130317688 0.11348652839660645 0.37205368280410767 -0.2760562002658844 -0.17084020376205444 -0.0764545276761055 0.020960189402103424 -0.24750952422618866 0.17032991349697113 -0.7029470801353455 -0.23999425768852234 -0.15104128420352936 0.16778936982154846 0.043744247406721115 -0.09164973348379135 0.48480862379074097 -0.0249779112637043 -0.07234290987253189 0.41774314641952515 -0.007041088305413723 -0.10032376646995544 0.053802553564310074 -0.04146360978484154 -0.01581338234245777 -0.22376464307308197 0.09682488441467285 0.1189219206571579 -0.2964231073856354 -0.15963363647460938 0.3077717125415802 -0.07684541493654251 -0.2714831233024597 -0.34249797463417053 -1.0889381170272827 -0.11065173149108887 0.13762784004211426 0.13263221085071564 -0.12387990206480026 0.3265339434146881 -0.08548993617296219 0.1724059283733368 -0.11964375525712967 0.5269131660461426 -0.3652082681655884 0.04597688838839531 -0.014120493084192276 -0.049882031977176666 0.5019912719726562 -0.04264092445373535 0.2901669144630432 0.30681782960891724 0.816482663154602 0.1751357465982437 -0.5355808138847351 0.2519611120223999 -0.023871254175901413 0.2052328735589981 -0.5974687337875366 0.20969420671463013 0.17005771398544312 -0.24443647265434265 0.07094699144363403 0.1690037101507187 0.42435505986213684 0.2634375989437103 -0.03145136684179306 -0.07982839643955231 -0.038410037755966187 -0.4557337462902069 0.06043171137571335 0.12293646484613419 -0.07767823338508606 0.4678175449371338 0.11319545656442642 -0.18214406073093414 -0.017636101692914963 0.7512067556381226 -0.1974772810935974 -0.07135246694087982 -0.12191753834486008 -0.23403236269950867 -0.18096138536930084 0.029508741572499275 -0.006834803614765406 0.22692836821079254 -0.2168302685022354 -0.16993552446365356 -0.05373571440577507 0.051424264907836914 -0.3047809302806854 0.46339160203933716 0.17887379229068756 -0.05860140547156334 -0.333608478307724 -0.13591788709163666
360 -0.2578086256980896 0.06767433881759644 -0.21436229348182678 -0.3944895565509796 -0.05523257702589035 0.05331522971391678 0.30709603428840637 0.3858189880847931 -0.24810612201690674 -0.13232921063899994 0.6115915775299072 0.31766191124916077 0.31595951318740845 -0.06458275765180588 0.49504053592681885 -0.01506722904741764 0.06073274463415146 0.2861056327819824 -0.3139580488204956 -0.4313824772834778 0.13486644625663757 -0.18495915830135345 -0.42757657170295715 -0.3497816026210785 -0.07277002930641174 0.22680503129959106 0.2483120709657669 -0.20937883853912354 0.19966864585876465 0.14227406680583954 0.21771405637264252 -0.31306830048561096 -0.02602955885231495 0.024125054478645325 -0.44871944189071655 -0.4688118100166321 -0.688723087310791 0.24891836941242218 0.44212445616722107 0.4134710133075714 0.22593457996845245 0.5177416801452637 -0.4611653685569763 -0.23285602033138275 0.30425548553466797 -0.3693891763687134 -0.12809154391288757 -0.27422547340393066 -0.051601435989141464 -0.059770990163087845 0.3823002278804779 0.09466572105884552 -0.24567288160324097 0.06387421488761902 0.39467504620552063 0.09125509113073349 -0.22414803504943848 0.6436212062835693 0.3646140992641449 0.367593377828598 0.08117066323757172 -0.4024988114833832 -0.23112136125564575 -0.2633734345436096 0.21683810651302338 -0.18492017686367035 -0.21301929652690887 -0.005373775493353605 0.057433221489191055 0.024753136560320854 0.320941299200058 0.20095543563365936 -0.11449922621250153 0.4308151602745056 -0.1532660275697708 -0.2265225350856781 -0.5040797591209412 -0.1551283895969391 0.3862033486366272 -0.4612913131713867 0.030755382031202316 0.1080494150519371 0.22531162202358246 -0.17710475623607635 0.06130793318152428 0.29010894894599915 0.12140283733606339 -0.0450521744787693 -0.2168765515089035 -0.0149222481995821 0.2836208641529083 -0.09979840368032455 -0.7453218698501587 0.46965253353118896 -0.3474575877189636 0.15509451925754547 -0.1621740758419037 -0.3653532862663269 0.26048824191093445 0.09657067805528641 0.11838681995868683 0.051648691296577454 -0.37360551953315735 -0.4699421226978302 0.5535897016525269 0.12311123311519623 0.3050616681575775 0.6804192066192627 -0.33934563398361206 0.09552598744630814 0.12424739450216293 0.05352000519633293 -0.38738301396369934 -0.12534715235233307 -0.5040029883384705 -0.3792661130428314 -0.36700838804244995 -0.05664369463920593 -0.21989236772060394 -0.6531375050544739 0.46931061148643494 0.31343021988868713 0.034743424504995346 -0.6252518892288208 0.21185794472694397 0.22092851996421814 0.12387579679489136 0.13810314238071442 -0.005946659483015537 -0.051737330853939056 -0.6303001046180725 0.11759122461080551 -0.6991288661956787 0.03457951918244362 0.2810317873954773 -0.29081660509109497 -0.3744828701019287 -0.5311082601547241 -0.9252825379371643 -0.3674163520336151 -0.20678406953811646 -0.12339825928211212 -0.27806758880615234 -0.13557228446006775 -0.5383701920509338 0.3715362250804901 -0.26880699396133423 0.25934356451034546 -0.32934269309043884 0.4632583260536194 0.3281031847000122 0.543637752532959 0.21515950560569763 0.7119269967079163 0.014536665752530098 -0.13315103948116302 0.5492651462554932 -0.3060036599636078 -0.6570615172386169 0.18538802862167358 -0.45980361104011536 0.5892201066017151 -0.6002520322799683 -0.1661062389612198 0.08422292768955231 0.04865739867091179 -0.17678628861904144 0.37542781233787537 0.5350332260131836 0.11650285869836807 0.2921532690525055 -0.04094437137246132 0.005010718014091253 -0.14028185606002808 -0.35426124930381775 -0.20331719517707825 -0.5430947542190552 0.38111165165901184 0.4174688756465912 -0.24624699354171753 0.08007658272981644 0.4133661091327667 0.1150764599442482 -0.009143248200416565 -0.058923397213220596 -0.5881430506706238 -0.09120868891477585 -0.0346420556306839 0.26328396797180176 0.354594349861145 -0.4075963497161865 -0.12795427441596985 0.03607708215713501 -0.6162064671516418 0.09680790454149246 0.2506789267063141 0.06520502269268036 0.2552197277545929 -0.376057505607605 -0.38726985454559326
Thérèse_Desqueyroux -0.18415871262550354 0.05032052844762802 -0.38675692677497864 -0.15911038219928741 0.5720291137695312 0.3842622637748718 0.014711304567754269 0.4079945385456085 -0.33467745780944824 -0.41707271337509155 0.27789634466171265 0.41956886649131775 0.39252275228500366 -0.14954648911952972 0.1923551857471466 0.3447844982147217 0.48504918813705444 0.10105419158935547 0.14961731433868408 0.0775139331817627 -0.08312791585922241 -0.07423070818185806 -0.6126666069030762 -0.1054876372218132 -0.06756767630577087 0.22133171558380127 -0.10861876606941223 -0.5121694207191467 -0.14167018234729767 0.8014907836914062 0.12212329357862473 -0.38539040088653564 -0.2537149488925934 -0.16328370571136475 -0.3802352249622345 -0.20603933930397034 -0.5842556953430176 0.2260867804288864 0.5378007888793945 -0.17407774925231934 -0.16491934657096863 0.2882300615310669 -0.44561296701431274 -0.28088027238845825 0.18569815158843994 -0.18040183186531067 -0.048994507640600204 -0.156991645693779 -0.03542230650782585 -0.5267654061317444 0.22553005814552307 -0.2105693817138672 -0.32224127650260925 0.5610465407371521 0.16214466094970703 0.08216629177331924 0.34021931886672974 0.43230289220809937 -0.05041751265525818 0.7193986177444458 0.3656412363052368 -0.3037533462047577 -0.40006932616233826 -0.10857132822275162 -0.01773359626531601 0.4481146037578583 -0.2790224850177765 0.18564872443675995 0.20544789731502533 -0.030801227316260338 -0.04033692926168442 -0.30138224363327026 0.0994432270526886 0.26700618863105774 -0.38214269280433655 -0.17465580999851227 -0.09446485340595245 0.22796259820461273 0.2893718183040619 -0.374939888715744 0.7327783703804016 -0.11043690890073776 -0.043414898216724396 0.18347418308258057 -0.12563738226890564 -0.004713850095868111 0.6915488243103027 0.32316410541534424 -0.056466225534677505 -0.2568230628967285 0.07159984856843948 0.02359016425907612 0.05252509564161301 0.24559277296066284 -0.08445373177528381 0.07203806936740875 0.3905046880245209 -0.18516017496585846 0.034824781119823456 -0.10361214727163315 0.30480992794036865 -0.053039900958538055 -0.40899983048439026 -0.5014133453369141 0.3218236565589905 0.06618459522724152 0.1272679567337036 0.15378643572330475 -0.3098388612270355 0.09107263386249542 0.13138031959533691 -0.02856101281940937 -0.1561439037322998 0.19874408841133118 -0.08745580166578293 -0.4986489713191986 -0.07785695791244507 0.16024143993854523 -0.021505631506443024 -0.2430279552936554 0.5604365468025208 0.16574186086654663 -0.13506022095680237 -0.17608702182769775 -0.16756300628185272 0.2168550193309784 -0.11987819522619247 -0.2628727853298187 0.05694035813212395 -0.03785469010472298 -0.47419825196266174 0.173878476023674 -0.12821605801582336 0.1481841802597046 -0.10336744040250778 -0.30513739585876465 -0.23885394632816315 -0.5581154227256775 -0.4427737891674042 -0.47274863719940186 0.13144619762897491 0.11959011107683182 -0.3856658339500427 -0.2883240878582001 -0.5270248055458069 0.15666334331035614 -0.4411379098892212 0.06526113301515579 -0.14063403010368347 0.2844824492931366 -0.042570777237415314 0.08128967136144638 0.27542707324028015 0.10386327654123306 0.15583784878253937 -0.13638529181480408 0.7053932547569275 -0.18588601052761078 -0.3989132344722748 0.3091476261615753 -0.2687685489654541 0.5229760408401489 -0.4516296684741974 -0.24820320308208466 0.25013473629951477 -0.12801316380500793 -0.21699891984462738 0.14513462781906128 0.1732904464006424 0.5758429765701294 -0.21310454607009888 0.25504323840141296 -0.018205318599939346 -0.29011476039886475 -0.20973792672157288 -0.18604953587055206 -0.09389254450798035 -0.10170306265354156 -0.06441178917884827 -0.018646927550435066 0.1264095902442932 0.4651302993297577 -0.053456783294677734 0.2967028021812439 -0.28120365738868713 -0.28585153818130493 -0.1557403802871704 -0.2168138474225998 0.01295844092965126 0.1714024692773819 -0.24992337822914124 -0.133249893784523 0.1270296275615692 -0.1841367483139038 -0.20320051908493042 0.3831283450126648 0.2092723399400711 0.115150585770607 -0.5836203694343567 -0.23142041265964508
Le_Grand_Soir -0.3347621262073517 -0.27646154165267944 -0.3247491419315338 -0.2775239646434784 0.6160208582878113 0.540736198425293 0.5143919587135315 0.5811923146247864 -0.2822456955909729 -0.401534765958786 0.39460426568984985 0.23602831363677979 0.43639805912971497 0.1619189977645874 0.3378946781158447 0.3211946487426758 0.13239873945713043 0.0548718199133873 -0.15980274975299835 0.15023453533649445 -0.31868088245391846 -0.24698178470134735 -0.881624162197113 -0.504702627658844 -0.17801249027252197 0.32090839743614197 0.12962090969085693 -0.32590216398239136 -0.06647583097219467 0.6031490564346313 0.32649803161621094 -0.6551898717880249 -0.2839506268501282 -0.43462738394737244 -0.5508193969726562 -0.21221166849136353 -0.4522368311882019 -0.2808263897895813 0.13821808993816376 -0.12573908269405365 -0.17846709489822388 0.2105306088924408 -0.4469267725944519 -0.3320104777812958 -0.12809552252292633 0.04739629104733467 -0.09613494575023651 0.18326470255851746 0.14796584844589233 -0.49698060750961304 -0.015209225937724113 -0.5515017509460449 0.025099337100982666 0.5533589124679565 0.0763409435749054 0.2214089334011078 0.31536003947257996 0.4449962079524994 0.11957062035799026 0.44703057408332825 0.40905192494392395 -0.4037569463253021 -0.3540246784687042 0.004245241172611713 0.042187824845314026 0.407046914100647 -0.3060178756713867 0.0018527453066781163 0.2786017656326294 0.2931719720363617 0.19420407712459564 -0.07780422270298004 0.1349993199110031 0.3036615252494812 -0.32436051964759827 -0.06242798641324043 -0.30656763911247253 0.2446548342704773 0.37961524724960327 -0.6152082681655884 0.3749741017818451 -0.2389681339263916 0.038868166506290436 -0.36383798718452454 -0.1041979119181633 -0.572564423084259 0.6418163776397705 0.05321863666176796 -0.07569721341133118 -0.16359396278858185 0.039880696684122086 0.16314424574375153 0.11303186416625977 0.25353947281837463 -0.25865769386291504 0.023722419515252113 0.15129801630973816 0.07108692824840546 -0.012992589734494686 -0.3264583945274353 0.19727574288845062 0.1463567316532135 -0.30850422382354736 -0.09734036028385162 0.5806068778038025 0.408024400472641 -0.19319728016853333 0.26950135827064514 -0.16189907491207123 0.13881999254226685 0.11474500596523285 -0.07093753665685654 -0.5623470544815063 0.08469076454639435 0.20333914458751678 -0.18698455393314362 0.012957883067429066 0.23620903491973877 0.2476370483636856 -0.4284783601760864 0.3081625998020172 0.12718665599822998 0.02246292494237423 -0.0327889658510685 -0.08905232697725296 0.1584358513355255 -0.2701469957828522 -0.24543114006519318 -0.029669206589460373 -0.06095955893397331 -0.2890966534614563 0.22819072008132935 0.12306205928325653 0.13678903877735138 -0.1657804548740387 -0.012246320024132729 -0.2782731354236603 -0.5275434255599976 -0.4776850938796997 -0.6295984387397766 0.18590956926345825 0.08136168122291565 -0.5482105016708374 -0.18174482882022858 -0.5660117864608765 0.12627887725830078 -0.6109070777893066 0.24692173302173615 -0.11775345355272293 0.5945261716842651 -0.37259677052497864 0.003779883962124586 0.10596216470003128 0.08755902945995331 -0.01772582158446312 -0.3356684744358063 0.3937976062297821 -0.15157325565814972 -0.4534403085708618 0.26374733448028564 -0.5321008563041687 0.4989451467990875 -0.5716339945793152 -0.059097543358802795 0.40180501341819763 -0.14481322467327118 -0.4410341680049896 0.3510451316833496 0.2463017851114273 0.21432028710842133 -0.3150918185710907 -0.04159151762723923 0.12712864577770233 -0.48927760124206543 -0.0585377998650074 6.767736340407282e-05 -0.14185957610607147 -0.08563126623630524 0.10216478258371353 0.0261139664798975 -0.022733060643076897 0.4830835461616516 -0.165004700422287 0.18999424576759338 -0.2520977258682251 -0.377513587474823 -0.24702873826026917 -0.12943553924560547 -0.29768654704093933 0.015892060473561287 -0.052977949380874634 -0.06760340183973312 0.16647450625896454 -0.36625319719314575 0.1367494910955429 0.3470178544521332 0.15274836122989655 0.12043102085590363 -0.17885546386241913 -0.14697995781898499
Inside_Llewyn_Davis -0.12160120159387589 -0.01933814212679863 -0.2306053340435028 -0.6841288805007935 0.2596551477909088 0.021672533825039864 -0.000966509454883635 0.13397429883480072 -0.05266176536679268 -0.20776455104351044 0.4694060981273651 0.6870324015617371 0.38521650433540344 -0.05996675789356232 0.27081647515296936 0.30643871426582336 0.2743264436721802 0.07428868114948273 -0.0020527273882180452 -0.17767208814620972 -0.039162248373031616 -0.10698630660772324 -0.49936026334762573 -0.46594348549842834 -0.03691598027944565 0.07389657944440842 -0.09090736508369446 -0.11046401411294937 0.34659504890441895 0.28290244936943054 -0.02690468542277813 -0.003634588560089469 -0.17399545013904572 -0.3930552005767822 -0.4003971815109253 -0.13550671935081482 -0.3799690008163452 0.36827951669692993 0.4088417887687683 0.2561042606830597 -0.12037134915590286 0.39355188608169556 -0.3791305422782898 -0.43392035365104675 0.42407700419425964 0.13130244612693787 0.07889776676893234 0.2591650187969208 -0.0782950296998024 -0.32896700501441956 0.14501315355300903 -0.06722000241279602 -0.43427595496177673 0.5829439163208008 0.3562975823879242 0.32538309693336487 0.03760124370455742 0.296718955039978 0.03977822884917259 0.7999537587165833 -0.19173067808151245 -0.4286562204360962 -0.22153052687644958 -0.22251558303833008 -0.15709233283996582 0.045463789254426956 0.1613043248653412 0.11387013643980026 0.20987561345100403 0.013459472917020321 -0.10665769129991531 -0.12866827845573425 -0.08584295958280563 -0.04694507271051407 0.11244189739227295 -0.14260852336883545 -0.4252128303050995 0.1741870641708374 0.48049864172935486 -0.49272865056991577 0.2596198320388794 -0.18837691843509674 0.20482958853244781 -0.7972356677055359 -0.06504637748003006 0.1905013620853424 0.8092401623725891 0.04127058759331703 0.32433661818504333 -0.25977393984794617 0.6525840759277344 0.26812446117401123 -0.38974860310554504 0.3259933888912201 -0.010951796546578407 0.266388475894928 0.17891545593738556 -0.2671811580657959 0.11760831624269485 -0.05062435194849968 -0.09612564742565155 -0.20319189131259918 -0.20852643251419067 -0.4691391885280609 0.36602744460105896 0.3114181458950043 0.5904757380485535 0.48765960335731506 -0.08306997269392014 -0.4223840534687042 -0.20843036472797394 -7.057721086312085e-05 -0.6053162813186646 0.0031258435919880867 -0.39196303486824036 -0.29076242446899414 -0.46788620948791504 0.1971222311258316 -0.11926761269569397 -0.3399844467639923 0.87303227186203 0.3467765152454376 -0.40696465969085693 -0.09146695584058762 -0.2153269350528717 -0.010321433655917645 0.03726349025964737 -0.26173996925354004 -0.007688466925173998 0.08821214735507965 -0.19212277233600616 0.13992232084274292 -0.20167846977710724 -0.34433236718177795 -0.011766672134399414 -0.3312322199344635 0.04378429055213928 -0.508716881275177 -0.7896736860275269 -0.08762006461620331 0.019993232563138008 0.23014259338378906 -0.21314504742622375 0.26703593134880066 -0.5850762128829956 0.40438443422317505 -0.441838800907135 0.1930985450744629 0.021158257499337196 0.43900442123413086 0.06909982860088348 0.05645313113927841 0.09525539726018906 -0.048588696867227554 0.04979301244020462 -0.07220402359962463 0.6694276928901672 0.1821652352809906 -0.24742545187473297 0.23519732058048248 -0.21120665967464447 0.4263615012168884 -0.4784635305404663 0.023546112701296806 0.2753039002418518 0.10755424201488495 -0.3488622009754181 -0.020464777946472168 0.3238160312175751 0.1922195702791214 -0.08689476549625397 0.12415837496519089 -0.10259796679019928 -0.5635131001472473 -0.029089326038956642 -0.04814726114273071 -0.1406181901693344 0.08963226526975632 0.28619882464408875 -0.04197865352034569 -0.104031503200531 0.5139045715332031 -0.11081138998270035 -0.22631384432315826 -0.2478349506855011 -0.3731689453125 0.12486577779054642 -0.14475971460342407 0.07755744457244873 0.06607183068990707 -0.15113800764083862 -0.4960719048976898 0.38401615619659424 -0.35359978675842285 -0.1902788132429123 0.22663630545139313 0.25542983412742615 0.13886956870555878 -0.41257190704345703 -0.30774545669555664
Play -0.3648808002471924 -0.24810516834259033 -0.4039335548877716 -0.10957255214452744 0.6402354836463928 0.24997667968273163 -0.02191821113228798 0.3464213013648987 -0.14516013860702515 -0.1332286149263382 0.38765749335289 0.5438410043716431 0.24409499764442444 0.004793255589902401 0.14783622324466705 0.39250871539115906 0.30680549144744873 0.184312105178833 0.10269808024168015 -0.22449728846549988 0.012965785339474678 -0.2801577150821686 -0.5525944232940674 -0.26073959469795227 -0.02187248319387436 -0.44664040207862854 0.027033254504203796 -0.429804265499115 0.17719493806362152 0.5130525231361389 0.08177023380994797 -0.6247467398643494 0.04929840564727783 -0.4398782551288605 -0.6326242089271545 -0.45770010352134705 -0.07777189463376999 0.06336890906095505 0.2858521640300751 0.10892534255981445 -0.2545904219150543 0.27545198798179626 -0.20147179067134857 -0.5768139958381653 0.19998593628406525 -0.24277089536190033 0.11134267598390579 0.10496508330106735 -0.12093330919742584 -0.2343319207429886 0.054472971707582474 -0.3514997065067291 0.0450303815305233 0.39783787727355957 0.15072886645793915 0.4410841763019562 0.288847953081131 0.32175591588020325 -0.19794730842113495 0.24806907773017883 0.028951864689588547 -0.32090306282043457 -0.5255425572395325 0.22160503268241882 0.2140723615884781 0.11875323206186295 -0.2008923590183258 0.17735905945301056 -0.04396551474928856 -0.04360115900635719 -0.3723697364330292 0.10370080173015594 0.10505728423595428 0.15575668215751648 -0.09305031597614288 -0.17726735770702362 -0.3286307752132416 0.18897701799869537 0.2649153172969818 -0.19032356142997742 0.20436795055866241 0.10020027309656143 -0.21377241611480713 -0.1328321099281311 -0.1155724748969078 -0.020360760390758514 0.7513108253479004 0.07870384305715561 0.027476564049720764 -0.07551262527704239 -0.001909509883262217 -0.18944871425628662 -0.04604430869221687 0.4933544099330902 -0.1524280160665512 0.4075107276439667 -0.012848392128944397 0.06610201299190521 0.06931430101394653 -0.25423163175582886 -0.14651450514793396 -0.5575548410415649 -0.3609085977077484 0.033788032829761505 0.2650088667869568 0.2506532371044159 0.04555618017911911 0.42986804246902466 -0.04725959524512291 0.33830419182777405 -0.3777184784412384 -0.20316781103610992 -0.45247721672058105 0.16008812189102173 -0.2656383812427521 -0.08268050104379654 -0.45596328377723694 0.22695371508598328 0.011287296190857887 -0.38444218039512634 0.7527511715888977 -0.015920914709568024 0.17074817419052124 -0.02866756170988083 -0.22874243557453156 -0.09578222036361694 -0.008807064034044743 -0.03860776498913765 0.054413773119449615 0.3686889410018921 -0.1755821853876114 0.17703695595264435 -0.02685493417084217 -0.10250324010848999 -0.09825609624385834 -0.06321574002504349 -0.4968530237674713 -0.5698785781860352 -0.9420719146728516 -0.3059653043746948 0.06799692660570145 0.21328920125961304 -0.31707316637039185 0.10630638897418976 -0.4434373676776886 0.11638758331537247 -0.6435664296150208 0.16904038190841675 -0.21036699414253235 0.3638782501220703 -0.2406444400548935 0.1050025150179863 0.08265072852373123 0.062335290014743805 0.007191570941358805 -0.43746647238731384 0.5180085301399231 0.3082081079483032 -0.3177867531776428 0.09247193485498428 -0.37593525648117065 0.041352272033691406 -0.2908827066421509 0.14498357474803925 0.2511787414550781 0.020525142550468445 -0.1959160417318344 -0.10147971659898758 0.07673395425081253 0.4915013611316681 0.1162819117307663 -0.06552400439977646 -0.006378772668540478 -0.3948580026626587 -0.12119390070438385 -0.42316463589668274 -0.09222706407308578 0.4106915593147278 0.13483133912086487 0.30049580335617065 -0.018347349017858505 0.5555011630058289 -0.2162841111421585 -0.030033769086003304 -0.4318278729915619 -0.21084468066692352 0.00865846499800682 -0.12308210879564285 -0.09314229339361191 0.05757834017276764 0.0011185333132743835 -0.03040236420929432 0.1366814374923706 -0.07975603640079498 -0.19409149885177612 0.10259439051151276 0.36985909938812256 -0.2547945976257324 -0.605774462223053 -0.1024482324719429
No -0.11924915760755539 0.02146352268755436 -0.2710549533367157 -0.16790351271629333 0.4433149993419647 0.5701860785484314 0.051562417298555374 0.32904595136642456 -0.24319764971733093 -0.3653004765510559 0.20549529790878296 0.362191379070282 -0.22778941690921783 0.2473299205303192 0.6015281677246094 -0.07045802474021912 0.33465635776519775 0.10116618871688843 0.14398907124996185 -0.19444532692432404 -0.07410050183534622 -0.10368787497282028 -0.762721061706543 -0.4493860900402069 -0.01845056377351284 0.1621626317501068 0.31044402718544006 -0.3331105709075928 0.17835953831672668 0.5772906541824341 -0.06240546330809593 -0.47167009115219116 0.009044574573636055 -0.2709123492240906 -0.8157675862312317 -0.3448915183544159 -0.17172187566757202 -0.01655769720673561 0.41545790433883667 0.08936334401369095 -0.18758757412433624 0.4938695430755615 -0.23916415870189667 -0.5430951714515686 0.3881319761276245 0.13772235810756683 -0.17499621212482452 0.2233346849679947 -0.2812580168247223 -0.4095858335494995 0.10335522890090942 -0.20506754517555237 -0.23926089704036713 0.16779403388500214 0.23971189558506012 0.2017485648393631 0.007636159658432007 0.24504999816417694 0.1188129410147667 0.7080225944519043 0.3101714551448822 0.023107461631298065 0.03965369984507561 -0.3541140556335449 0.1992550641298294 0.11855735629796982 0.021423721686005592 0.07737801969051361 0.22159433364868164 0.015097979456186295 -0.24135014414787292 -0.16335634887218475 -0.34717828035354614 0.34526732563972473 -0.20741067826747894 -0.06565020233392715 -0.17141419649124146 0.2484172284603119 0.71159827709198 -0.17114338278770447 0.32838383316993713 0.07421810925006866 0.12952375411987305 -0.12432738393545151 0.18382804095745087 0.3398447632789612 0.6480740308761597 0.028993040323257446 -0.12002462893724442 -0.8584763407707214 0.1370362937450409 0.09017328172922134 0.09529244899749756 0.477949857711792 -0.2735070288181305 -0.03169110044836998 -0.03663921356201172 0.34049147367477417 0.13354556262493134 0.19014059007167816 -0.059507571160793304 0.11083672940731049 -0.5886393785476685 -0.2523512542247772 0.5378469228744507 -0.21906301379203796 -0.05350768193602562 -0.02117074839770794 0.22154515981674194 0.1624515950679779 0.06345223635435104 0.08676938712596893 -0.5331529974937439 0.06515850126743317 -0.3697608411312103 -0.2669326663017273 -0.34621453285217285 0.7341412901878357 -0.07274707406759262 -0.4997463822364807 0.7758647799491882 0.7069045901298523 -0.0388302281498909 -0.07871142774820328 -0.30577993392944336 0.019061394035816193 0.16249224543571472 -0.3560282588005066 0.12227991223335266 0.47792914509773254 -0.09163261204957962 0.08894923329353333 -0.3950464427471161 0.02949138730764389 -0.02852783352136612 -0.31784164905548096 -0.12626862525939941 -0.47080305218696594 -0.3459427058696747 0.020074795931577682 -0.20503626763820648 0.3559868335723877 -0.5654837489128113 0.2268657386302948 -0.04776950180530548 0.3502320945262909 0.13947221636772156 0.45883849263191223 0.05438647419214249 0.6464434266090393 -0.3818730115890503 0.2986990511417389 -0.22083351016044617 -0.30106624960899353 0.01841016858816147 -0.4272269010543823 0.12104357033967972 0.008984722197055817 -0.37295016646385193 0.19005689024925232 -0.7369455695152283 0.5857737064361572 -0.19827915728092194 0.11766646802425385 0.3609910011291504 0.08401308953762054 -0.6993711590766907 0.2123935967683792 -0.08877062797546387 -0.014055079780519009 -0.16179786622524261 0.2307054102420807 -0.5164898037910461 -0.04919689521193504 -0.11668600142002106 -0.4429614841938019 -0.34894004464149475 0.05700311064720154 0.3878951370716095 0.19223161041736603 0.22492198646068573 0.5320775508880615 -0.2516045868396759 -0.12192284315824509 -0.1978594809770584 -0.3860698938369751 -0.3364258408546448 -0.02210608869791031 0.04374745488166809 0.09488804638385773 -0.10341153293848038 0.03657849505543709 0.250880628824234 -0.20800738036632538 -0.02313009276986122 -0.18989324569702148 0.2075117975473404 -0.08978679031133652 -0.016216939315199852 0.1919798105955124
Passion -0.23614652454853058 -0.16850930452346802 0.10325276106595993 -0.47042033076286316 0.4226512610912323 -0.07155264914035797 0.2799645662307739 0.30662423372268677 0.03248266130685806 -0.3474304676055908 0.4165535569190979 0.5763399004936218 0.32748302817344666 -0.23516184091567993 -0.3098261058330536 0.3403961956501007 0.13766071200370789 0.2968948781490326 -0.33782458305358887 0.05536073446273804 -0.3022812604904175 -0.3042747378349304 -0.20331771671772003 -0.5265405774116516 -0.035846538841724396 -0.2435341775417328 -0.2003702074289322 0.0873401090502739 -0.277633398771286 0.17850860953330994 0.29057058691978455 -0.24923036992549896 -0.01817837916314602 -0.06198040023446083 -0.3149104118347168 -0.20080773532390594 0.10758195072412491 -0.059068359434604645 0.7055944800376892 0.13183076679706573 0.0782986506819725 0.48196735978126526 -0.20853303372859955 -0.30233749747276306 0.4853557348251343 -0.06129447743296623 -0.06568903475999832 -0.0005850931629538536 -0.05399234592914581 -0.45964422821998596 -0.15322579443454742 0.05240122228860855 -0.08039701730012894 0.22339488565921783 0.471427857875824 0.5005689859390259 0.18545585870742798 0.24739199876785278 0.22102966904640198 0.47305041551589966 -0.05103309080004692 -0.39502277970314026 -0.7771135568618774 0.12352723628282547 0.11867024749517441 0.14400239288806915 -0.13782420754432678 0.5271488428115845 -0.08225967735052109 0.18035247921943665 0.017158789560198784 -0.14823299646377563 0.37829625606536865 0.4512743651866913 0.05417187511920929 -0.20540671050548553 -0.7921974658966064 0.18059906363487244 0.23480649292469025 -0.025383129715919495 0.5988001227378845 0.1371992528438568 0.1939447522163391 -0.5688413977622986 0.020027974620461464 -0.06193678826093674 0.847989022731781 0.13381817936897278 0.06756971776485443 -0.06204705312848091 0.011470782570540905 0.17645898461341858 -0.2801521420478821 0.5644695162773132 -0.3296971619129181 -0.04820592328906059 0.059031061828136444 0.14672519266605377 0.2063857913017273 0.20020534098148346 0.14415553212165833 -0.08656106889247894 -0.4080161452293396 -0.10102157294750214 -0.026209631934762 0.2769361436367035 -0.11328308284282684 0.32243993878364563 -0.07076112180948257 -0.06519030779600143 -0.061589717864990234 0.1322593092918396 -0.30644240975379944 -0.054810039699077606 -0.5030615925788879 -0.4905143976211548 -0.3368128538131714 -0.007244266103953123 0.3848203420639038 -0.6455367207527161 0.4049907624721527 0.31758540868759155 -0.31764253973960876 0.17855851352214813 -0.23730966448783875 -0.14040012657642365 -0.21643340587615967 -0.13094398379325867 0.17713536322116852 0.15142062306404114 -0.06611581891775131 -0.21879498660564423 -0.2868387997150421 -0.13451719284057617 -0.14730416238307953 -0.2964176833629608 -0.4990215301513672 -0.5715353488922119 -0.7221477031707764 -0.370084285736084 -0.30056923627853394 -0.13614392280578613 -0.46110817790031433 0.02626124955713749 -0.3731319010257721 0.45954129099845886 0.16643603146076202 0.0740930512547493 -0.20465703308582306 0.0775500163435936 0.3491857945919037 0.544650673866272 0.13844799995422363 0.02040662243962288 0.2672889232635498 -0.0863378643989563 0.5531039237976074 0.22239036858081818 -0.3307047188282013 0.2122860848903656 -0.3220064640045166 0.31624728441238403 -0.519303023815155 -0.05118605121970177 0.40967488288879395 0.15353655815124512 -0.20522834360599518 0.5729608535766602 0.16287489235401154 0.1460883617401123 -0.20975415408611298 0.27834218740463257 -0.2781021296977997 -0.5523934364318848 -0.27236834168434143 -0.09126216918230057 -0.436870276927948 0.5086839199066162 -0.03842037171125412 -0.12894757091999054 -0.30307847261428833 0.4393876791000366 -0.06519011408090591 -0.29967325925827026 -0.5732060670852661 -0.03341177850961685 -0.16281758248806 0.13694380223751068 -0.03192761167883873 0.12475455552339554 -0.3097742199897766 -0.14430983364582062 0.26267966628074646 -0.30928581953048706 -0.17752107977867126 -0.007487300783395767 -0.021711137145757675 0.17148061096668243 -0.416970819234848 -0.4900077283382416
La_Religieuse -0.1434401422739029 -0.3401177227497101 -0.587317943572998 -0.427278995513916 0.5020139813423157 0.2648088037967682 0.20951735973358154 0.6023198366165161 0.042663995176553726 -0.4166547954082489 0.3020334243774414 0.37507209181785583 0.4486723840236664 0.12078576534986496 0.28376638889312744 0.3501585125923157 0.1937345564365387 0.3992624282836914 0.09592371433973312 0.16726385056972504 -0.46723249554634094 -0.2081213891506195 -0.5416920185089111 -0.11531459540128708 -0.22785119712352753 0.27871036529541016 -0.34896939992904663 -0.2866126000881195 -0.06423213332891464 0.7294850945472717 0.37376368045806885 -0.5554300546646118 -0.4084490239620209 -0.5133241415023804 0.004266513977199793 -0.30072304606437683 -0.5445276498794556 -0.01792590320110321 0.38086816668510437 -0.3619219660758972 -0.4516141712665558 0.18459995090961456 0.0024457168765366077 -0.3832346200942993 0.20904432237148285 0.04120074585080147 -0.33518508076667786 0.11563707888126373 -0.01489228568971157 -0.6830925345420837 -0.1664096713066101 -0.07135885208845139 -0.07477718591690063 0.6453219652175903 0.31135374307632446 0.3443215489387512 0.5027204751968384 0.2798422574996948 0.15864382684230804 0.4776443839073181 0.05495057255029678 -0.3257658779621124 -0.6772101521492004 0.1380758136510849 0.025885943323373795 0.1447189450263977 -0.3026292622089386 -0.16381753981113434 -0.14873839914798737 -0.13452386856079102 0.08776365965604782 -0.05007024481892586 0.03588892146945 0.20881515741348267 0.0018922110321000218 0.0771869570016861 -0.22504642605781555 0.2771283686161041 0.04269488900899887 -0.2516809403896332 0.3655964732170105 -0.2138831466436386 0.07134827226400375 -0.25362417101860046 -0.26888489723205566 -0.07331648468971252 0.6718412637710571 0.11901998519897461 0.021011680364608765 -0.297378808259964 0.10664033144712448 0.12006820738315582 -0.04210204631090164 0.44590386748313904 -0.41004061698913574 0.18368074297904968 0.36970826983451843 -0.07351715862751007 0.02062380127608776 -0.33857113122940063 0.5392348170280457 0.08399602025747299 -0.42293277382850647 -0.22771301865577698 0.15027353167533875 0.18964549899101257 -0.09375931322574615 0.11614668369293213 -0.535060465335846 0.21242737770080566 0.05698375776410103 0.17782177031040192 -0.36765256524086 -0.24085313081741333 -0.20797446370124817 -0.30575892329216003 0.03668554872274399 0.4194641709327698 0.5025375485420227 -0.1148810014128685 0.41518649458885193 0.0652809590101242 -0.16829414665699005 -0.17366082966327667 0.010816843248903751 0.01433578785508871 -0.10657703876495361 0.11352037638425827 0.10335494577884674 -0.004273262340575457 -0.30925434827804565 -0.007975983433425426 -0.21654434502124786 0.23206548392772675 0.014770743437111378 -0.18252506852149963 -0.1613699346780777 -0.5170403718948364 -0.7650566697120667 -0.6351507306098938 -0.0426025427877903 -0.010333686135709286 -0.10773378610610962 -0.31633853912353516 -0.6325925588607788 -0.007953808642923832 0.14433565735816956 0.1788121908903122 0.03846755996346474 0.23173464834690094 -0.023651225492358208 0.19559766352176666 0.07070141285657883 0.14308811724185944 0.10052025318145752 -0.5370141267776489 0.5541725754737854 -0.04007896035909653 -0.2740122675895691 0.15155252814292908 -0.587959349155426 0.43610042333602905 -0.4165416359901428 0.06663168966770172 0.33474940061569214 -0.06769855320453644 -0.19577127695083618 0.07070287317037582 0.002465143334120512 0.28825363516807556 -0.562195897102356 0.021871784701943398 0.2067018449306488 -0.6332054138183594 -0.31771254539489746 0.14274194836616516 -0.31970304250717163 0.24352622032165527 0.004536668304353952 -0.38472217321395874 -0.2314903289079666 0.5611237287521362 0.004358046688139439 0.42042502760887146 -0.3082675337791443 -0.11217118054628372 0.11263462901115417 -0.08949384093284607 -0.1522531658411026 0.303622841835022 -0.29602599143981934 -0.03943590819835663 -0.0759362131357193 -0.033382441848516464 -0.07543119043111801 0.28293293714523315 0.3002282679080963 0.028171833604574203 -0.3988516330718994 -0.4567977488040924
Angélique -0.34630271792411804 -0.29048246145248413 -0.12375862896442413 -0.25844699144363403 0.4771665930747986 0.13188503682613373 -0.05664702132344246 0.46585825085639954 -0.33692267537117004 -0.3148834705352783 0.29969316720962524 0.2945985198020935 0.657314658164978 0.02881006710231304 0.33674055337905884 0.31738293170928955 -0.008141809143126011 0.011923492886126041 0.12830513715744019 0.06460841000080109 -0.29004812240600586 -0.2196532040834427 -0.3808119297027588 -0.07917070388793945 -0.4209555387496948 0.3751890957355499 -0.01312420517206192 -0.1898961365222931 -0.04183405637741089 0.6250107884407043 0.12032721936702728 -0.6179695129394531 -0.35894790291786194 -0.24095654487609863 -0.5748395919799805 -0.39609381556510925 -0.6059212684631348 0.178418830037117 0.49140095710754395 -0.3378608226776123 -0.3380958139896393 0.3571860194206238 -0.3035587966442108 -0.4539729952812195 0.23166057467460632 0.13109397888183594 -0.08955725282430649 0.16027960181236267 -0.3133813738822937 -0.4669411778450012 0.2218465805053711 -0.15766541659832 -0.26599791646003723 0.698198676109314 0.11498139798641205 0.27943360805511475 0.2536693215370178 0.17917762696743011 -0.024501873180270195 0.3618403971195221 0.4334765374660492 -0.436452716588974 -0.15985338389873505 -0.07849910855293274 -0.032166820019483566 0.4970870316028595 -0.48951658606529236 0.033157866448163986 0.14469726383686066 0.02460024505853653 -0.12837037444114685 0.10111264139413834 0.03614749759435654 0.08383266627788544 0.017750544473528862 -0.2378559410572052 -0.25942331552505493 0.17541180551052094 0.33166831731796265 -0.5301548838615417 0.5127243995666504 -0.10877828299999237 -0.10363446176052094 -0.3662234842777252 -0.01452573575079441 -0.23471732437610626 0.8207051753997803 0.2579784095287323 0.15004469454288483 -0.44081953167915344 -0.19873864948749542 0.03675345331430435 -0.1674036979675293 0.36077260971069336 -0.1826932281255722 0.22562822699546814 0.384773313999176 -0.1527738720178604 0.20069414377212524 -0.38204604387283325 0.36442628502845764 0.21765238046646118 -0.40853145718574524 -0.270470529794693 0.6300616264343262 -0.0018832802306860685 0.12930451333522797 0.22414295375347137 -0.2709790766239166 0.10649196803569794 -0.027328932657837868 -0.1221868172287941 -0.2673934996128082 0.08476471155881882 -0.2524172365665436 -0.507989227771759 -0.14880718290805817 0.29120469093322754 0.14965786039829254 -0.38029035925865173 0.6490892767906189 0.07160913944244385 -0.1362227499485016 -0.16248691082000732 -0.05819830298423767 0.12320924550294876 -0.19707851111888885 -0.12439730763435364 -0.05347248539328575 -0.11957854777574539 -0.228964164853096 0.11790391057729721 -0.2797635793685913 0.18254950642585754 -0.2633926570415497 -0.0796172171831131 -0.4865758419036865 -0.4944143295288086 -0.47654014825820923 -0.42395883798599243 0.025234324857592583 0.07584477961063385 -0.3569870889186859 -0.18568319082260132 -0.4317918121814728 0.3573240339756012 -0.19740670919418335 0.20847736299037933 -0.10660462826490402 0.3558291792869568 -0.18648459017276764 0.23310396075248718 0.2697017192840576 0.2696177065372467 0.2518001198768616 -0.11087370663881302 0.5715048313140869 0.11214394867420197 -0.27870073914527893 0.08878141641616821 -0.38879188895225525 0.45565780997276306 -0.35006412863731384 -0.06101524084806442 0.40848860144615173 -0.14821650087833405 -0.3499446213245392 0.018364593386650085 0.29431140422821045 0.29739412665367126 -0.335001677274704 0.37303802371025085 0.34572795033454895 -0.5450696349143982 -0.20192928612232208 0.13832414150238037 -0.07923679798841476 0.1656607985496521 0.35024887323379517 0.20746155083179474 0.22057123482227325 0.5248905420303345 0.12854371964931488 0.310040146112442 -0.2736511826515198 -0.5854636430740356 -0.307982474565506 -0.1880575716495514 -0.2882377505302429 0.35320940613746643 -0.23105166852474213 0.06438106298446655 -0.09236364811658859 0.04847095161676407 0.006112982984632254 0.23343348503112793 -0.07961518317461014 0.0647047907114029 -0.30330729484558105 -0.18495525419712067
Au_bout_du_conte -0.44201338291168213 -0.02787609025835991 -0.22616778314113617 -0.5509331822395325 0.33476290106773376 0.1106213703751564 0.17427781224250793 0.29961466789245605 -0.0697406679391861 -0.15119051933288574 0.14222893118858337 0.3644702434539795 0.3994433581829071 -0.08907198905944824 0.313780277967453 0.4050872325897217 0.3676954209804535 0.06892017275094986 -0.22231993079185486 0.2411283701658249 -0.244642972946167 -0.06485317647457123 -0.7484225034713745 -0.20313836634159088 -0.4234263002872467 0.21655435860157013 0.03151172772049904 -0.5322364568710327 -0.09008234739303589 0.6084088683128357 0.02752423845231533 -0.27717670798301697 -0.3100525736808777 -0.2716961205005646 -0.3405342698097229 -0.48055434226989746 -0.6917036771774292 0.4204784631729126 0.37738120555877686 -0.3267256021499634 -0.27873095870018005 0.1255938708782196 -0.5155410766601562 -0.4879048764705658 0.15651047229766846 -0.19145189225673676 -0.20834963023662567 -0.023234937340021133 -0.12028897553682327 -0.5572084784507751 0.15469083189964294 -0.11005517840385437 -0.21598054468631744 0.8485919833183289 0.2573682963848114 0.017540747299790382 0.22074736654758453 0.12917956709861755 0.0382855050265789 0.7331600189208984 0.25665396451950073 -0.3042103350162506 -0.34038037061691284 -0.46100059151649475 0.07866789400577545 0.45851823687553406 -0.3557794392108917 0.15575890243053436 0.33293747901916504 -0.04165080562233925 -0.0063213687390089035 0.2182302474975586 0.17645807564258575 0.30600666999816895 -0.20827817916870117 -0.04267735406756401 -0.23217041790485382 0.16290338337421417 0.44034257531166077 -0.37628254294395447 0.6455745697021484 0.04542747139930725 0.19752773642539978 -0.2590581774711609 -0.1586092859506607 -0.20346765220165253 0.677904486656189 0.34672045707702637 -0.01398736797273159 -0.2866307497024536 0.0575738325715065 0.3044656217098236 0.1256411373615265 0.1692788302898407 -0.32323190569877625 0.14296449720859528 0.40963271260261536 -0.23041218519210815 -0.0790746659040451 -0.04057992249727249 0.37770402431488037 0.03142646327614784 -0.15039587020874023 -0.5025892853736877 0.33710113167762756 0.26383069157600403 0.026077549904584885 0.1143435463309288 -0.200016051530838 0.20791876316070557 -0.04296835511922836 0.23798027634620667 -0.414309024810791 0.22794930636882782 -0.14829979836940765 -0.5078316330909729 0.16148000955581665 -0.018906787037849426 0.036828719079494476 0.045401640236377716 0.329667329788208 0.11268039792776108 -0.097513847053051 -0.24267862737178802 -0.2521657347679138 0.18838469684123993 -0.23426999151706696 -0.20907606184482574 -0.10941241681575775 0.1851586401462555 -0.36107441782951355 0.3082054555416107 -0.2749985456466675 0.12369253486394882 -0.18865028023719788 -0.183864027261734 -0.1446482092142105 -0.27564531564712524 -0.6848426461219788 -0.19271378219127655 0.041280005127191544 0.21711444854736328 -0.1815580427646637 -0.25807228684425354 -0.4661863148212433 0.2132420539855957 -0.6766420006752014 0.1270892471075058 -0.10764188319444656 0.3717823624610901 0.008176972158253193 0.39022180438041687 0.3343781530857086 0.15672416985034943 0.2532777786254883 -0.1643306016921997 0.5624033212661743 0.03639178350567818 -0.30211058259010315 0.2064353972673416 -0.253749817609787 0.33475667238235474 -0.10524328052997589 0.13801376521587372 0.2007303088903427 -0.13458597660064697 -0.09368447214365005 -0.06844531744718552 0.23143577575683594 0.5742738842964172 -0.25790271162986755 0.13209885358810425 0.2651612460613251 -0.2696487307548523 -0.17048443853855133 -0.015771180391311646 -0.33015212416648865 0.15049274265766144 0.013609930872917175 0.02728976309299469 0.15469303727149963 0.3399936854839325 0.06288233399391174 0.18975889682769775 -0.06093030422925949 -0.5962170362472534 -0.08760657906532288 -0.14836758375167847 0.058062370866537094 0.07811788469552994 -0.21104548871517181 0.11601072549819946 -0.20228132605552673 -0.22226482629776 -0.06513122469186783 0.2633749842643738 0.3992295563220978 -0.22746269404888153 -0.445394903421402 -0.1930810511112213
Blood_Ties -0.09635472297668457 -0.25546756386756897 -0.22684836387634277 -0.471513032913208 0.36080795526504517 -0.1368245631456375 0.2616909444332123 0.2547362744808197 -0.2911864221096039 -0.24775072932243347 0.2084023356437683 0.39223894476890564 0.4142078757286072 -0.008833606727421284 0.40179893374443054 0.20721545815467834 0.07644528895616531 0.0184459425508976 -0.24444995820522308 0.09687941521406174 -0.1923527866601944 -0.06176627799868584 -0.4394308626651764 -0.3305532932281494 -0.13615702092647552 0.37228503823280334 0.0800587609410286 0.01894301548600197 0.06557386368513107 0.6830964088439941 0.23809798061847687 -0.364045649766922 -0.28311991691589355 -0.5490605235099792 -0.4061974883079529 -0.2594608664512634 -0.33502843976020813 0.3596697449684143 0.5490971803665161 -0.2034704089164734 -0.2412894368171692 0.2725282907485962 -0.33595582842826843 -0.3872411251068115 0.42904919385910034 0.0805019661784172 -0.027954360470175743 -0.003608833532780409 -0.14312152564525604 -0.6573798656463623 0.13963256776332855 -0.26590901613235474 -0.5833852887153625 0.46484920382499695 0.20614765584468842 0.23402708768844604 -0.01388104073703289 0.14116807281970978 -0.06654852628707886 0.6259890794754028 0.06145786866545677 -0.3834143280982971 -0.2729588449001312 -0.2348591536283493 -0.1437428742647171 0.21446305513381958 -0.2392684370279312 0.18134018778800964 -0.12132370471954346 -0.02185254544019699 0.20927445590496063 -0.04625526815652847 0.23326732218265533 0.3061544597148895 -0.03893791511654854 -0.2765517234802246 -0.43932655453681946 0.10508725792169571 0.2917097806930542 -0.5756850242614746 0.15930034220218658 -0.14771008491516113 0.07683894783258438 -0.29519903659820557 -0.10232613980770111 -0.11595436185598373 0.8466154336929321 0.0999038964509964 0.030260642990469933 -0.2259603589773178 0.3083112835884094 0.31900858879089355 -0.33493247628211975 0.46110475063323975 0.06001642718911171 0.1617070585489273 0.23914456367492676 0.05073472112417221 0.27187663316726685 -0.18105243146419525 0.4909712076187134 -0.1327356994152069 -0.3327660858631134 -0.2659716308116913 0.12877941131591797 0.2325863391160965 0.2643464207649231 0.2985815405845642 -0.27028241753578186 -0.234379842877388 -0.062199126929044724 0.08341719210147858 -0.40272727608680725 0.1210884153842926 -0.1616334319114685 -0.3876703977584839 -0.3184329569339752 0.05503294989466667 -0.11036231368780136 -0.16783507168293 0.5404797196388245 0.30403414368629456 -0.16482096910476685 0.08377598226070404 -0.37693822383880615 0.38362449407577515 0.07170667499303818 -0.36442282795906067 -0.0020646012853831053 -0.1629529446363449 -0.2439330518245697 0.35810714960098267 -0.2513936161994934 -0.12603724002838135 -0.18553905189037323 -0.19677819311618805 -0.19110482931137085 -0.3759579360485077 -0.7258477210998535 -0.0418534055352211 0.03740154579281807 0.3350847363471985 -0.23880235850811005 -0.14601364731788635 -0.5548178553581238 0.5921655893325806 -0.36657243967056274 0.34259799122810364 -0.09262014180421829 0.4116614758968353 -0.3237304985523224 -0.026444382965564728 0.19316506385803223 0.31939858198165894 0.05401996523141861 -0.05836303159594536 0.5424785017967224 0.40420517325401306 -0.27885204553604126 0.12335871160030365 -0.20016717910766602 0.28040841221809387 -0.2601880729198456 0.2762824296951294 0.1535176783800125 0.1441449671983719 -0.18968768417835236 0.0654524713754654 0.3646531403064728 0.32956022024154663 -0.45920783281326294 0.1305088996887207 0.28803548216819763 -0.4639407694339752 -0.25831806659698486 -0.09316927939653397 -0.3008495569229126 0.24967385828495026 0.27686452865600586 0.06046539172530174 0.029832661151885986 0.4339476525783539 -0.24840140342712402 -0.269359290599823 -0.5469366908073425 -0.4252009987831116 -0.04897989332675934 -0.1578231304883957 0.013993246480822563 0.43570375442504883 -0.16769780218601227 -0.12455242872238159 0.3796970844268799 -0.3550012409687042 0.15841802954673767 0.1336827129125595 0.4149887263774872 0.01351089682430029 -0.39391347765922546 -0.0010990871815010905
Camille_redouble -0.23655247688293457 0.0011910649482160807 -0.34960678219795227 -0.3831910789012909 0.3681270480155945 0.11442317068576813 0.06016331538558006 0.47907349467277527 -0.13945679366588593 -0.5638492107391357 0.3249261975288391 0.4718894958496094 0.5982463955879211 0.055554624646902084 0.5021463632583618 0.519716203212738 0.2897670567035675 0.00033556559355929494 -0.010270648635923862 0.18728116154670715 -0.2145000547170639 0.10240288823843002 -0.6449927091598511 -0.12159659713506699 -0.35433000326156616 0.470703661441803 0.1701747477054596 -0.3655645549297333 -0.22530168294906616 0.7969119548797607 0.031033998355269432 -0.42206358909606934 -0.2648102343082428 -0.4212718904018402 -0.3523753881454468 -0.2200268656015396 -0.51421719789505 0.15069763362407684 0.40033671259880066 -0.5044271945953369 -0.20328891277313232 0.32501712441444397 -0.1913451999425888 -0.3630138337612152 0.18554283678531647 0.08278466761112213 -0.05144154280424118 0.08344550430774689 0.0654512494802475 -0.4785386025905609 0.045598454773426056 -0.3350631296634674 -0.16319863498210907 0.34421682357788086 -0.07221608608961105 -0.08537791669368744 0.16965517401695251 0.17344610393047333 -0.09765256941318512 0.597101628780365 0.22377930581569672 -0.353598415851593 -0.3658309876918793 -0.1629021018743515 -0.13257645070552826 0.6470885276794434 -0.3793385922908783 0.11614984273910522 0.21163947880268097 0.054040711373090744 -0.06946712732315063 -0.029295004904270172 0.4957697093486786 -0.0022293010260909796 -0.17610801756381989 -0.2147095650434494 -0.21884901821613312 0.3182016611099243 0.5465880036354065 -0.5712059736251831 0.5848038792610168 0.03936317563056946 -0.05225532874464989 -0.1137741357088089 -0.2517462372779846 -0.02697743847966194 0.8797547817230225 0.2357659935951233 -0.04568130895495415 -0.20789438486099243 0.05408049374818802 0.1301800161600113 -0.09719274938106537 0.12537769973278046 -0.2740826904773712 0.12199576199054718 0.3429547846317291 -0.024425003677606583 0.10995293408632278 -0.42764467000961304 0.38429802656173706 -0.02436799183487892 -0.45278164744377136 -0.34519892930984497 0.547576904296875 0.24044054746627808 0.17588599026203156 0.050751473754644394 -0.13645946979522705 0.20061875879764557 -0.15578238666057587 0.10924050211906433 -0.335605651140213 0.23842526972293854 0.02613748610019684 -0.5309295058250427 -0.25962987542152405 0.2805716395378113 0.19154347479343414 -0.2357378602027893 0.5997457504272461 0.17523624002933502 -0.04253777489066124 -0.1200307235121727 -0.29563987255096436 0.08410442620515823 -0.1506437063217163 -0.1410117745399475 0.028703227639198303 -0.22365735471248627 -0.24853824079036713 0.19532212615013123 -0.29037874937057495 0.3249043822288513 -0.1189507395029068 -0.18110314011573792 -0.46822336316108704 -0.5197039246559143 -0.4651365280151367 -0.40102019906044006 0.07321624457836151 0.23814673721790314 -0.41955018043518066 -0.36660850048065186 -0.6114449501037598 0.08868520706892014 -0.5211737155914307 -0.03101763129234314 -0.11192092299461365 0.5828242897987366 -0.04098387062549591 0.23115654289722443 0.5165196061134338 0.135593980550766 0.23596590757369995 -0.3471950590610504 0.5339047908782959 0.06506462395191193 -0.37019968032836914 -0.11688545346260071 -0.4778235852718353 0.4522750675678253 -0.4615849554538727 -0.13865211606025696 0.3204050064086914 -0.17833486199378967 -0.2423865795135498 0.09455669671297073 0.06902792304754257 0.19297458231449127 -0.3318198621273041 0.06505636870861053 0.2869828939437866 -0.3120611608028412 -0.2910521626472473 0.032258808612823486 -0.17550526559352875 0.1156889796257019 0.1425049751996994 -0.04215189069509506 -0.18494737148284912 0.5987191796302795 -0.011587225832045078 0.3131568431854248 -0.10239677131175995 -0.5304301977157593 -0.23714669048786163 -0.1758766770362854 -0.05842895433306694 0.09201055020093918 -0.16067884862422943 -0.014491899870336056 0.2781185209751129 -0.15899503231048584 0.06543777137994766 0.2222120314836502 0.09547939151525497 -0.16577456891536713 -0.3406282365322113 0.02745942771434784
L'Écume_des_jours -0.14591963589191437 -0.33461105823516846 -0.044269125908613205 -0.11757439374923706 0.3973125219345093 0.3490861654281616 0.16804096102714539 0.4855813682079315 -0.19830188155174255 -0.269670307636261 0.15919888019561768 0.21966291964054108 0.4416230618953705 -0.22907327115535736 0.5297447443008423 0.44991183280944824 0.18968409299850464 0.09170223027467728 -0.11043195426464081 0.21198029816150665 -0.44378289580345154 -0.2398594319820404 -0.85175621509552 -0.21486064791679382 -0.19305357336997986 0.4261152148246765 -0.011799357831478119 -0.23848871886730194 -0.2623791992664337 0.6735436916351318 0.4792156219482422 -0.46812042593955994 -0.3748837411403656 -0.19949635863304138 -0.23280230164527893 -0.5309337973594666 -0.5976831912994385 0.08555182814598083 0.3763464689254761 -0.3656519055366516 -0.016322968527674675 0.2892064154148102 -0.33958640694618225 -0.20116272568702698 0.5585773587226868 -0.1455729603767395 -0.33700719475746155 -0.25087279081344604 -0.17401529848575592 -0.7211105227470398 0.14911675453186035 0.049260396510362625 -0.3260170519351959 0.5748158693313599 0.3589175045490265 0.29992303252220154 0.3415023386478424 -0.008933302946388721 0.07801005989313126 0.6478754878044128 0.20063117146492004 -0.6458112001419067 -0.3499910533428192 0.10293588042259216 0.44643762707710266 0.3086009919643402 -0.3627053201198578 -0.022741828113794327 0.3239192068576813 -0.09043984115123749 0.13959620893001556 0.2607530355453491 -0.0022608288563787937 0.48987075686454773 0.08237363398075104 -0.15287227928638458 -0.3996128737926483 0.32446324825286865 0.08010166883468628 -0.28120237588882446 0.37462475895881653 -0.14701880514621735 0.012581368908286095 -0.16852571070194244 0.06239761784672737 -0.02975192852318287 0.6794660687446594 0.1176721453666687 0.13154184818267822 -0.3869909346103668 -0.168838232755661 0.02036183327436447 0.08898136019706726 0.2331332266330719 -0.1555197834968567 0.13749569654464722 0.6785939931869507 -0.3610735237598419 -0.1596856415271759 -0.1448935568332672 0.14413917064666748 0.44969841837882996 -0.13160504400730133 -0.3286474943161011 0.42091891169548035 0.13827598094940186 -0.1466665416955948 0.5087593197822571 -0.14818979799747467 0.28441470861434937 0.23233526945114136 0.16991253197193146 -0.0874340757727623 -0.09113404154777527 -0.33449599146842957 -0.7824894785881042 0.13547608256340027 0.2126767486333847 0.10081262141466141 0.03499525040388107 0.2781590521335602 0.09905746579170227 -0.0534512922167778 -0.2202642858028412 -0.41959360241889954 0.025946814566850662 -0.2416103184223175 -0.3602294325828552 -0.06928279995918274 -0.06645213812589645 -0.5008552074432373 0.23502157628536224 -0.4761370122432709 -0.06271358579397202 -0.1526290327310562 -0.2388390153646469 -0.08802923560142517 -0.7760345935821533 -0.620400607585907 -0.29394257068634033 0.15369786322116852 -0.07585757970809937 -0.12067577987909317 -0.3404792547225952 -0.5124368071556091 -0.028939418494701385 -0.3786989450454712 0.12418770790100098 -0.11972969025373459 0.2908462584018707 -0.09222222864627838 0.11118664592504501 0.24091732501983643 0.04487678036093712 0.23361711204051971 -0.21903949975967407 0.47584179043769836 -0.3509782552719116 -0.42441704869270325 0.330384761095047 -0.45450907945632935 0.4771912097930908 -0.39932793378829956 0.12486663460731506 0.2098037749528885 -0.10234739631414413 -0.10531008243560791 0.021016115322709084 0.2626701593399048 0.5891736149787903 -0.22612880170345306 -0.12496089935302734 0.3792861998081207 -0.26754122972488403 -0.059601686894893646 0.09244351089000702 -0.08963126689195633 0.046290479600429535 -0.16980355978012085 -0.4131523668766022 -0.019881507381796837 0.8998036980628967 -0.15554624795913696 -0.08977806568145752 -0.11610651761293411 -0.356538325548172 -0.21967610716819763 0.04383144527673721 -0.029816435649991035 0.14327557384967804 -0.43038156628608704 0.05424753203988075 -0.22556249797344208 -0.13056392967700958 -0.027756087481975555 0.40268149971961975 0.05990045517683029 0.2996789216995239 -0.3955179452896118 -0.4863331615924835
Non-Stop -0.5710088610649109 0.07222533226013184 -0.22888165712356567 -0.2286403328180313 0.43141844868659973 -0.15602168440818787 0.16216976940631866 0.5774871706962585 -0.23959335684776306 0.10807227343320847 0.2617080807685852 0.35796886682510376 0.35321444272994995 -0.09356846660375595 0.21203824877738953 0.1933671236038208 0.6484434604644775 0.20049911737442017 0.02500624768435955 -0.1820238083600998 -0.03737008944153786 0.048701681196689606 -0.48218488693237305 -0.5465877056121826 -0.2290661334991455 0.089590884745121 -0.05959974601864815 -0.050424084067344666 0.3431280851364136 0.7479850649833679 0.2765255868434906 -0.11801796406507492 -0.19102467596530914 -0.5547966957092285 -0.4221435785293579 -0.25944504141807556 -0.07151497155427933 -0.20080499351024628 0.5350736379623413 0.4232621490955353 -0.15147104859352112 0.3845527768135071 -0.2793973386287689 0.040805377066135406 0.359843909740448 -0.2702611982822418 0.2716595232486725 -0.21288996934890747 -0.1323438286781311 -0.5652422904968262 0.21502985060214996 -0.12118334323167801 -0.6748036742210388 0.14463262259960175 0.40082553029060364 0.8160615563392639 -0.09520123153924942 0.05642767250537872 0.06960480660200119 0.43688175082206726 -0.13582740724086761 -0.2209164798259735 -0.29618844389915466 -0.31763893365859985 -0.21282783150672913 0.06352454423904419 -0.3441869020462036 0.18491245806217194 0.04825720191001892 -0.3902583420276642 0.019397927448153496 -0.4449288845062256 0.3495428264141083 0.10139219462871552 -0.030124545097351074 -0.21444165706634521 -0.5997036695480347 -0.07547967880964279 0.3201342225074768 -0.5693550705909729 0.04673130437731743 -0.09046437591314316 -0.06621786952018738 -0.235596165060997 -0.1769232302904129 0.14145997166633606 0.6106978058815002 0.13064907491207123 -0.10916738212108612 -0.46110445261001587 0.49250325560569763 0.16089627146720886 -0.11788429319858551 0.4611924886703491 0.19273601472377777 -0.027453187853097916 -0.07205794751644135 0.02951638586819172 0.07685168087482452 0.12163414061069489 0.30791401863098145 -0.09514093399047852 -0.17177623510360718 0.007403142750263214 0.3274855315685272 0.31953614950180054 0.1299898475408554 0.4643174707889557 -0.3064744472503662 -0.2862321436405182 -0.1356128454208374 0.1117243692278862 -0.23144496977329254 -0.3345997631549835 -0.16965728998184204 -0.4033550024032593 -0.39436277747154236 0.04816460981965065 -0.29325664043426514 -0.4099348485469818 0.6743987202644348 0.3770529329776764 -0.25717705488204956 0.15816687047481537 -0.6120736002922058 0.07667357474565506 0.3353235125541687 -0.05976780876517296 0.19536924362182617 0.08303873986005783 0.4716535210609436 0.5985932946205139 -0.13770082592964172 0.18503418564796448 -0.24660030007362366 -0.18161596357822418 0.173570454120636 -0.5357374548912048 -0.4084632694721222 -0.15653106570243835 -0.167448028922081 0.139154851436615 -0.5478507876396179 0.10795682668685913 -0.29331597685813904 0.24222655594348907 -0.02410389669239521 0.29420164227485657 -0.09838958084583282 0.16991576552391052 -0.07685181498527527 0.10452642291784286 0.2640712857246399 0.451215535402298 0.18524791300296783 -0.27264028787612915 0.5800114870071411 -0.04963792860507965 -0.3013227880001068 0.19673453271389008 -0.4882403314113617 0.4714961647987366 -0.3400733172893524 -0.10487081855535507 0.5714942216873169 0.19616812467575073 -0.24945174157619476 0.3026107847690582 0.4346505403518677 0.332565039396286 -0.1133027896285057 -0.34730902314186096 -0.2459070235490799 -0.46538063883781433 -0.12113451212644577 -0.025076506659388542 -0.3021121025085449 0.09284850209951401 0.37532684206962585 -0.02510729618370533 0.12827904522418976 0.9013299942016602 -0.3287540674209595 -0.5271953344345093 -0.5695127844810486 -0.4039129316806793 0.21287085115909576 -0.6022735834121704 0.058545343577861786 -0.15285708010196686 0.0395059734582901 0.08755289763212204 0.5560052394866943 -0.6949885487556458 0.16838477551937103 0.506570041179657 0.10245568305253983 -0.035712651908397675 -0.418005108833313 -0.12139942497015
Après_la_bataille -0.49481335282325745 0.5195270776748657 -0.16778144240379333 -0.38324475288391113 0.24278773367404938 0.3234540522098541 0.24477145075798035 -0.03164612129330635 0.5022760033607483 0.040992435067892075 -0.06731488555669785 0.3228261470794678 -0.018279394134879112 0.12793715298175812 0.22410765290260315 0.1722351461648941 0.2317860722541809 -0.00872404221445322 0.0733349621295929 0.04310595244169235 -0.3865004777908325 0.3893239200115204 -0.5150076150894165 -0.06104128807783127 -0.049514155834913254 0.4188976287841797 -0.26528728008270264 -0.20343108475208282 0.04028378427028656 0.06842893362045288 0.1591711938381195 -0.48791536688804626 0.21499280631542206 -0.11325386166572571 -0.3073471188545227 -0.41327789425849915 -0.4435879588127136 0.4929027557373047 -0.039316050708293915 -0.07385452836751938 -0.16065678000450134 0.11660634726285934 -0.3154795169830322 -0.2934766411781311 0.2835417687892914 -0.04642047360539436 0.08678516000509262 -0.5626117587089539 0.2204340398311615 -0.7124105095863342 0.23119117319583893 0.19521227478981018 -0.04981103539466858 0.582023024559021 0.6363651156425476 0.5165618062019348 -0.11382544040679932 0.054507236927747726 -0.09981818497180939 0.2571341097354889 0.2593594193458557 -0.4236026108264923 -0.5118302702903748 -0.1512981504201889 -0.14185360074043274 0.1359522044658661 -0.40716928243637085 -0.3401888906955719 0.0009094950510188937 -0.247787207365036 -0.04487207531929016 -0.12276095896959305 0.038710929453372955 0.12701715528964996 0.16331954300403595 -0.4385952055454254 -0.4771609902381897 -0.16201448440551758 0.17001448571681976 -0.24078555405139923 -0.21100370585918427 0.2672022879123688 -0.0696314126253128 -0.18560105562210083 0.14352767169475555 -0.27721264958381653 -0.032082699239254 0.11125411838293076 -0.07247532904148102 0.09100153297185898 0.4768671989440918 0.49116194248199463 -0.026983799412846565 0.5048536658287048 -0.01691587269306183 -0.4522286355495453 0.4146653115749359 0.2385779321193695 0.5526297092437744 -0.18502672016620636 0.1795610636472702 -0.08957836776971817 -0.2131267786026001 -0.21532773971557617 0.4062778651714325 0.2402118444442749 0.07337140291929245 0.26895859837532043 -0.2788841426372528 -0.04490693658590317 -0.22401222586631775 -0.1216152235865593 -0.36410120129585266 -0.019229445606470108 -0.4048004448413849 -0.6185126304626465 0.012727459892630577 -0.2942495048046112 0.30919626355171204 -0.2203383445739746 0.5737221837043762 0.12808384001255035 0.32384616136550903 -0.3246927559375763 -0.10895295441150665 0.3394504487514496 0.12670618295669556 -0.1647678017616272 0.29627883434295654 -0.2021869421005249 -0.2165416181087494 0.20470081269741058 -0.4417993426322937 0.04553317278623581 0.06483565270900726 -0.04180826619267464 0.09008671343326569 -0.3884315490722656 -0.6781702041625977 -0.10081294924020767 0.14392109215259552 0.32066401839256287 -0.25243741273880005 0.4906798303127289 -0.6031236052513123 0.35929879546165466 -0.0238035935908556 -0.1373167186975479 -0.004481836222112179 0.16733211278915405 -0.19508835673332214 0.15974201261997223 0.4390154480934143 0.048026274889707565 0.08325078338384628 0.23783378303050995 0.102231465280056 -0.2544470727443695 0.048363834619522095 -0.29595085978507996 -1.1644831895828247 0.6814420223236084 -0.36662450432777405 -0.09651550650596619 0.3273726999759674 -0.24078671634197235 -0.2018255591392517 -0.06307516992092133 0.17827196419239044 0.18536008894443512 -0.44459268450737 -0.386090487241745 0.1344885230064392 -0.23460200428962708 -0.23421892523765564 -0.0003493883414193988 -0.3875851035118103 0.2316591888666153 -0.21401409804821014 0.11875735223293304 -0.22696571052074432 0.39096909761428833 -0.11541542410850525 -0.449617475271225 -0.1319165676832199 0.08261353522539139 0.14307484030723572 -0.12317939847707748 -0.1471244841814041 0.15329401195049286 -0.6452229619026184 0.22147391736507416 0.31960466504096985 -0.4404909610748291 0.2537357807159424 0.2307197004556656 0.5567613244056702 0.1188914105296135 0.0914861187338829 -0.13064591586589813
L'Artiste_et_son_modèle -0.2644638121128082 -0.2155228555202484 -0.3402729034423828 -0.07442363351583481 0.4582604765892029 0.1526036411523819 0.2893338203430176 0.46626368165016174 -0.138553187251091 -0.2914075553417206 0.20690295100212097 0.3786133825778961 0.31386035680770874 0.24013751745224 0.36567482352256775 0.13269120454788208 0.4271634519100189 0.34172549843788147 -0.12143518030643463 -0.03354284167289734 0.06331008672714233 -0.24817897379398346 -0.3255528509616852 -0.03940213844180107 0.018568655475974083 -0.003127130214124918 -0.1120152696967125 -0.42411118745803833 -0.013319226913154125 0.7193119525909424 0.01937222294509411 -0.4638204872608185 -0.048010919243097305 -0.22904810309410095 -0.6980574131011963 -0.3353842496871948 -0.16464723646640778 0.055055517703294754 0.49965938925743103 -0.10876016318798065 -0.30030590295791626 0.07096125930547714 -0.13236495852470398 -0.31693774461746216 0.32025545835494995 0.17814694344997406 -0.299085795879364 -0.1774233728647232 0.07568603754043579 -0.5675299763679504 0.20511652529239655 -0.5890591144561768 -0.17909418046474457 0.6033726930618286 0.19469673931598663 0.07564868032932281 0.04579632356762886 0.31951576471328735 0.05504496395587921 0.570649266242981 -0.06568711996078491 -0.3164937198162079 -0.42604103684425354 0.15057142078876495 0.14259885251522064 0.49373966455459595 -0.29684892296791077 -0.05777021870017052 -0.12694275379180908 0.013192862272262573 0.11468788236379623 0.07136804610490799 0.21357588469982147 0.5456056594848633 -0.005534489173442125 -0.1212758794426918 -0.2601657211780548 0.3876396417617798 0.2159024178981781 -0.23073098063468933 0.5105229616165161 -0.2611701190471649 -0.10733696073293686 0.01728883758187294 -0.05004782974720001 0.06534472107887268 0.6911160945892334 0.16594198346138 0.034128814935684204 -0.042762380093336105 0.09953609853982925 0.07857082039117813 0.11751697957515717 0.48388591408729553 -0.17210426926612854 -0.043386902660131454 0.42839476466178894 -0.08041661232709885 -0.1411791294813156 -0.2844344675540924 0.1880871206521988 -0.06412209570407867 -0.5262250304222107 -0.01798919588327408 0.28298068046569824 6.639622733928263e-05 0.09449280798435211 0.1465124636888504 -0.30292439460754395 0.06745482981204987 -0.10608961433172226 0.18026570975780487 -0.31061771512031555 -0.10897514224052429 -0.3520265817642212 -0.2523718774318695 -0.3498747944831848 0.13218137621879578 0.1935431808233261 -0.1919754594564438 0.3569320738315582 0.24324795603752136 -0.05875187739729881 -0.14513061940670013 -0.2277514487504959 0.2034469097852707 0.01143291313201189 -0.18811124563217163 -0.2906642258167267 0.007241045590490103 -0.1328737884759903 0.11149457097053528 -0.11569622159004211 0.29947710037231445 -0.18995201587677002 -0.15964773297309875 -0.2426588088274002 -0.5910022258758545 -0.6091256737709045 -0.3791218400001526 -0.22089843451976776 -0.01455936674028635 -0.382466197013855 -0.013986172154545784 -0.22074081003665924 0.128706693649292 -0.012528715655207634 0.2401912957429886 -0.1628013402223587 0.6419845223426819 0.1662731170654297 0.3421514332294464 0.4241594970226288 0.3600640892982483 0.21986845135688782 -0.37306931614875793 0.6697202920913696 -0.043412625789642334 -0.26819559931755066 -0.17278961837291718 -0.6406917572021484 -0.005637809634208679 -0.3320152461528778 -0.08469415456056595 0.3004947304725647 -0.14022420346736908 -0.486005961894989 0.24996152520179749 -0.01907534711062908 0.13038137555122375 -0.0878283828496933 0.31349194049835205 0.06429944932460785 -0.4548355042934418 0.05935456231236458 0.04672722890973091 -0.29987648129463196 0.4784521162509918 -0.08660842478275299 0.062312450259923935 0.027665777131915092 0.6693285703659058 -0.08158745616674423 0.02484702318906784 -0.22411254048347473 -0.26184943318367004 -0.2686649262905121 -0.1267402023077011 0.1020045354962349 0.1251862794160843 -0.3542305529117584 0.07838159054517746 0.40247321128845215 -0.33408012986183167 0.13706395030021667 0.24047483503818512 -0.022898036986589432 -0.06118142232298851 -0.607630729675293 -0.4332686960697174
Do_Not_Disturb -0.05104644596576691 -0.3081667125225067 -0.10589542984962463 -0.1569800078868866 0.37636229395866394 0.34538978338241577 0.22616374492645264 0.4254067540168762 0.0018648630939424038 -0.48255735635757446 0.26432836055755615 0.18916305899620056 0.4716465175151825 0.056570541113615036 0.37944915890693665 0.3561515510082245 0.18975761532783508 0.16714906692504883 -0.150712251663208 0.20002470910549164 -0.23648297786712646 -0.2493131011724472 -0.6319911479949951 -0.19539259374141693 -0.14568975567817688 0.24860745668411255 0.17362220585346222 -0.822986900806427 -0.007707768585532904 0.526826024055481 0.345831960439682 -0.30180397629737854 -0.17701557278633118 -0.37400302290916443 -0.39347609877586365 -0.5480418801307678 -0.46805450320243835 -0.049112770706415176 0.5701199769973755 -0.30343398451805115 -0.3520206809043884 0.41922852396965027 -0.22619983553886414 -0.08979139477014542 0.22678151726722717 -0.2246103137731552 -0.17148837447166443 -0.019953077659010887 -0.049192920327186584 -0.4091983735561371 0.1372559517621994 -0.33705681562423706 -0.029426351189613342 0.6130244135856628 0.015470576472580433 0.17904183268547058 0.12731501460075378 0.2798601984977722 0.09580807387828827 0.30601173639297485 0.2120896279811859 -0.2913980484008789 -0.4963657557964325 -0.00727039622142911 0.041439466178417206 0.2929413616657257 -0.2859378755092621 0.24265433847904205 0.1015399843454361 -0.1350562870502472 -0.005400552414357662 -0.14877840876579285 0.0625542476773262 0.049916598945856094 -0.23777228593826294 -0.26633864641189575 -0.25098705291748047 0.22125113010406494 0.41417792439460754 -0.41195982694625854 0.48854193091392517 0.19102567434310913 -0.04289562255144119 -0.3714333772659302 -0.032927725464105606 0.013489382341504097 0.6306895613670349 0.1649608016014099 -0.2205018550157547 -0.2555941045284271 0.15068717300891876 0.49394217133522034 -0.16259664297103882 0.307007372379303 -0.3270743191242218 0.24961920082569122 0.13289181888103485 -0.11026465147733688 0.2762726843357086 -0.26178646087646484 0.3054245114326477 -0.01718137226998806 -0.16885904967784882 -0.08363664895296097 0.6006938219070435 0.2238585352897644 0.008139441721141338 0.28913775086402893 -0.3453713655471802 -0.14923034608364105 -0.06161530315876007 0.21488305926322937 -0.4877905547618866 0.12698453664779663 -0.2063463181257248 -0.439521461725235 -0.24353602528572083 0.09916195273399353 0.16565951704978943 -0.43708011507987976 0.7500630021095276 0.14040683209896088 0.036771755665540695 0.0298506747931242 -0.11049602925777435 0.19059821963310242 -0.2497846484184265 -0.09727919101715088 0.18108218908309937 -0.15577925741672516 -0.32196635007858276 0.41974616050720215 -0.05861181020736694 0.29129815101623535 -0.16727270185947418 -0.2197801023721695 -0.2464403361082077 -0.4106581509113312 -0.7215309143066406 -0.3806888461112976 -0.14853963255882263 0.13715198636054993 -0.4567577540874481 -0.2822944223880768 -0.5192017555236816 0.14402076601982117 -0.6063677668571472 -0.14292921125888824 -0.14997190237045288 0.3404562175273895 0.006936429068446159 0.2218874841928482 0.2425871193408966 -0.02074049971997738 0.0841452106833458 -0.10088438540697098 0.516305685043335 0.0065863230265676975 -0.3353736102581024 0.31745752692222595 -0.5384901762008667 0.20756301283836365 -0.4438536465167999 -0.08825278282165527 0.4238603711128235 0.04244289547204971 -0.18904030323028564 0.16994903981685638 0.2468598634004593 0.22497586905956268 -0.10140606760978699 0.04743324592709541 0.013313086703419685 -0.3494186997413635 -0.1548413634300232 0.1576259434223175 -0.19960713386535645 0.3684799075126648 0.05704164505004883 -0.1302471160888672 0.03899383544921875 0.6634365916252136 0.056868720799684525 0.2845931649208069 -0.3842087686061859 -0.09330176562070847 -0.056692831218242645 -0.3359209895133972 0.008486825041472912 0.2876046299934387 -0.12031066417694092 -0.048358023166656494 0.11406861990690231 -0.15464748442173004 -0.1538551300764084 0.4175381660461426 -0.02953646145761013 -0.1765962541103363 -0.6198155283927917 -0.14024578034877777
Le_Fils_de_l'autre -0.26994454860687256 0.16444024443626404 -0.5995599627494812 -0.31872543692588806 0.7053776979446411 0.46857911348342896 0.173623189330101 0.07471270859241486 -0.27543434500694275 -0.20843425393104553 0.26613181829452515 0.29429784417152405 0.006774707697331905 -0.20512251555919647 0.36520931124687195 0.11617933958768845 -0.05217532813549042 -0.010429223999381065 -0.4253763258457184 -0.11519059538841248 0.1785934865474701 -0.05460365489125252 -0.5701850056648254 -0.289375901222229 0.048057492822408676 0.40476784110069275 -0.12564677000045776 -0.14222687482833862 -0.12274731695652008 0.6389861106872559 -0.18411630392074585 -0.5619583129882812 0.1271992176771164 -0.3817328214645386 -0.5202771425247192 -0.5837271809577942 -0.403155118227005 0.31926387548446655 0.2882736921310425 -0.40086629986763 -0.5544716715812683 0.3850254714488983 -0.37640368938446045 -0.28570830821990967 0.4613810181617737 -0.15875886380672455 0.036289066076278687 -0.10129713267087936 -0.3906242847442627 -0.791728138923645 0.10581451654434204 -0.2488231509923935 -0.5687300562858582 0.9234735369682312 0.061501484364271164 0.21957732737064362 0.2782440483570099 0.17606912553310394 -0.0979328602552414 0.16567952930927277 0.35525137186050415 -0.5063665509223938 -0.12816162407398224 -0.05473792180418968 0.2365199625492096 0.3351783752441406 -0.16234061121940613 -0.3865177631378174 0.0748266875743866 -0.19747966527938843 -0.09400622546672821 -0.14827831089496613 0.04809241369366646 -0.03882714360952377 -0.3271968364715576 -0.15008683502674103 -0.522188663482666 0.22813673317432404 0.29072412848472595 -0.17909114062786102 0.6299604773521423 0.4214073717594147 -0.08563125878572464 -0.10145233571529388 0.4310058653354645 0.1622242033481598 0.2932705581188202 0.2847744822502136 -0.1830502152442932 -0.4278784990310669 0.20921151340007782 0.36594003438949585 -0.08439905941486359 0.42139771580696106 -0.009524471126496792 -0.2717963755130768 0.18824374675750732 0.6330253481864929 0.16772529482841492 0.09966545552015305 0.16418617963790894 0.20296628773212433 -0.5854426026344299 -0.5500507950782776 0.4808468520641327 0.3622032403945923 -0.06433742493391037 0.2661239206790924 0.09071379899978638 -0.40600311756134033 -0.28431418538093567 0.1292344033718109 -0.19102801382541656 -0.11115065217018127 -0.15792836248874664 -0.3410518169403076 0.160740926861763 0.22299709916114807 0.1203458309173584 -0.6210496425628662 0.6771525144577026 0.11550594866275787 -0.22328801453113556 -0.39339667558670044 -0.03336884081363678 0.17679567635059357 0.1792873591184616 0.10534527152776718 -0.25064554810523987 0.028808992356061935 0.06942281126976013 0.5554938912391663 -0.6750487089157104 -0.17809061706066132 -0.06445548683404922 -0.5434378385543823 -0.006779057905077934 -0.4386008679866791 -0.2780461013317108 -0.40776747465133667 0.1405217945575714 -0.4704495668411255 -0.6794991493225098 0.0005170017830096185 -0.20905561745166779 0.12239136546850204 -0.11332736164331436 0.00017765327356755733 -0.25712835788726807 0.3048413097858429 -0.29150599241256714 0.5060553550720215 0.31201133131980896 0.2529785931110382 0.5379153490066528 -0.24656228721141815 0.2602865397930145 -0.21357384324073792 -0.3891759514808655 -0.0636359378695488 -0.9377086758613586 0.7727588415145874 -0.40005549788475037 0.4305749535560608 0.295468270778656 0.2654532492160797 -0.3468112349510193 0.3115465044975281 0.25682616233825684 -0.032056402415037155 -0.1501523107290268 -0.10779253393411636 -0.004121331963688135 -0.4643922448158264 0.17273913323879242 0.16653068363666534 -0.21430014073848724 0.15349982678890228 0.34062090516090393 0.2807251513004303 -0.06779716908931732 0.4873397946357727 -0.04223059117794037 -0.25605449080467224 -0.16678938269615173 -0.343797892332077 -0.09876193106174469 -0.1850261390209198 -0.33831673860549927 0.42040544748306274 -0.7156096696853638 -0.3393230736255646 -0.013998311012983322 -0.10049090534448624 0.3188381791114807 0.5413554906845093 0.3579844832420349 0.019377775490283966 -0.34070584177970886 0.4083944857120514
