1317 200
Cajun_cuisine 0.325597882270813 0.4542616903781891 -1.266422986984253 0.16709746420383453 0.06660986691713333 -0.018353860825300217 -0.18115755915641785 -0.4798966646194458 -0.15566590428352356 -0.1617349535226822 0.5324283838272095 0.2966438829898834 -0.08829355239868164 0.24554681777954102 0.3617677688598633 -0.6078509092330933 -0.30129027366638184 0.5692493319511414 0.01795012317597866 -0.1834060698747635 -0.4259301424026489 0.258430540561676 -0.4451051652431488 -0.6962555050849915 -0.3283049166202545 0.1311783641576767 -0.13880018889904022 0.048124074935913086 0.10055944323539734 0.2511124014854431 -0.07481437921524048 -0.30524763464927673 -0.5702244639396667 -0.27583521604537964 0.22927649319171906 0.0856013149023056 -0.4478493630886078 -0.07774911820888519 -0.08979587256908417 -0.02281128615140915 0.21813692152500153 -0.12639132142066956 0.3064124882221222 0.1295742243528366 0.30316197872161865 -0.5703728199005127 0.374225378036499 0.34742599725723267 -0.06380832195281982 0.30602627992630005 0.24839848279953003 -0.2583448886871338 0.45967498421669006 -0.1082746610045433 0.001398639869876206 0.07973095029592514 0.21654580533504486 -0.6322274804115295 0.6807454228401184 -0.23127301037311554 0.40544140338897705 -0.3564714789390564 0.8919274806976318 -0.15017320215702057 -0.1923479437828064 -0.4357181489467621 -0.05922815203666687 0.12269634753465652 -0.15848034620285034 0.26179465651512146 -0.457809180021286 0.5303378105163574 0.757767379283905 0.2812679708003998 0.27141210436820984 -0.11917366087436676 0.40016812086105347 -0.31407591700553894 -0.22408518195152283 -0.06085600703954697 -0.7498270273208618 0.06772559136152267 0.09904218465089798 0.23923137784004211 -0.11713071167469025 0.322593629360199 0.09448008239269257 0.6970412135124207 0.5297960042953491 -0.2927497327327728 -0.13439449667930603 0.538896381855011 -0.2023262083530426 -0.4711368978023529 -0.2487383484840393 0.13775283098220825 -0.4304763078689575 0.874377429485321 0.3303515315055847 -0.3559631407260895 0.033498577773571014 0.36677050590515137 0.5530518889427185 -0.02596469782292843 0.02436213381588459 -0.2485784888267517 -0.07475566118955612 0.3345763683319092 0.32644638419151306 -0.1782616674900055 0.3601502478122711 0.0947834849357605 0.4305626451969147 0.004476017784327269 0.12206558883190155 -0.015709014609456062 -0.44219309091567993 0.7938459515571594 0.08068182319402695 -0.07198101282119751 -0.18164607882499695 0.0324859693646431 0.3587026298046112 -0.12889111042022705 0.5416027903556824 -0.19170477986335754 0.3134676516056061 -0.48207616806030273 -0.10957719385623932 0.8253753781318665 0.3254510760307312 0.0018763592233881354 -0.09463401138782501 -0.3347127139568329 -0.181407168507576 -0.00010484541417099535 0.07787223160266876 -0.33295774459838867 0.1385480910539627 -0.11295813322067261 -0.08262211829423904 0.4809669852256775 -0.11394555866718292 -0.5652371644973755 -0.440541535615921 0.2520022392272949 -0.13140763342380524 -0.07108256965875626 0.7017886638641357 0.8222070336341858 0.3369053900241852 0.04610827565193176 0.2010592818260193 0.9532625675201416 0.17420624196529388 0.3985098898410797 0.7540023326873779 0.5970335006713867 0.07436322420835495 0.15873509645462036 -0.4009914994239807 0.2833547592163086 0.39780551195144653 -0.016099054366350174 0.025887301191687584 -0.2793247699737549 -0.04475398734211922 -0.534069836139679 0.10475686937570572 0.46924078464508057 0.540025532245636 0.7919303178787231 0.43056297302246094 -0.5860850811004639 -0.4079236686229706 0.07160688936710358 0.21546350419521332 -0.25562188029289246 0.34765323996543884 -0.14962071180343628 -0.2904316186904907 -0.015845058485865593 -0.2064266800880432 0.7731475830078125 -0.03238675370812416 0.3085181713104248 -0.2560198903083801 0.23011517524719238 0.1425343006849289 0.013358334079384804 0.11152400076389313 -0.09016068279743195 0.5607494115829468 0.44502827525138855 -0.09852895885705948 0.6104547381401062 0.36688295006752014 -0.32018178701400757 0.04949382320046425 -0.0584443137049675
Chettinad_cuisine 0.12186223268508911 0.13942450284957886 -0.3062976598739624 -0.3373475968837738 0.001768040587194264 0.10491153597831726 -0.12356474250555038 -0.2121235877275467 0.23452883958816528 0.012033172883093357 0.17894195020198822 0.1128740906715393 0.044949211180210114 0.13051475584506989 0.11715107411146164 -0.3446962833404541 0.05797167122364044 0.08245925605297089 -0.177609384059906 0.010799868032336235 -0.17004485428333282 0.3446362614631653 -0.1926000863313675 -0.10429991036653519 -0.11885001510381699 0.3767237663269043 -0.16849954426288605 -0.11155509948730469 -0.09451659768819809 0.23676347732543945 0.1714770495891571 0.0533389076590538 -0.11475150287151337 -0.14386959373950958 0.15853212773799896 0.22224214673042297 -0.1332962065935135 -0.38646963238716125 0.018292812630534172 -0.2030119150876999 -0.08894902467727661 -0.14549578726291656 0.13845939934253693 -0.025279302150011063 0.10806820541620255 -0.2992318570613861 -0.08827899396419525 0.18255215883255005 -0.21940524876117706 -0.10874389857053757 -0.018948573619127274 0.1538400799036026 0.10026450455188751 -0.11821489036083221 0.0153863076120615 -0.12693296372890472 0.3065144121646881 -0.04327550530433655 0.2605525553226471 -0.27940884232521057 0.39188066124916077 -0.05211104452610016 0.3151301443576813 -0.13554759323596954 0.19880755245685577 0.03913469612598419 -0.352400004863739 0.18558581173419952 -0.3907390832901001 0.1866588443517685 -0.22317087650299072 0.15873460471630096 0.4939635097980499 0.04757175222039223 0.17099186778068542 -0.13302043080329895 -0.17737668752670288 -0.17438769340515137 -0.03930222615599632 0.3234410583972931 -0.35437774658203125 0.08845479041337967 0.07348162680864334 -0.12500768899917603 -0.3341634273529053 0.22799690067768097 -0.22956092655658722 0.43154042959213257 0.07002946734428406 -0.16221833229064941 -0.1911613643169403 0.09538166970014572 -0.10450220108032227 -0.09530464559793472 -0.18390952050685883 -0.03418521210551262 -0.340698778629303 0.023721978068351746 0.18763937056064606 0.06709180027246475 -0.18009290099143982 0.18707352876663208 0.021740296855568886 -0.1472376435995102 -0.11470506340265274 0.06653738021850586 0.18514896929264069 0.15865635871887207 -0.18892212212085724 -0.26017895340919495 0.13119195401668549 0.11835599690675735 0.24819768965244293 -0.24009887874126434 0.007162383757531643 0.16751208901405334 -0.37891685962677 0.1772671341896057 0.36994439363479614 0.2765026390552521 -0.18447068333625793 -0.28859013319015503 0.04869406670331955 -0.10739614069461823 0.2767270803451538 0.010379734449088573 -0.08886614441871643 -0.028284089639782906 -0.18552151322364807 0.3148581385612488 0.16366326808929443 0.07895704358816147 -0.19225500524044037 -0.023496350273489952 -0.14709492027759552 -0.16466037929058075 -0.17378835380077362 0.14080198109149933 -0.038139186799526215 0.05594367906451225 0.09024043381214142 -0.11077091842889786 0.1362544447183609 -0.19422630965709686 -0.25629544258117676 0.10823332518339157 0.31206920742988586 -0.011380194686353207 0.08064496517181396 0.27261269092559814 0.05434887856245041 -0.0975843295454979 -0.1285819113254547 0.25835227966308594 0.06020528823137283 -0.06513059139251709 0.3713890314102173 0.27838751673698425 0.005548490677028894 0.004519989248365164 -0.17496147751808167 0.32028377056121826 0.33761656284332275 -0.017498711124062538 0.058543913066387177 -0.015245093032717705 0.03026617504656315 -0.6070103049278259 -0.12584558129310608 0.1174597516655922 0.3339439630508423 0.22691668570041656 -0.06324709206819534 -0.049674779176712036 -0.19503454864025116 -0.10831336677074432 -0.2625235319137573 -0.26211827993392944 -0.17840361595153809 0.029998499900102615 -0.3377596139907837 0.0946660116314888 -0.11379138380289078 0.23797060549259186 -0.350994735956192 0.29450687766075134 -0.21048498153686523 0.057881105691194534 0.016199059784412384 0.0804302841424942 -0.3195904791355133 -0.01852625049650669 0.1137886494398117 0.6615989208221436 0.14737969636917114 0.023768490180373192 -0.13724562525749207 -0.06320225447416306 0.04482623562216759 0.5677824020385742
Bouchon 0.1481701284646988 0.2916876971721649 -0.41626137495040894 -0.21742987632751465 -0.06402882933616638 0.05953098088502884 -0.07696689665317535 -0.2615032196044922 -0.17356812953948975 0.01348403375595808 0.21900683641433716 0.3692606985569 0.13051338493824005 0.10090406239032745 0.11193059384822845 -0.17543631792068481 -0.23711618781089783 0.33181869983673096 0.10000904649496078 -0.03670467436313629 0.041922613978385925 0.19577789306640625 -0.2905442714691162 -0.027218354865908623 -0.046679239720106125 0.2384248822927475 0.07898372411727905 -0.035453103482723236 0.10583905130624771 0.028203770518302917 -0.08021485060453415 0.03155731037259102 -0.07456348836421967 -0.29732683300971985 0.05472453311085701 0.03982818126678467 -0.18395894765853882 0.28707826137542725 -0.2874999940395355 -0.1399196833372116 -0.07698322087526321 -0.03440447151660919 0.2542431056499481 -0.11118247359991074 0.06612956523895264 -0.39005669951438904 -0.1377062052488327 -0.10367008298635483 -0.07625343650579453 0.07201536744832993 -0.026457898318767548 -0.08369927853345871 0.17082631587982178 -0.005268963519483805 0.19962024688720703 -0.04713808000087738 0.23565064370632172 -0.15255042910575867 0.2657493054866791 -0.16025811433792114 0.21930859982967377 -0.29194003343582153 0.4724855422973633 -0.27093929052352905 0.01706758700311184 -0.33795830607414246 -0.030368506908416748 0.1658593714237213 -0.35198110342025757 0.20819205045700073 -0.09201332181692123 0.3110811114311218 0.4928462505340576 0.20391429960727692 0.4625653624534607 -0.084730364382267 0.0015962409088388085 0.11165624111890793 0.24441199004650116 0.15046362578868866 -0.1785832941532135 0.2761654853820801 0.23622864484786987 0.10877157002687454 -0.20136432349681854 0.13848336040973663 -0.13904961943626404 0.6629169583320618 0.24220894277095795 -0.21511808037757874 -0.14661040902137756 0.3147832155227661 -0.1433376669883728 -0.3368576765060425 0.01800190471112728 -0.14586469531059265 -0.30467119812965393 0.5664923191070557 0.2849567234516144 -0.0267803817987442 -0.06815297156572342 0.35750705003738403 0.3303956687450409 -0.20496584475040436 0.1960475891828537 0.09028825163841248 -0.04897163808345795 0.32027438282966614 0.048649031668901443 -0.42282259464263916 0.3986341655254364 0.01539002638310194 0.2990226745605469 -0.395231157541275 -0.06057582050561905 0.02671830728650093 -0.3595168888568878 0.219944566488266 0.1096423864364624 0.061452705413103104 -0.12641172111034393 -0.01663140207529068 0.12321176379919052 -0.09650056064128876 0.535084068775177 -0.08490467071533203 -0.04473291337490082 -0.05105281248688698 -0.13315525650978088 0.35437488555908203 0.05868374556303024 -0.019559111446142197 -0.12443511933088303 -0.21504415571689606 -0.1285814791917801 -0.07123085111379623 -0.27221670746803284 0.22407129406929016 0.057132359594106674 -0.03375006094574928 -0.06859538704156876 0.1628008931875229 0.40829065442085266 -0.28745877742767334 -0.17040762305259705 0.23126070201396942 0.25139808654785156 0.026884136721491814 0.4717339277267456 0.08779455721378326 0.05974244326353073 0.14011120796203613 -0.15181778371334076 0.21414753794670105 -0.02915564738214016 0.18767118453979492 0.5120410323143005 0.20326580107212067 -0.2667480707168579 -0.12621083855628967 0.1023399829864502 -0.19174380600452423 0.23237118124961853 -0.25743553042411804 -0.06310717761516571 -0.02676551789045334 -0.14512790739536285 -0.46694859862327576 -0.11899342387914658 0.3356332778930664 0.22313427925109863 0.4130840003490448 0.007583508733659983 0.03345185145735741 -0.2703520357608795 -0.10474684089422226 -0.17969293892383575 -0.034097637981176376 -0.01974540948867798 -0.021610641852021217 -0.20866014063358307 0.1185615062713623 -0.17501282691955566 0.16793997585773468 -0.05971955880522728 0.341597318649292 -0.21740469336509705 0.252359002828598 0.029442373663187027 0.03983679041266441 0.03684498369693756 -0.10347890108823776 0.21364739537239075 0.20703838765621185 0.13232608139514923 -0.09228526055812836 0.20896965265274048 -0.009063917212188244 0.20478703081607819 0.4007643461227417
Tea_culture 0.23878686130046844 0.41257965564727783 -0.4095526933670044 -0.42790457606315613 0.1095881462097168 -0.2865663766860962 -0.1600227952003479 -0.6425961256027222 -0.29205411672592163 -0.225460022687912 1.0508675575256348 0.2540501654148102 -0.21975493431091309 -0.12354960292577744 0.27476251125335693 -0.30847617983818054 0.15732698142528534 0.41550692915916443 -0.0591009259223938 -0.1888568252325058 -0.25054338574409485 0.3219199776649475 0.023187149316072464 -0.00387643463909626 0.0852128118276596 0.2623104453086853 0.13273105025291443 -0.018402164801955223 0.2657383978366852 -0.6215800642967224 0.07119712978601456 -0.2438059002161026 0.6750177145004272 0.11080894619226456 -0.12295220047235489 0.46178120374679565 -0.15784770250320435 -0.33700674772262573 -0.564947247505188 0.1253182590007782 0.014540186151862144 -0.15893937647342682 -0.1015406921505928 -0.297992080450058 0.3574589192867279 -0.1503441482782364 -0.5202786326408386 -0.1717982143163681 -0.12302417308092117 -0.05758104845881462 -0.2798037827014923 -0.25399601459503174 0.48862314224243164 -0.2434293031692505 0.5306156873703003 0.10227707028388977 0.39935436844825745 -0.3125632107257843 0.9070751070976257 0.44573238492012024 0.26714828610420227 -0.5553870797157288 0.7344465851783752 0.2547570765018463 0.28976625204086304 -0.05431736260652542 -0.5942702293395996 0.17048504948616028 -0.21885952353477478 0.029698237776756287 -0.15758444368839264 0.37048467993736267 0.9293912053108215 -0.09200502932071686 -0.24689067900180817 0.3628186285495758 0.39432379603385925 -0.17794789373874664 -0.6789672374725342 0.35441023111343384 -0.05599367618560791 -0.09184294939041138 0.45622074604034424 -0.4790978729724884 -0.26309844851493835 0.4763868749141693 -0.561753511428833 1.1476662158966064 -0.03067885711789131 -0.10778919607400894 0.27412205934524536 0.481350839138031 -0.5930103659629822 -0.36128920316696167 0.23149454593658447 0.14923234283924103 -0.23926150798797607 0.3909861147403717 0.4024999737739563 0.1372709572315216 -0.17013122141361237 0.6006750464439392 0.318774551153183 -0.37685874104499817 -0.5723955035209656 0.2848125994205475 0.835713267326355 0.10825633257627487 -0.15322621166706085 -0.36173108220100403 0.04877253249287605 0.3529139459133148 -0.008943810127675533 -0.4988408088684082 0.012532931752502918 0.2088460773229599 -0.7880146503448486 0.1773640215396881 0.8554113507270813 -0.005004636012017727 -0.1593833863735199 -0.5510157346725464 0.20248347520828247 -0.3379379212856293 0.16626353561878204 -0.5663564205169678 -0.3672291338443756 0.13428547978401184 -0.7728669047355652 1.016646146774292 -0.4757018983364105 -0.129158616065979 -0.2176329791545868 -0.18786515295505524 -0.3933200538158417 -0.09095071256160736 -0.2022760510444641 0.06185990199446678 0.25607457756996155 0.12171410024166107 0.6714107990264893 0.4718472361564636 0.2234928160905838 -0.24802888929843903 -0.3729531466960907 0.056555841118097305 0.3074345886707306 0.15046507120132446 0.015857843682169914 0.6419544219970703 0.04433499649167061 0.08927396684885025 0.1488981992006302 0.236421138048172 0.3970315754413605 0.003703134600073099 0.47598376870155334 0.5500390529632568 -0.09529820829629898 -0.07395387440919876 -0.37815767526626587 0.4748590588569641 0.4713769257068634 0.18498866260051727 0.01106077991425991 -0.9036923050880432 -0.20499780774116516 -0.8168663382530212 -0.3270367383956909 0.025594403967261314 0.9064884781837463 0.14520418643951416 -0.6980616450309753 0.036812618374824524 0.01629132777452469 0.35717135667800903 -0.24563951790332794 -0.38250067830085754 0.13971078395843506 0.5701334476470947 0.14361482858657837 0.23194138705730438 -0.7945320010185242 0.15256191790103912 0.07595594972372055 0.2141936719417572 -0.41882890462875366 0.12719927728176117 0.17136821150779724 -0.08385224640369415 -0.691190779209137 0.04864664748311043 0.07696990668773651 0.19778338074684143 0.2309257686138153 0.2075892686843872 -0.08410609513521194 -0.25799137353897095 -0.08028911799192429 0.23788969218730927
Ancient_Egyptian_cuisine 0.28817275166511536 0.1954503357410431 -0.3994888663291931 -0.4907977283000946 0.3221883475780487 0.014890018850564957 -0.038824379444122314 -0.026565855368971825 0.308164119720459 0.21229805052280426 0.27192917466163635 0.1878216415643692 -0.10233734548091888 0.12923288345336914 0.10391485691070557 -0.1821592003107071 -0.1827968806028366 0.10749039053916931 -0.27833986282348633 0.2940055727958679 -0.0703967735171318 0.5332995653152466 -0.059692252427339554 -0.21380291879177094 -0.43802475929260254 0.38170936703681946 0.10174254328012466 -0.09899506717920303 -0.2654365599155426 -0.16100478172302246 -0.02878194861114025 0.13039425015449524 -0.7681525349617004 -0.4102161228656769 -0.09920139610767365 -0.03799242526292801 -0.028391411527991295 -0.47692805528640747 -0.28168994188308716 0.29215094447135925 0.27822941541671753 0.2018055021762848 0.20318828523159027 0.054638102650642395 0.11674370616674423 -0.49375417828559875 0.0934668481349945 0.275993674993515 -0.09116248041391373 0.16006290912628174 0.01654239557683468 -0.2491426318883896 -0.08810007572174072 0.012078212574124336 0.16192777454853058 -0.20601077377796173 -0.021618960425257683 -0.26112017035484314 0.4292054772377014 0.13530074059963226 0.19770629703998566 -0.6137982606887817 0.5934155583381653 -0.40375927090644836 0.09428761899471283 -0.18836776912212372 -0.3694864809513092 0.10668683052062988 -0.5647210478782654 0.4621947705745697 -0.012035115621984005 0.1590351164340973 0.7726622223854065 0.19316042959690094 0.19600526988506317 0.20948804914951324 -0.13582831621170044 0.06235720217227936 0.21690331399440765 0.17052637040615082 -0.11068259179592133 0.25947993993759155 -0.06114491820335388 -0.3448897898197174 -0.31895384192466736 -0.055471789091825485 0.056378208100795746 0.8718129992485046 -0.019900642335414886 -0.41446730494499207 -0.20596419274806976 0.1849636733531952 -0.42834770679473877 -0.10373411327600479 0.16632576286792755 0.033039335161447525 -0.7617876529693604 0.27504831552505493 -0.04641198366880417 0.09439308196306229 0.04596823453903198 0.35483500361442566 -0.14727717638015747 -0.6682586669921875 -0.0973266139626503 0.23941555619239807 0.2180546224117279 0.41442522406578064 0.03406427055597305 -0.38209888339042664 0.19548948109149933 0.0015370312612503767 0.5485510230064392 -0.4211660921573639 0.22280310094356537 0.3842504620552063 -0.5189968347549438 0.2968096435070038 0.4189956784248352 0.20816364884376526 -0.12347481399774551 0.006873513571918011 0.07691245526075363 -0.07933022826910019 0.4551241993904114 -0.1706530600786209 -0.17063771188259125 -0.08721910417079926 -0.057788074016571045 0.511958658695221 0.2257712036371231 -0.028996694833040237 -0.2370162308216095 0.14096499979496002 -0.374510258436203 -0.15505339205265045 -0.6020475625991821 0.28860610723495483 0.24326591193675995 0.1041540801525116 0.07083676755428314 -0.11951588839292526 0.6274138689041138 -0.4264775514602661 -0.6553083062171936 0.37894463539123535 0.501776397228241 0.07213400304317474 0.510883092880249 0.25659799575805664 -0.009409734047949314 0.1606288105249405 0.010389195755124092 0.13097122311592102 -0.17801351845264435 0.07086098194122314 0.6207653284072876 0.6730284690856934 -0.33453503251075745 0.16938136518001556 -8.935845835367218e-05 0.2599962055683136 0.445783406496048 -0.11213067919015884 0.28323665261268616 -0.5864017009735107 -0.2512947916984558 -0.7976996302604675 -0.15822243690490723 0.24506446719169617 0.4985898733139038 0.6071592569351196 -0.025540592148900032 -0.008749806322157383 -0.04103910177946091 -0.017611194401979446 -0.22427310049533844 -0.46709880232810974 -0.39292746782302856 0.044851504266262054 -0.2831569015979767 0.15724575519561768 -0.4184381365776062 0.6150226593017578 -0.33178022503852844 0.2533499300479889 0.018104156479239464 0.0713515356183052 0.38491153717041016 0.15110203623771667 -0.31043416261672974 -0.4039826989173889 0.15160681307315826 0.479552298784256 0.5611060261726379 -0.45736438035964966 0.11911453306674957 -0.07806441932916641 -0.0700019896030426 0.20668290555477142
Vegetarian_cuisine 0.31783100962638855 0.29685431718826294 -0.5181629657745361 -0.1892717033624649 0.12396572530269623 0.12434627115726471 0.11483026295900345 -0.5037362575531006 0.07506333291530609 -0.0655139908194542 0.49695634841918945 0.7966581583023071 -0.2516881823539734 0.20820625126361847 0.4268187880516052 -0.5749648213386536 -0.19056710600852966 0.34409281611442566 -0.25079798698425293 -0.09690453112125397 -0.29810768365859985 -0.09682867676019669 -0.11741095036268234 -0.4214485287666321 0.2614041864871979 0.7567200064659119 -0.006632080767303705 0.08161547780036926 -0.03478150814771652 0.008848658762872219 -0.28922519087791443 -0.35509055852890015 -0.25668349862098694 -0.18720856308937073 0.11662570387125015 0.09290691465139389 -0.3956051766872406 -0.5387920141220093 -0.40949198603630066 -0.14176177978515625 -0.18338045477867126 -0.125149667263031 0.05507291108369827 0.2674584984779358 0.505104124546051 0.02021903730928898 -0.05767033249139786 0.1720113754272461 -0.15559741854667664 0.05171143636107445 -0.03304597735404968 0.058618709444999695 0.37643685936927795 -0.20826862752437592 -0.1597875952720642 -0.36460015177726746 0.24968314170837402 -0.20729193091392517 0.6288740634918213 -0.5697602033615112 0.40595656633377075 -0.725230872631073 0.3134121596813202 -0.49753260612487793 -0.2543392777442932 0.07117609679698944 -0.25284910202026367 0.3463861644268036 -0.3932635486125946 0.29601168632507324 -0.4913504123687744 0.14567796885967255 0.9272984862327576 0.03803456574678421 0.2450992614030838 -0.25698620080947876 -0.0420604832470417 -0.41580623388290405 -0.05042417347431183 0.22571472823619843 -0.6369947195053101 0.2574557960033417 0.07660584151744843 -0.10444539040327072 -0.5630939602851868 0.1497766524553299 -0.6829404830932617 0.7007578611373901 -0.16703420877456665 -0.11297629028558731 -0.2871952950954437 0.34899789094924927 0.002503781346604228 -0.16924913227558136 -0.14827758073806763 0.15008141100406647 -0.6101987361907959 0.5836982131004333 0.21171893179416656 0.16824714839458466 -0.4193875789642334 0.3080873489379883 0.14724001288414001 -0.44017693400382996 -0.12073536962270737 -0.310075968503952 0.31229040026664734 0.5548098683357239 0.17043769359588623 -0.30827391147613525 0.5819710493087769 0.1709996461868286 0.23987917602062225 -0.32690468430519104 0.10804345458745956 0.3939806818962097 -0.4021261930465698 0.39487573504447937 0.08426533639431 0.19942937791347504 0.15965433418750763 -0.11252173036336899 0.48465704917907715 -0.4893784523010254 0.6244623064994812 -0.029278991743922234 -0.34526851773262024 0.07937043905258179 -0.42195799946784973 0.6732773184776306 0.23882482945919037 -0.28090283274650574 0.0651337280869484 0.05131549760699272 -0.5043459534645081 -0.31211549043655396 -0.40189775824546814 -0.23466263711452484 0.10103979706764221 -0.056769222021102905 0.024803590029478073 0.3196995258331299 0.289506733417511 -0.24518877267837524 -0.5223280191421509 0.1726509928703308 0.4335668385028839 -0.16431117057800293 0.3654840886592865 0.3776378035545349 0.370129257440567 -0.2300553023815155 -0.29599565267562866 0.4617583751678467 0.3089032471179962 0.42240849137306213 1.0255639553070068 0.40166276693344116 -0.1295664757490158 -0.13747765123844147 -0.13087627291679382 0.23270773887634277 0.5160952806472778 0.059006016701459885 -0.18670779466629028 -0.3205340504646301 -0.19283029437065125 -0.7872499823570251 -0.4240870177745819 0.2019975334405899 0.5391718745231628 0.632692277431488 0.2377074807882309 -0.5015113353729248 -0.5438544750213623 0.22259360551834106 -0.20790603756904602 -0.38141605257987976 -0.1388036012649536 0.2340254932641983 -0.1562446653842926 0.17648954689502716 -0.49001070857048035 0.906534731388092 -0.2606913447380066 0.4466368556022644 -0.49343299865722656 0.07876425981521606 0.1875063180923462 0.2287878543138504 -0.24758855998516083 0.0876784548163414 0.1256980448961258 0.6466942429542542 0.25008147954940796 -0.11446461826562881 -0.24260175228118896 -0.03853956609964371 0.39847084879875183 0.5886568427085876
Levantine_cuisine 0.16995351016521454 -0.20405350625514984 -0.12971119582653046 -0.359250545501709 0.16476233303546906 0.15516100823879242 -0.07903939485549927 -0.04307396337389946 -0.20117811858654022 0.3387254774570465 0.2406473308801651 0.4085901379585266 -0.15348343551158905 0.2687632143497467 0.3178931176662445 -0.39290881156921387 -0.06402064859867096 0.200666144490242 -0.052648380398750305 0.15424221754074097 -0.347598671913147 0.2950623333454132 0.07568632811307907 -0.35863086581230164 -0.06674769520759583 0.37409478425979614 0.07838062196969986 -0.09374866634607315 -0.09786955267190933 -0.017189575359225273 -0.06278837472200394 0.09202858060598373 -0.45463424921035767 -0.20318110287189484 -0.09702702611684799 0.1328132003545761 -0.04193524643778801 -0.3228982388973236 -0.17288275063037872 -0.0520331896841526 0.03203580155968666 -0.1319049894809723 0.28326502442359924 0.4561980962753296 0.1208624318242073 -0.4737234115600586 0.23269186913967133 0.23865988850593567 0.06111327186226845 0.03798218071460724 -0.24394723773002625 -0.14915244281291962 0.10485421121120453 0.29815155267715454 0.17093253135681152 -0.15329355001449585 0.36645686626434326 0.07216230779886246 0.2957383990287781 -0.12152420729398727 0.30865412950515747 -0.4983595311641693 0.3538360893726349 -0.13721930980682373 -0.11919105052947998 -0.3769795894622803 -0.36072418093681335 0.3532385528087616 -0.11384794116020203 0.08436235040426254 -0.43185824155807495 0.07423058897256851 0.8448171615600586 0.10503536462783813 0.4390062391757965 0.24115853011608124 0.008704646490514278 0.04040282964706421 0.1468917280435562 0.22925075888633728 -0.18152014911174774 0.10103809833526611 -0.14702367782592773 0.05271850898861885 -0.9376739859580994 -0.2633870244026184 -0.4832407534122467 0.6314507722854614 0.2972271740436554 -0.023599134758114815 -0.1504146009683609 0.15827655792236328 -0.1812240332365036 0.14657911658287048 0.10198094695806503 0.20243865251541138 -0.508019745349884 0.5670792460441589 0.17646263539791107 -0.08114190399646759 -0.25939303636550903 0.5324723720550537 0.3988482654094696 -0.16290557384490967 -0.13330283761024475 -0.1971588283777237 0.3018777072429657 0.3764510154724121 -0.05380233749747276 -0.21711668372154236 0.4128478169441223 0.0715598613023758 -0.015142041258513927 -0.2224377989768982 0.13389012217521667 0.03849463164806366 -0.41523876786231995 0.31792643666267395 0.9538766145706177 0.11171885579824448 0.034933220595121384 0.19165240228176117 -0.03333669528365135 -0.46823355555534363 0.36723440885543823 -0.0010181106626987457 0.09383388608694077 0.06789960712194443 -0.12892013788223267 0.20930615067481995 0.2732670307159424 -0.21941633522510529 -0.12707392871379852 -0.03175022825598717 -0.022483540698885918 -0.19623158872127533 -0.33994537591934204 0.44587042927742004 0.10605841130018234 0.19338373839855194 0.20700863003730774 0.011730808764696121 0.3400258719921112 -0.21011567115783691 -0.47445499897003174 0.21428656578063965 0.5430738925933838 0.5303562879562378 0.5556920766830444 0.4416552186012268 0.1696481704711914 -0.05624568089842796 0.3071804642677307 0.2537086308002472 -0.047804251313209534 0.4485847055912018 0.4818449318408966 0.535216212272644 -0.23537477850914001 0.15905171632766724 0.1251985728740692 0.2962487041950226 0.3656512498855591 0.12618471682071686 0.06260647624731064 -0.13921058177947998 -0.37922847270965576 -0.4385286569595337 -0.1805269569158554 0.10819587856531143 0.33406534790992737 0.3472875654697418 0.360164999961853 -0.36580508947372437 0.12413889169692993 0.20407260954380035 -0.2077682614326477 -0.09303759783506393 0.02182030864059925 -0.05091661959886551 -0.04507196322083473 0.2517523467540741 -0.4101574420928955 0.5011648535728455 -0.24036739766597748 0.25743579864501953 -0.11787564307451248 0.325885534286499 0.37313517928123474 0.07892152667045593 0.004608383402228355 -0.07611073553562164 -0.09056124091148376 0.36729609966278076 0.531171441078186 -0.17601124942302704 -0.10609785467386246 -0.09823165088891983 0.01674794964492321 0.3181936740875244
Seafood 0.03393801301717758 0.18019720911979675 -0.9957371950149536 0.3689526319503784 0.03486262634396553 0.4469718635082245 -1.051059603691101 -0.7163707613945007 0.5795381665229797 -0.5914052128791809 0.15717947483062744 1.0989435911178589 -1.3413703441619873 -0.31852108240127563 -0.12252634763717651 -1.2255545854568481 -0.354632169008255 1.0156590938568115 0.1625308394432068 -0.314967542886734 -0.930062472820282 0.16066883504390717 0.7694913148880005 -0.6806656122207642 -0.0563257671892643 0.3390047550201416 0.30795395374298096 0.04550160467624664 -0.570554256439209 -0.3116905391216278 -1.2015247344970703 -0.5714944005012512 -0.7252878546714783 -0.17770642042160034 0.23256853222846985 0.40253564715385437 -0.9396439790725708 -0.21498507261276245 -0.2863219678401947 0.17136351764202118 -0.40879660844802856 0.39903098344802856 0.37776872515678406 0.24683935940265656 -0.015098215080797672 -0.15352657437324524 0.7952774167060852 0.4895673096179962 -0.25288280844688416 -0.4302625060081482 0.3498840034008026 0.431397408246994 0.40069568157196045 0.3141055405139923 -0.18637032806873322 0.5293839573860168 -0.17884205281734467 -0.7247914671897888 1.089988350868225 0.056093353778123856 0.5037501454353333 -0.6398533582687378 0.4345260560512543 -0.1916741281747818 -0.3335947096347809 0.4414665102958679 -0.2488664984703064 0.7972293496131897 -0.29085710644721985 1.0008459091186523 -0.2873298227787018 0.5996578335762024 1.3580386638641357 0.30264872312545776 0.2176627367734909 0.09570669382810593 0.7514531016349792 -0.3793858289718628 -0.6846190094947815 0.17344200611114502 -0.4943271279335022 0.3648073375225067 0.25545310974121094 0.13770557940006256 -0.8342156410217285 -0.2760906517505646 0.40138673782348633 1.239105463027954 0.6849616169929504 -0.2537378966808319 -0.19766537845134735 0.8480259776115417 0.11975502222776413 -1.0494025945663452 0.12762928009033203 0.5495815277099609 0.13754095137119293 0.149372860789299 1.0228992700576782 0.1407690942287445 -0.333094984292984 0.7516570091247559 0.3087851405143738 -0.592898964881897 0.1479024589061737 -0.005708012729883194 0.13553495705127716 0.37385866045951843 -0.4710749387741089 -0.5951861143112183 1.1291053295135498 0.8130058646202087 0.06790988147258759 -0.29391080141067505 -0.06411159038543701 1.178818702697754 -0.5726941227912903 0.8046636581420898 1.0685678720474243 -0.7612027525901794 -0.41422006487846375 0.6093319058418274 0.6272273063659668 -0.30394241213798523 0.27152958512306213 -0.46137356758117676 -0.4889504909515381 0.05560789257287979 -0.5050176382064819 0.5809435248374939 0.007669421378523111 0.5215633511543274 0.14570213854312897 -0.9243150949478149 -0.29481008648872375 -0.17762871086597443 -0.951170802116394 0.23870247602462769 -0.3719879686832428 -0.100780189037323 -0.331529438495636 0.8314568400382996 0.8356761336326599 -1.355544090270996 -1.2548465728759766 -0.6345744729042053 0.21559156477451324 0.9244449734687805 -0.0557377003133297 0.14610418677330017 0.5845348834991455 0.7022971510887146 0.033168401569128036 0.4328169822692871 -0.3235986828804016 0.20569029450416565 1.4223558902740479 0.897125780582428 -0.1274556815624237 0.1438152939081192 -0.44166624546051025 0.4584910273551941 0.7978294491767883 -0.6033209562301636 -0.7802517414093018 -1.1410599946975708 -0.274969220161438 -0.48034214973449707 -0.23834167420864105 0.4486629366874695 0.5243912935256958 1.279808521270752 0.5932965874671936 -0.8754192590713501 -0.7399036288261414 -0.16470804810523987 0.015751052647829056 -0.2834925949573517 0.23052285611629486 -0.11773090064525604 0.18375812470912933 0.13490846753120422 -0.24680596590042114 0.4385510981082916 -0.04718444496393204 1.0179048776626587 -0.6324514746665955 0.03188573941588402 0.0853380337357521 0.272177517414093 -0.062043897807598114 -0.3713601529598236 0.4749305844306946 0.43021348118782043 0.31661614775657654 -0.35690319538116455 -0.051800232380628586 -0.6496847867965698 0.35717320442199707 0.24052147567272186
Aztec_cuisine 0.41344591975212097 0.2252616584300995 -0.30407649278640747 -0.3083166778087616 0.20358341932296753 0.18018575012683868 0.06093524396419525 0.09673149138689041 0.11840555816888809 0.07123709470033646 0.05036470293998718 0.4094952344894409 -0.1456725150346756 0.16324341297149658 0.03816373273730278 -0.42486077547073364 -0.16422782838344574 -0.01278973650187254 -0.013062278740108013 0.005727782845497131 -0.32848140597343445 0.28522154688835144 -0.10233170539140701 -0.049650888890028 -0.18558591604232788 0.1519637256860733 -0.13133279979228973 -0.055013418197631836 -0.2785761058330536 0.05051100254058838 0.32719260454177856 0.05529321730136871 -0.3119988739490509 -0.5222629904747009 -0.04058295115828514 0.0593450702726841 -0.03067394532263279 -0.4229397177696228 -0.009137340821325779 -0.09536781162023544 0.004712274763733149 -0.14215600490570068 0.17096172273159027 -0.024215377867221832 -0.031468018889427185 -0.4235139489173889 -0.05827600881457329 0.18821482360363007 -0.15600420534610748 0.24004243314266205 -0.06897327303886414 -0.0003619843628257513 0.4573734998703003 -0.21368449926376343 0.03440080210566521 -0.053981978446245193 0.18972425162792206 -0.389428973197937 0.3659179210662842 -0.2383691370487213 0.5120401382446289 -0.40527576208114624 0.37952256202697754 -0.15141642093658447 0.09245066344738007 -0.2948768734931946 -0.31015369296073914 -0.07483590394258499 -0.538390040397644 0.2597574293613434 -0.23601432144641876 0.2612069249153137 0.3802807331085205 0.16544109582901 0.21200761198997498 0.19182875752449036 -0.5004323720932007 -0.16646170616149902 0.08285187929868698 0.2510145604610443 -0.3648594319820404 -0.13259685039520264 0.011494497768580914 -0.3658050298690796 -0.2836768925189972 0.2597077190876007 -0.210561603307724 0.45722696185112 0.14802969992160797 -0.053142402321100235 -0.1257832944393158 0.2921132743358612 -0.3111220598220825 -0.021120784804224968 0.09173671901226044 -0.0915672779083252 -0.6074930429458618 0.24699987471103668 0.23526382446289062 -0.08318118751049042 -0.03618188947439194 0.004788460209965706 -0.007338599767535925 -0.43794265389442444 -0.0611882284283638 0.0926833227276802 -0.09954331815242767 0.2817622125148773 0.08179479837417603 -0.19257761538028717 0.023387562483549118 0.01357099786400795 0.4365615248680115 -0.28885334730148315 -0.08010617643594742 0.3672729432582855 -0.19348734617233276 0.3111983835697174 0.5687531232833862 0.0497429296374321 -0.13002125918865204 0.07393985986709595 0.0007812115363776684 -0.4906527101993561 0.3694317638874054 -0.1288743019104004 -0.16960680484771729 -0.2538135349750519 0.01857549510896206 0.6289923787117004 -0.16926132142543793 -0.10410565137863159 -0.00081801344640553 0.08977875113487244 -0.075769804418087 -0.019153593108057976 -0.35957634449005127 0.045224424451589584 0.4795322120189667 0.099129319190979 -0.35994866490364075 0.23851977288722992 0.2294354885816574 -0.06454058736562729 -0.37763410806655884 0.4342142641544342 0.28729939460754395 0.055532779544591904 0.37398985028266907 0.4501420557498932 0.5959611535072327 -0.09593398123979568 -0.18173938989639282 0.47485387325286865 0.18614766001701355 0.2267514318227768 0.5502892732620239 0.264690637588501 0.15884196758270264 -0.11535307765007019 -0.26800405979156494 0.19701261818408966 0.33403757214546204 0.019560564309358597 -0.003431141609326005 -0.21810059249401093 -0.26088446378707886 -0.5512316226959229 -0.3336392045021057 0.13988995552062988 0.39380934834480286 0.5361540913581848 0.0686192661523819 -0.2522449195384979 -0.5756404399871826 -0.23784324526786804 0.009463382884860039 -0.49540528655052185 -0.05725855752825737 0.006529209204018116 -0.32880929112434387 0.21922197937965393 -0.13012367486953735 0.6272314190864563 -0.4453534185886383 0.17179469764232635 -0.220265194773674 0.07239732891321182 0.3212854266166687 -0.2322518229484558 -0.11407648026943207 -0.15468837320804596 0.282444566488266 0.46857506036758423 0.20857204496860504 0.11661528050899506 0.264942467212677 -0.18768656253814697 -0.12136891484260559 0.46961072087287903
Creole_cuisine 0.0 0.0 0.0 0.0 0.0 0.0 0.0 0.0 0.0 0.0 0.0 0.0 0.0 0.0 0.0 0.0 0.0 0.0 0.0 0.0 0.0 0.0 0.0 0.0 0.0 0.0 0.0 0.0 0.0 0.0 0.0 0.0 0.0 0.0 0.0 0.0 0.0 0.0 0.0 0.0 0.0 0.0 0.0 0.0 0.0 0.0 0.0 0.0 0.0 0.0 0.0 0.0 0.0 0.0 0.0 0.0 0.0 0.0 0.0 0.0 0.0 0.0 0.0 0.0 0.0 0.0 0.0 0.0 0.0 0.0 0.0 0.0 0.0 0.0 0.0 0.0 0.0 0.0 0.0 0.0 0.0 0.0 0.0 0.0 0.0 0.0 0.0 0.0 0.0 0.0 0.0 0.0 0.0 0.0 0.0 0.0 0.0 0.0 0.0 0.0 0.0 0.0 0.0 0.0 0.0 0.0 0.0 0.0 0.0 0.0 0.0 0.0 0.0 0.0 0.0 0.0 0.0 0.0 0.0 0.0 0.0 0.0 0.0 0.0 0.0 0.0 0.0 0.0 0.0 0.0 0.0 0.0 0.0 0.0 0.0 0.0 0.0 0.0 0.0 0.0 0.0 0.0 0.0 0.0 0.0 0.0 0.0 0.0 0.0 0.0 0.0 0.0 0.0 0.0 0.0 0.0 0.0 0.0 0.0 0.0 0.0 0.0 0.0 0.0 0.0 0.0 0.0 0.0 0.0 0.0 0.0 0.0 0.0 0.0 0.0 0.0 0.0 0.0 0.0 0.0 0.0 0.0 0.0 0.0 0.0 0.0 0.0 0.0 0.0 0.0 0.0 0.0 0.0 0.0 0.0 0.0 0.0 0.0 0.0 0.0
Roman_cuisine 0.25134897232055664 0.01699860394001007 -0.19153614342212677 -0.011855262331664562 0.14031706750392914 0.00934678502380848 0.06764494627714157 -0.24119581282138824 0.16320756077766418 0.04123282805085182 0.2529921531677246 0.3926374912261963 -0.01851409114897251 -0.11559908092021942 0.06343714892864227 -0.5948148369789124 -0.3850554823875427 0.45383787155151367 -0.047638725489377975 -0.11416342854499817 0.16394869983196259 -0.03927907720208168 -0.065721295773983 0.21037475764751434 0.011434457264840603 0.2909408509731293 0.3344508409500122 -0.07397596538066864 0.15854309499263763 -0.028176741674542427 0.03058648854494095 -0.031053118407726288 -0.07466951012611389 -0.3277862071990967 -0.09200911968946457 -0.1946198046207428 0.10134770721197128 -0.07166912406682968 -0.3117644488811493 -0.2388378232717514 -0.17367979884147644 -0.12116685509681702 0.31722620129585266 0.15590254962444305 0.09695038199424744 -0.4645335376262665 -0.03502485901117325 -0.18305110931396484 -0.18323247134685516 0.03810643404722214 0.1253565549850464 0.09798000007867813 0.11346562951803207 0.03736048936843872 0.23742251098155975 0.0017913992051035166 0.2265906184911728 -0.008935931138694286 0.2703692317008972 -0.38988813757896423 0.24001240730285645 -0.5550344586372375 0.4433814287185669 0.09550508111715317 0.26554372906684875 -0.24571049213409424 -0.37755197286605835 -0.11552482843399048 -0.11164114624261856 0.260263055562973 -0.16856049001216888 0.17984820902347565 0.6197052597999573 0.18128247559070587 0.27077245712280273 -0.14563989639282227 -0.065545953810215 -0.06262330710887909 0.05957411602139473 0.14538998901844025 -0.19361786544322968 0.3318616449832916 -0.019099611788988113 -0.0477936826646328 -0.30561792850494385 0.10319147258996964 -0.4100591540336609 0.435985803604126 0.2748241722583771 -0.19528672099113464 -0.2979969382286072 0.2454698234796524 -0.46523377299308777 -0.18877336382865906 -0.001604359014891088 -0.06562606245279312 -0.5725381970405579 0.5317061543464661 0.5428797006607056 0.07796160876750946 0.014869372360408306 0.6401183605194092 0.30906158685684204 -0.2509714663028717 -0.11277332901954651 0.25005459785461426 0.08030686527490616 0.17670941352844238 -0.08684422075748444 -0.2762041389942169 0.6003844141960144 0.22248458862304688 0.4550516903400421 -0.31144753098487854 0.07380186021327972 0.13062486052513123 -0.22925682365894318 0.4176430106163025 0.3898635506629944 0.405517041683197 0.10051696747541428 0.20914970338344574 0.21251101791858673 -0.28894463181495667 0.5701376795768738 -0.13126812875270844 0.025597546249628067 -0.026577632874250412 -0.07424406707286835 0.7186798453330994 0.24851514399051666 -0.17107044160366058 -0.11688558757305145 0.031154373660683632 0.03609614819288254 -0.3151031732559204 -0.4351983964443207 0.21649299561977386 0.13473565876483917 0.10850580036640167 0.12997432053089142 0.36252617835998535 0.2937457859516144 -0.13697439432144165 -0.4715487062931061 0.27725791931152344 0.4871135950088501 0.024353716522455215 0.3407401740550995 0.2970012426376343 -0.13769347965717316 0.2404000163078308 -0.1055804044008255 0.3940078914165497 -0.09264121204614639 0.3726569414138794 0.5104128122329712 0.4266669452190399 -0.16764222085475922 -0.04213578626513481 -0.13354505598545074 0.25476643443107605 0.27830031514167786 -0.3033691346645355 0.10459695011377335 -0.1364249885082245 -0.5221834778785706 -0.24970032274723053 -0.15279576182365417 0.11785390228033066 0.06948956102132797 0.46925148367881775 0.21123704314231873 -0.23857393860816956 -0.11030001938343048 -0.0012275418266654015 -0.09163284301757812 0.11569054424762726 -0.12861962616443634 0.004829901736229658 -0.03896164521574974 0.1648074984550476 -0.3010523021221161 0.15217667818069458 -0.25278741121292114 0.38953641057014465 -0.2592153549194336 0.14913396537303925 0.004531123209744692 -0.0902257114648819 -0.0728708878159523 -0.12315532565116882 0.3751218318939209 0.34368833899497986 0.2939404845237732 0.010049726814031601 0.06940213590860367 -0.09116501361131668 0.23603761196136475 0.14145402610301971
Makki_di_roti -0.017889264971017838 0.1890043467283249 -0.3798561990261078 -0.5018720626831055 0.1537254899740219 0.5456560850143433 -0.21187196671962738 -0.5861194729804993 0.6329572200775146 0.14579051733016968 0.2744407057762146 0.14622575044631958 -0.5060299634933472 0.19109220802783966 0.07900503277778625 -0.9367855787277222 -0.3579382002353668 0.16329054534435272 -0.004879273008555174 -0.2089611440896988 -0.3811474144458771 0.5326269268989563 -0.34422698616981506 -0.15347832441329956 -0.1758413463830948 -0.03436335548758507 -0.5201804637908936 -0.399129718542099 -0.2828907370567322 0.16754038631916046 0.39035025238990784 0.20707811415195465 -0.5172532200813293 -0.0365925207734108 0.20967397093772888 0.049548037350177765 0.37402331829071045 -0.6186734437942505 -0.11228318512439728 -0.4647779166698456 -0.10812517255544662 -0.1047227755188942 0.3206418752670288 0.10049675405025482 -0.11228448897600174 -0.33960607647895813 0.4593430161476135 0.30285513401031494 -0.1568787544965744 -0.2513108551502228 -0.24064010381698608 -0.2203143835067749 0.3166744112968445 -0.004726574756205082 0.5869230628013611 -0.05264478549361229 0.5403591990470886 0.027711542323231697 0.5349512696266174 -0.17052298784255981 0.500038206577301 -0.0275601614266634 0.4130595028400421 -0.22404196858406067 0.397591769695282 -0.5985586047172546 -0.5739121437072754 0.4675101637840271 -0.74506014585495 0.33106157183647156 -0.2887231409549713 0.34148550033569336 0.8742235898971558 0.207890585064888 0.34611546993255615 0.21035274863243103 0.1377715915441513 -0.11417177319526672 -0.2309916913509369 0.20931921899318695 -0.4474470019340515 0.06377729773521423 0.04560888186097145 -0.21075554192066193 -0.33732882142066956 0.2368314266204834 -0.3532603681087494 0.41168925166130066 0.4627969264984131 -0.15701264142990112 0.2795715630054474 0.13841310143470764 -0.3635607063770294 -0.024781009182333946 -0.1886017918586731 0.06877008825540543 -0.5685941576957703 0.23409785330295563 0.17663617432117462 0.26778432726860046 -0.06574910134077072 0.6734979748725891 0.10677959024906158 -0.4480295777320862 -0.2681206166744232 0.316609263420105 0.19954539835453033 0.25437289476394653 -0.013280095532536507 -0.059743963181972504 0.1409481018781662 -0.0021606062073260546 0.6092175245285034 -0.18332751095294952 -0.014948379248380661 0.21348315477371216 -0.7721318006515503 0.2455664873123169 0.7332040071487427 0.5092662572860718 -0.2969076335430145 -0.5113674998283386 0.01928568445146084 -0.1480265110731125 0.21227525174617767 0.08637917041778564 0.28114578127861023 -0.142063170671463 -0.7290245890617371 0.6623354554176331 0.04182911664247513 -0.14918166399002075 0.017224445939064026 -0.12609830498695374 -0.1577942669391632 -0.6462463140487671 -0.6403892040252686 0.0920199528336525 0.4806082546710968 0.5042517781257629 0.42868733406066895 -0.22901701927185059 0.5222095251083374 -0.1050206646323204 -0.7472646236419678 0.1535794883966446 0.40722131729125977 -0.04783708602190018 0.09241871535778046 0.3477807343006134 0.18446974456310272 0.35806697607040405 -0.25159597396850586 0.30590638518333435 0.2730608880519867 -0.030995428562164307 0.8650090098381042 0.5185427665710449 -0.20372208952903748 -0.11726897209882736 -0.09222334623336792 0.075049489736557 0.618341326713562 -0.1139882504940033 -0.28869467973709106 -0.1630885899066925 -0.06649687141180038 -0.9536452293395996 -0.1976456493139267 0.3426191806793213 0.3829702138900757 0.4577751159667969 0.036631062626838684 -0.2616119384765625 -0.21115000545978546 -0.18128634989261627 -0.24621012806892395 -0.5356181263923645 -0.627579391002655 0.2599914073944092 -0.1949051171541214 0.31046637892723083 -0.1942770928144455 0.48534920811653137 -0.1956617385149002 0.666919469833374 -0.6488860845565796 0.019897550344467163 -0.07248858362436295 -0.08120107650756836 -0.5666675567626953 0.01733994297683239 0.1116398349404335 0.5393561124801636 0.4754652976989746 0.11607012897729874 0.2846936881542206 0.0013999328948557377 0.3559395372867584 0.8167856335639954
European_cuisine 0.0919555276632309 0.284318208694458 -0.6154689788818359 -0.21417053043842316 -0.13546258211135864 0.3398261070251465 -0.2574315369129181 -0.7023328542709351 -0.36047104001045227 -0.3202177584171295 0.24617743492126465 0.3598036766052246 -0.395891934633255 0.3374873697757721 0.23571906983852386 -0.8123742938041687 -0.3417525589466095 0.5290613174438477 -0.0819501206278801 -0.30838271975517273 -0.4606887698173523 -0.13276654481887817 -0.20798684656620026 -0.09675638377666473 0.1208144798874855 0.554838240146637 0.22910481691360474 0.06298176944255829 0.058697618544101715 -0.20679506659507751 -0.08378823101520538 -0.15328055620193481 -0.3096085786819458 -0.4601074159145355 0.08760286122560501 0.15443982183933258 -0.09670274704694748 0.09302262961864471 -0.8521668314933777 -0.4414668381214142 -0.4362226128578186 -0.019140372052788734 0.5595555305480957 0.12263545393943787 0.303860068321228 -0.24217909574508667 0.11333215981721878 -0.01914055459201336 0.0472436361014843 0.01726323552429676 -0.0313311368227005 0.09790342301130295 0.4316791892051697 0.023806976154446602 -0.0072599370032548904 0.15347546339035034 0.26171839237213135 -0.39672935009002686 0.8595321774482727 -0.02064620889723301 0.45545443892478943 -0.3221399188041687 0.4778481125831604 -0.38398969173431396 -0.13370396196842194 -0.417754590511322 -0.31034237146377563 0.3920101523399353 -0.3718743324279785 0.35868769884109497 -0.34268587827682495 0.0028626187704503536 0.7925731539726257 0.002667873864993453 0.15289029479026794 0.25239098072052 -0.031166009604930878 0.04662451520562172 0.17291362583637238 0.1297718733549118 -0.15735109150409698 0.785416841506958 0.1713283360004425 -0.3772721290588379 -0.763794481754303 0.3385455012321472 -0.6659666299819946 0.6108343601226807 0.1304911971092224 -0.32907959818840027 0.12976905703544617 0.0846194252371788 0.03952031582593918 -0.4052436053752899 -0.1345871239900589 -0.3163287937641144 -0.33817288279533386 0.9532884955406189 0.4834221601486206 -0.219477578997612 -0.5123406648635864 0.5449289679527283 0.12944595515727997 -0.4465242624282837 0.14121781289577484 0.20813921093940735 0.3796193301677704 0.34487465023994446 -0.48271867632865906 -0.3468034267425537 0.41353654861450195 0.02619863487780094 0.23585546016693115 -0.5025120973587036 0.2822384536266327 0.3932862877845764 -0.5746464729309082 0.15049877762794495 0.0619974359869957 0.11783337593078613 -0.05337642505764961 0.23902100324630737 0.6575724482536316 -0.7106516361236572 0.7259253263473511 -0.14531682431697845 -0.3100626468658447 0.5630897283554077 -0.27544891834259033 0.22194331884384155 0.24387939274311066 -0.15350644290447235 0.12646284699440002 0.3283023536205292 -0.5839009284973145 -0.582836389541626 -0.6755403876304626 -0.014385776594281197 0.00943567231297493 0.20893524587154388 -0.054106105118989944 -0.01725192554295063 0.5499058365821838 -0.40855470299720764 -0.3322069048881531 0.5125690698623657 0.7277989983558655 0.31338539719581604 0.2508518397808075 -0.09231208264827728 0.4014485776424408 0.31062546372413635 -0.01380771491676569 0.5937946438789368 -0.24367079138755798 0.1809798777103424 0.7028985023498535 0.1818251609802246 -0.39548513293266296 -0.388166218996048 0.10819028317928314 0.1356244683265686 0.30490440130233765 0.13795924186706543 -0.14176994562149048 -0.5695236921310425 -0.48887524008750916 -1.2571289539337158 -0.45267006754875183 0.2504836320877075 0.2514437139034271 0.6642532348632812 0.2785660922527313 -0.4759101867675781 -0.12801547348499298 0.6076740026473999 -0.45341598987579346 -1.0708924531936646 -0.12498588860034943 -0.08266530185937881 0.14794689416885376 0.3649984300136566 -0.41533610224723816 0.5506121516227722 -0.4939146637916565 0.43023681640625 -0.43801239132881165 0.5938113927841187 0.39142316579818726 -0.07522938400506973 -0.229236900806427 0.010006222873926163 0.3464813232421875 0.27201730012893677 0.15559904277324677 -0.04730318859219551 0.12028662860393524 -0.3231257200241089 1.009918212890625 0.7838126420974731
New_Mexican_cuisine 0.4302831292152405 -0.08132385462522507 -0.6420717239379883 -0.14740362763404846 0.14464473724365234 -0.062003426253795624 -0.06758628040552139 0.027720345184206963 0.0823383703827858 -0.021277427673339844 0.40960609912872314 0.4433952569961548 -0.4896397292613983 0.04360366240143776 -0.01718457229435444 -0.8912972807884216 -0.2276587039232254 0.563206672668457 -0.009506002999842167 -0.09568530321121216 -0.20147515833377838 0.12914535403251648 -0.1299494057893753 -0.22473008930683136 -0.011499949730932713 0.05643836036324501 0.1018698588013649 0.01778639480471611 0.09702686220407486 0.21306173503398895 -0.05876072868704796 -0.027467934414744377 -0.13550779223442078 -0.39060893654823303 -0.12627676129341125 -0.0028778789564967155 -0.31479793787002563 -0.5157032608985901 -0.12320971488952637 0.15101508796215057 0.006601845845580101 -0.12159222364425659 -0.002594050718471408 0.3900582194328308 0.10317888110876083 -0.2918427586555481 0.08283445239067078 0.4203866720199585 -0.06166943907737732 0.2873598039150238 -0.4217984080314636 -0.22783949971199036 0.260268896818161 -0.3593653440475464 -0.142182856798172 0.15764787793159485 0.33951371908187866 -0.1845201700925827 0.5504624247550964 -0.1665458381175995 0.42603740096092224 -0.2974064350128174 0.7188311219215393 -0.3779813051223755 -0.0799148753285408 -0.2657383382320404 -0.2759731709957123 0.046514712274074554 -0.48994284868240356 0.26559746265411377 -0.05438564717769623 0.05679606273770332 0.43929171562194824 0.20185355842113495 0.4082241952419281 -0.14300021529197693 -0.002597218845039606 -0.07419180124998093 -0.2501397430896759 0.22757770121097565 -0.6218771934509277 0.11698587238788605 0.1894131451845169 -0.39205819368362427 -0.13309554755687714 0.45172569155693054 -0.26640111207962036 0.5726547241210938 0.18401886522769928 -0.27355846762657166 0.05156956613063812 0.3802444040775299 -0.4110027253627777 -0.343238890171051 -0.18795426189899445 -0.01058066263794899 -0.6892666220664978 0.591978907585144 0.02658543922007084 -0.2639114260673523 0.2082233875989914 0.21851709485054016 0.13233499228954315 -0.10762856155633926 -0.049733348190784454 -0.04399082437157631 0.001591549371369183 -0.264896422624588 0.6591251492500305 -0.18759596347808838 0.03135044500231743 0.08714248985052109 0.30104708671569824 -0.24856187403202057 0.08018174767494202 0.23405884206295013 -0.055094826966524124 0.17150092124938965 0.6306696534156799 0.014647097326815128 -0.04814687743782997 0.5504779815673828 0.34746426343917847 -0.05437226966023445 0.08893818408250809 -0.024193771183490753 -0.09963738918304443 -0.2156912237405777 -0.4905388653278351 0.4923689663410187 0.02843644842505455 -0.12862251698970795 0.10102669149637222 0.014263034798204899 0.01487858034670353 -0.06867291033267975 -0.35204410552978516 -0.4342513382434845 0.4789113700389862 0.19210749864578247 -0.42377859354019165 0.4161558151245117 0.26251837611198425 -0.06422032415866852 -0.17615064978599548 0.4579623341560364 0.35162338614463806 0.08469591289758682 0.6456009745597839 0.1794051229953766 0.7601480484008789 -0.1333501785993576 -0.2454504519701004 0.6177985668182373 0.046769071370363235 0.4580840766429901 0.9852747321128845 0.5389124155044556 0.05108432099223137 -0.30923542380332947 -0.08191318064928055 0.047587160021066666 0.36341479420661926 -0.24307934939861298 -0.028728509321808815 -0.3699256181716919 -0.3577505946159363 -0.951628565788269 -0.4073823392391205 0.20396417379379272 0.309041291475296 0.5154192447662354 0.3434520363807678 -0.3615376651287079 -0.3461236357688904 -0.21554799377918243 -0.20390227437019348 -0.19222594797611237 -0.17164650559425354 0.013996785506606102 0.012458807788789272 0.14428801834583282 -0.1321280300617218 0.4038798213005066 -0.13149161636829376 0.7584953904151917 -0.6803363561630249 0.2797202169895172 0.08888207376003265 -0.1113581582903862 -0.022947290912270546 -0.028212955221533775 0.6786503791809082 0.48009273409843445 0.29084062576293945 0.20079554617404938 0.19612598419189453 -0.2826416492462158 -0.07091264426708221 0.5396342873573303
St._Louis_cuisine 0.4638466238975525 0.39783474802970886 -1.6289454698562622 -0.12851139903068542 0.4165512025356293 -0.5657376050949097 -0.7993332147598267 -0.10664112120866776 -0.30056115984916687 -0.34330281615257263 0.24352137744426727 0.50421142578125 -0.5421439409255981 -0.06264322996139526 0.8173934817314148 -0.20240536332130432 0.06543143093585968 0.773631751537323 -0.6037670373916626 -0.45752444863319397 -0.7380414605140686 1.0322147607803345 -0.5227420330047607 0.14887987077236176 -0.006027842406183481 -0.44740110635757446 0.25154802203178406 0.3601032495498657 0.7500956654548645 -0.16664297878742218 -0.011861453764140606 -0.029732631519436836 0.11653325706720352 -0.5540645122528076 0.33577340841293335 -0.011438816785812378 0.7316305637359619 -0.35795778036117554 0.07193266600370407 0.3632289171218872 0.04703369736671448 -0.4107700288295746 -0.3136165738105774 -0.30727720260620117 -0.6686229109764099 0.5634814500808716 -0.3511790931224823 0.6446641087532043 -0.26873016357421875 0.458247572183609 0.5870054960250854 0.8181940317153931 -0.5311839580535889 -0.497793048620224 -0.5434654355049133 0.07530625909566879 -0.7016894221305847 -0.3687078356742859 0.06313390284776688 0.2088315337896347 0.5139907598495483 -0.6382295489311218 -0.1961357593536377 -0.670991063117981 0.5526866912841797 -0.5076910853385925 0.08876947313547134 0.14078761637210846 -0.6202095746994019 0.0420454666018486 -0.5738529562950134 0.5132238864898682 -0.1644621640443802 -0.11643945425748825 -1.2330459356307983 -0.7424103617668152 0.5309723615646362 -0.28218936920166016 -0.13667432963848114 0.21563689410686493 -0.15654832124710083 -0.05622076988220215 0.25027042627334595 -0.31282860040664673 -0.10816337913274765 -0.6310596466064453 0.8810422420501709 1.2379816770553589 -0.242109477519989 -0.09704282879829407 -0.34546127915382385 -0.41914546489715576 -0.05913379043340683 -0.6533281803131104 0.6601105332374573 0.08954787254333496 -0.6027148365974426 0.6968337893486023 -0.14961203932762146 0.21289557218551636 0.08827905356884003 0.8768896460533142 0.7357332110404968 0.7881457805633545 0.47317206859588623 0.5796453952789307 -0.6332744359970093 -0.6503339409828186 0.5274268984794617 -0.14152923226356506 -0.1398802101612091 -0.13559943437576294 0.7937432527542114 -0.17000065743923187 0.5217428803443909 -0.3178766965866089 -0.9605947732925415 1.1175864934921265 0.3257506787776947 -0.7890690565109253 -0.2487928867340088 0.31658264994621277 0.6002460718154907 -0.325676828622818 -0.03185845911502838 0.1887412816286087 0.014951585792005062 -0.5758875608444214 -0.24095763266086578 0.8783027529716492 1.001784324645996 -0.09722457081079483 -0.2218163162469864 -0.0991356372833252 0.008513079024851322 -0.1900099217891693 0.8286888599395752 0.5103328227996826 0.1893240362405777 -0.06457118690013885 -0.6254797577857971 1.1877994537353516 0.8054771423339844 -0.40624308586120605 -0.19097518920898438 0.21895085275173187 1.1212869882583618 1.0748975276947021 1.2699925899505615 0.23899030685424805 0.4055110812187195 -0.23447008430957794 -0.015565666370093822 -0.27832239866256714 0.41952407360076904 -0.4995015263557434 0.5707836747169495 0.3917985260486603 -0.9901360869407654 0.16051147878170013 -0.29724130034446716 -1.0039948225021362 -0.6918960809707642 -0.6098676919937134 -0.17058411240577698 1.1577767133712769 -0.641734778881073 0.09057072550058365 -0.5542700290679932 0.3470930755138397 0.04200775921344757 -0.5760065913200378 0.337399423122406 1.3015954494476318 -1.2314844131469727 -0.1494618058204651 0.006688068620860577 -0.11553676426410675 0.8281861543655396 0.6699438095092773 0.8024473786354065 -0.08666516840457916 0.4173086881637573 0.014743025414645672 -0.17528049647808075 0.8283998966217041 -0.9809387922286987 -0.34761327505111694 0.06035017967224121 0.5470467805862427 0.10384923219680786 0.26726919412612915 0.2963312268257141 -0.19032619893550873 -0.7316994667053223 -0.5717959403991699 -0.5911430716514587 -0.4047659635543823 -0.20710904896259308 0.962914764881134
Christmas_Island_cuisine 0.4435174763202667 0.005240400321781635 -0.20338021218776703 -0.14234089851379395 -0.02164175733923912 0.2593405544757843 -0.1321653127670288 -0.0802379697561264 0.1282457411289215 -0.19718357920646667 0.16087310016155243 0.11914034932851791 0.1422528326511383 0.024044916033744812 0.10299491882324219 -0.4002024233341217 0.016069535166025162 0.11113309115171432 0.22282102704048157 -0.1083763837814331 -0.03181251510977745 0.26733940839767456 -0.0016332591185346246 -0.06316667050123215 -0.11355800181627274 0.12392871826887131 -0.023977112025022507 -0.2010728418827057 -0.0919177308678627 0.031319763511419296 0.10715797543525696 -0.19048041105270386 -0.16696617007255554 0.03532402589917183 0.13648061454296112 0.10912809520959854 -0.2741231918334961 -0.4427340626716614 0.08828235417604446 -0.21676141023635864 -0.16667379438877106 -0.11848489195108414 0.0599173940718174 -0.05859605595469475 -0.20774635672569275 -0.3759831190109253 0.23213860392570496 0.2021006941795349 -0.146811380982399 -0.059348009526729584 0.011653659865260124 0.013364933431148529 0.03351977840065956 -0.1018054261803627 0.1807272583246231 -0.017649753019213676 0.19075502455234528 -0.18601572513580322 0.38691580295562744 -0.09698784351348877 0.3832196295261383 -0.028733041137456894 0.3073117733001709 -0.05888988822698593 -0.01977049931883812 -0.07173217087984085 -0.45685404539108276 0.28185394406318665 -0.27208688855171204 0.21288613975048065 -0.2298630326986313 0.2549896538257599 0.3739832937717438 -0.07867542654275894 0.20443876087665558 0.15865348279476166 -0.07892732322216034 -0.35825595259666443 0.07774050533771515 0.3642999529838562 -0.1804351508617401 -0.025050466880202293 0.14166322350502014 -0.09370093047618866 -0.3066600263118744 0.05894769728183746 -0.12444855272769928 0.16561438143253326 0.05828732252120972 -0.2229614108800888 0.08185028284788132 0.30510759353637695 -0.25997835397720337 -0.07953011989593506 -0.19818498194217682 0.04882867634296417 -0.20952600240707397 0.3095225691795349 0.24146929383277893 -0.005955060012638569 -0.08977172523736954 0.11215358972549438 -0.03542393818497658 -0.20264829695224762 -0.20401647686958313 0.2503807246685028 -0.0714743360877037 0.06800689548254013 -0.25608155131340027 -0.30803290009498596 0.11523934453725815 0.141328364610672 0.18502511084079742 -0.18827947974205017 0.007775892037898302 0.24527385830879211 -0.601196825504303 0.4643954634666443 0.3699018359184265 0.1107286810874939 -0.33004021644592285 -0.07528866082429886 -0.04252602532505989 -0.24521367251873016 0.2631480395793915 0.0013345611514523625 0.07010304927825928 -0.10576257854700089 -0.033632200211286545 0.4949820935726166 0.0013037079479545355 0.04146765545010567 -0.17705518007278442 0.01076209731400013 -0.1202249750494957 0.0023469412699341774 -0.22914211452007294 0.34813499450683594 0.2001776248216629 0.016902120783925056 0.2515575587749481 0.07239533215761185 0.2856332063674927 -0.17329645156860352 -0.30069398880004883 0.09168923646211624 0.2874734401702881 0.011930380947887897 0.11049184203147888 0.3806695342063904 0.05378662794828415 0.031853899359703064 0.07581662386655807 0.20958591997623444 0.20016242563724518 0.044493988156318665 0.3820990025997162 0.20719526708126068 -0.1735621839761734 0.049321115016937256 -0.24085551500320435 -0.021809114143252373 0.3719412088394165 -0.10531650483608246 -0.09935446828603745 -0.09872272610664368 0.06476511061191559 -0.5377318859100342 -0.0490131713449955 0.14031866192817688 0.36081257462501526 0.2659741938114166 -0.28467893600463867 -0.11646363139152527 -0.5003128051757812 -0.044734515249729156 -0.29473283886909485 -0.22625583410263062 -0.2945338785648346 -0.013572045601904392 -0.27491357922554016 0.021873340010643005 -0.29575487971305847 0.17669500410556793 -0.304375559091568 0.16536761820316315 -0.2243334949016571 0.2048284262418747 0.1304425299167633 -0.0741305947303772 -0.3797542452812195 -0.1477646380662918 0.06859566271305084 0.30549997091293335 0.24504928290843964 -0.07623853534460068 -0.024592937901616096 -0.24741099774837494 0.013354010879993439 0.2879178822040558
Nordic_cuisine 0.0 0.0 0.0 0.0 0.0 0.0 0.0 0.0 0.0 0.0 0.0 0.0 0.0 0.0 0.0 0.0 0.0 0.0 0.0 0.0 0.0 0.0 0.0 0.0 0.0 0.0 0.0 0.0 0.0 0.0 0.0 0.0 0.0 0.0 0.0 0.0 0.0 0.0 0.0 0.0 0.0 0.0 0.0 0.0 0.0 0.0 0.0 0.0 0.0 0.0 0.0 0.0 0.0 0.0 0.0 0.0 0.0 0.0 0.0 0.0 0.0 0.0 0.0 0.0 0.0 0.0 0.0 0.0 0.0 0.0 0.0 0.0 0.0 0.0 0.0 0.0 0.0 0.0 0.0 0.0 0.0 0.0 0.0 0.0 0.0 0.0 0.0 0.0 0.0 0.0 0.0 0.0 0.0 0.0 0.0 0.0 0.0 0.0 0.0 0.0 0.0 0.0 0.0 0.0 0.0 0.0 0.0 0.0 0.0 0.0 0.0 0.0 0.0 0.0 0.0 0.0 0.0 0.0 0.0 0.0 0.0 0.0 0.0 0.0 0.0 0.0 0.0 0.0 0.0 0.0 0.0 0.0 0.0 0.0 0.0 0.0 0.0 0.0 0.0 0.0 0.0 0.0 0.0 0.0 0.0 0.0 0.0 0.0 0.0 0.0 0.0 0.0 0.0 0.0 0.0 0.0 0.0 0.0 0.0 0.0 0.0 0.0 0.0 0.0 0.0 0.0 0.0 0.0 0.0 0.0 0.0 0.0 0.0 0.0 0.0 0.0 0.0 0.0 0.0 0.0 0.0 0.0 0.0 0.0 0.0 0.0 0.0 0.0 0.0 0.0 0.0 0.0 0.0 0.0 0.0 0.0 0.0 0.0 0.0 0.0
Anglo-Indian_cuisine 0.11164335906505585 0.3782378137111664 -0.3021024465560913 -0.28041133284568787 -0.289936363697052 0.02039749175310135 -0.18796764314174652 -0.42241108417510986 0.2534748315811157 -0.16466227173805237 0.38187375664711 0.23867033421993256 -0.12855084240436554 0.432722270488739 0.44036880135536194 -0.499700129032135 -0.2356068640947342 0.28944578766822815 -0.19733622670173645 -0.009147115051746368 -0.3111322224140167 0.624427080154419 -0.4259544610977173 0.045681990683078766 0.10553643107414246 0.4040174186229706 -0.030245278030633926 0.3431423306465149 0.045242615044116974 0.2492823451757431 -0.05342182517051697 0.1002376526594162 -0.42923635244369507 -0.05957290157675743 -0.1073451042175293 0.17459632456302643 -0.2667474150657654 -0.8177303075790405 -0.24239909648895264 -0.13948331773281097 0.07345138490200043 0.3215777277946472 -0.023839661851525307 0.23213893175125122 -0.2927201986312866 -0.19851911067962646 0.26640915870666504 0.24156489968299866 -0.4756803512573242 -0.4021536111831665 -0.28089258074760437 -0.03990541771054268 0.11772125214338303 -0.26531144976615906 0.7357194423675537 -0.05554084852337837 0.12747693061828613 -0.3732483685016632 0.6650314927101135 -0.15554186701774597 0.5096051096916199 -0.09119200706481934 0.1883416473865509 -0.2653579115867615 -0.09645452350378036 -0.3664442002773285 -0.47654813528060913 0.3802921772003174 -0.2119026780128479 0.39257577061653137 -0.37956956028938293 -0.14439766108989716 0.7580456137657166 -0.16524992883205414 -0.07165835797786713 -0.0721922516822815 0.06338199228048325 -0.24878695607185364 -0.01761798933148384 0.44606730341911316 -0.35695967078208923 0.13100963830947876 0.19189631938934326 -0.16827787458896637 -0.19202937185764313 0.41147732734680176 -0.7763414978981018 0.1964711993932724 0.07884235680103302 -0.1806294471025467 -0.19335030019283295 0.1705319732427597 -0.4630351960659027 -0.39567047357559204 0.06580690294504166 -0.2297622561454773 -0.07328598201274872 0.38252824544906616 0.3247702121734619 0.19466432929039001 -0.34876829385757446 0.7337602972984314 -0.16249080002307892 -0.4606587886810303 0.048557478934526443 0.08271358162164688 0.2813182771205902 0.4750092327594757 -0.1055787056684494 -0.04756835848093033 -0.0478798933327198 0.13429558277130127 0.32593148946762085 -0.4944740831851959 0.13807740807533264 0.15575750172138214 -0.5781869292259216 0.3456943929195404 0.2501452565193176 0.3988674581050873 0.019087811931967735 -0.6508145332336426 0.3470644950866699 -0.4000304937362671 0.3113376498222351 0.28237444162368774 -0.020045049488544464 0.25637286901474 -0.4759943187236786 0.6677613854408264 0.10134920477867126 0.03362375870347023 0.1296958029270172 0.09053748100996017 -0.32239216566085815 -0.47508504986763 -0.5594813823699951 1.7068286979338154e-05 0.12226881086826324 -0.20920713245868683 -0.0032121476251631975 -0.08451377600431442 0.17633870244026184 -0.24311089515686035 -0.3883274793624878 0.04829588532447815 0.2069176733493805 0.1746004819869995 -0.04680561646819115 0.08005523681640625 0.1835392266511917 0.21296751499176025 -0.16738362610340118 0.21124061942100525 -0.0025372544769197702 0.1427551954984665 0.7393057942390442 0.2945653200149536 -0.02898879162967205 0.026687532663345337 0.015239333733916283 0.048826057463884354 0.314525306224823 0.0002818467910401523 -0.20284108817577362 -0.40948486328125 -0.08520082384347916 -0.7515262365341187 -0.14922553300857544 0.3347650468349457 0.5238668322563171 0.20508725941181183 -0.027275606989860535 -0.14198516309261322 -0.13924363255500793 0.4301626980304718 -0.4922337234020233 -0.8534197807312012 -0.043008629232645035 0.3687152862548828 -0.14621229469776154 0.08304557204246521 -0.5797085165977478 -0.2214813083410263 0.009846650063991547 0.43510541319847107 -0.5100272297859192 0.15060560405254364 -0.0058577400632202625 0.214776411652565 -0.10787412524223328 -0.08543574810028076 0.1901772916316986 0.5512040853500366 0.3300066292285919 -0.2769685685634613 0.126030832529068 -0.3127051591873169 0.1329314261674881 0.7530261278152466
New_American_cuisine 0.3353264629840851 0.2630225121974945 -0.23724253475666046 -0.13346122205257416 -0.03717265650629997 0.17731276154518127 -0.10907435417175293 -0.19776229560375214 -0.3073318898677826 -0.09516290575265884 0.14712193608283997 0.2830551266670227 -0.0017984160222113132 -0.04999206215143204 0.057271603494882584 -0.3062569499015808 -0.24392208456993103 0.5317628383636475 0.04790935665369034 -0.004779150243848562 -0.11886090785264969 0.07941398024559021 -0.29310518503189087 -0.19128529727458954 0.17464618384838104 -0.06106853857636452 0.007994107902050018 0.05724678188562393 0.1147007867693901 -0.0024726316332817078 -0.3009399175643921 -0.03629579022526741 -0.12861515581607819 -0.23113910853862762 -0.09105604887008667 -0.0401410348713398 -0.33098164200782776 -0.0902419313788414 -0.0951690822839737 0.2599567472934723 -0.1941116750240326 0.0626256912946701 0.24518412351608276 -0.24868348240852356 -0.018566960468888283 -0.06561960279941559 0.19757670164108276 0.05754445120692253 -0.16925500333309174 0.1681717485189438 -0.04743698239326477 -0.08162998408079147 -0.006648228038102388 -0.02235323190689087 0.17999184131622314 0.09254170954227448 0.2293495386838913 -0.0966547429561615 0.5262950658798218 -0.008758863434195518 0.16380469501018524 -0.25245895981788635 0.24570636451244354 -0.3078061640262604 0.060364898294210434 -0.48497313261032104 -0.19109152257442474 0.3956976532936096 -0.033433932811021805 0.2322847843170166 -0.10652241855859756 0.12078240513801575 0.4869222939014435 0.21794654428958893 0.20823590457439423 -0.02716410532593727 0.18104329705238342 0.02299598976969719 -0.19294509291648865 -0.030821869149804115 -0.2988600730895996 0.31789037585258484 0.0885511115193367 -0.06238842383027077 -0.1941387802362442 0.061778564006090164 -0.08167146146297455 0.4057813882827759 0.22465753555297852 -0.3125692307949066 -0.1969255954027176 0.1074243038892746 0.010375370271503925 -0.3332645297050476 -0.10421755909919739 -0.009071939624845982 -0.3701782524585724 0.5255637168884277 0.143441841006279 -0.08390507102012634 -0.017219513654708862 0.32436925172805786 0.0542602613568306 -0.05565571039915085 0.17628292739391327 0.028391094878315926 -0.1199336051940918 0.07696197926998138 0.12812718749046326 -0.28944507241249084 0.24186159670352936 -0.11589595675468445 0.2847035825252533 -0.2658628225326538 -0.20135994255542755 0.16548430919647217 -0.4797341525554657 0.30247944593429565 0.2591550648212433 0.09328711777925491 0.03330301120877266 0.16171619296073914 0.16900715231895447 -0.1472226083278656 0.1431327909231186 -0.1360779106616974 -0.05899778753519058 0.1385098248720169 -0.19303061068058014 0.191101536154747 0.18282586336135864 -0.19361133873462677 -0.048817478120326996 -0.24899040162563324 -0.20725078880786896 -0.21112318336963654 -0.1841641068458557 -0.028759406879544258 0.3684415817260742 -0.045355282723903656 -0.09767142683267593 0.20538777112960815 0.2964925169944763 -0.2452249974012375 -0.12625257670879364 0.42995044589042664 0.08248553425073624 0.07875163108110428 0.5159918665885925 0.17670875787734985 0.3244630992412567 -0.009615051560103893 -0.06955586373806 0.1964000016450882 -0.08794748038053513 0.12178724259138107 0.5715041756629944 0.3598901033401489 -0.22303986549377441 0.010226437821984291 -0.026710018515586853 -0.22891317307949066 0.0016526381950825453 -0.26042842864990234 -0.19409967958927155 -0.12554554641246796 -0.23978807032108307 -0.6506282091140747 -0.3047439455986023 0.4480016231536865 0.2690885066986084 0.40407687425613403 0.060046300292015076 -0.24345605075359344 -0.30639365315437317 -0.06533518433570862 -0.058313094079494476 0.01450482476502657 -0.1266375184059143 -0.024920998141169548 -0.12210285663604736 0.03680168464779854 -0.02224951609969139 0.09551388770341873 -0.3366698622703552 0.39874279499053955 -0.33516091108322144 0.36985114216804504 0.14888404309749603 0.062344226986169815 -0.037540338933467865 0.06453084945678711 0.28685352206230164 0.05752550810575485 -0.07454971224069595 0.07167692482471466 0.05215206369757652 -0.2157471925020218 0.20928195118904114 0.26378658413887024
Saint_Barthlemy_cuisine 0.0 0.0 0.0 0.0 0.0 0.0 0.0 0.0 0.0 0.0 0.0 0.0 0.0 0.0 0.0 0.0 0.0 0.0 0.0 0.0 0.0 0.0 0.0 0.0 0.0 0.0 0.0 0.0 0.0 0.0 0.0 0.0 0.0 0.0 0.0 0.0 0.0 0.0 0.0 0.0 0.0 0.0 0.0 0.0 0.0 0.0 0.0 0.0 0.0 0.0 0.0 0.0 0.0 0.0 0.0 0.0 0.0 0.0 0.0 0.0 0.0 0.0 0.0 0.0 0.0 0.0 0.0 0.0 0.0 0.0 0.0 0.0 0.0 0.0 0.0 0.0 0.0 0.0 0.0 0.0 0.0 0.0 0.0 0.0 0.0 0.0 0.0 0.0 0.0 0.0 0.0 0.0 0.0 0.0 0.0 0.0 0.0 0.0 0.0 0.0 0.0 0.0 0.0 0.0 0.0 0.0 0.0 0.0 0.0 0.0 0.0 0.0 0.0 0.0 0.0 0.0 0.0 0.0 0.0 0.0 0.0 0.0 0.0 0.0 0.0 0.0 0.0 0.0 0.0 0.0 0.0 0.0 0.0 0.0 0.0 0.0 0.0 0.0 0.0 0.0 0.0 0.0 0.0 0.0 0.0 0.0 0.0 0.0 0.0 0.0 0.0 0.0 0.0 0.0 0.0 0.0 0.0 0.0 0.0 0.0 0.0 0.0 0.0 0.0 0.0 0.0 0.0 0.0 0.0 0.0 0.0 0.0 0.0 0.0 0.0 0.0 0.0 0.0 0.0 0.0 0.0 0.0 0.0 0.0 0.0 0.0 0.0 0.0 0.0 0.0 0.0 0.0 0.0 0.0 0.0 0.0 0.0 0.0 0.0 0.0
Sakana 0.2587878704071045 0.14421266317367554 -0.5052584409713745 -0.11423325538635254 0.04124719277024269 0.20958319306373596 -0.21156398952007294 -0.3897286057472229 -0.015770969912409782 0.06421826779842377 0.22155047953128815 0.24492007493972778 -0.15421631932258606 -0.18419477343559265 0.10235690325498581 -0.3076053857803345 -0.08377914130687714 0.18900558352470398 0.10293834656476974 -0.1946903020143509 -0.029255367815494537 0.1421392560005188 -0.135829359292984 -0.1164085865020752 -0.10172151029109955 0.23359353840351105 0.13320112228393555 0.02395136095583439 -0.21140903234481812 -0.009210377000272274 0.10272618383169174 0.028063030913472176 -0.10510334372520447 -0.10684726387262344 -0.03945257142186165 0.2826307713985443 0.000701868673786521 -0.14309504628181458 -0.03030579723417759 -0.1980503797531128 -0.03656429052352905 0.05972692370414734 0.16903802752494812 -0.06028899922966957 -0.19313892722129822 -0.24874049425125122 0.09438527375459671 0.1835295855998993 -0.1201239749789238 0.05238129943609238 0.09073931723833084 -0.09580565989017487 0.2828831076622009 -0.0321306474506855 0.13075780868530273 -0.0006392252398654819 0.12027745693922043 -0.28085264563560486 0.4931240677833557 -0.09571707993745804 0.4106724262237549 -0.18745407462120056 0.3041752874851227 -0.24124780297279358 0.09141744673252106 -0.18800312280654907 -0.21890072524547577 -0.02219287119805813 -0.3179255425930023 0.34785374999046326 -0.038257990032434464 0.30724990367889404 0.4579218029975891 0.04086196422576904 0.2514107823371887 0.06022656336426735 -0.08356162905693054 -0.2386692613363266 0.050831642001867294 0.16728724539279938 -0.22752808034420013 0.23254507780075073 0.23204103112220764 0.17800024151802063 -0.3028879165649414 0.14502371847629547 -0.14418664574623108 0.26854634284973145 0.08724924921989441 -0.28339943289756775 -0.06690532714128494 0.20468483865261078 -0.2286531776189804 -0.14037086069583893 -0.07036318629980087 0.023204516619443893 -0.22149282693862915 0.19460710883140564 0.3829366862773895 -0.00889554899185896 -0.1484609991312027 0.20908743143081665 -0.0030932826921343803 -0.35881009697914124 -0.05102551728487015 0.13382627069950104 0.12240549921989441 0.04185190796852112 -0.11692118644714355 -0.17701013386249542 0.261993408203125 -0.00242069223895669 0.16034214198589325 -0.13114877045154572 -0.12116601318120956 0.2343427538871765 -0.4689168334007263 0.5654221773147583 0.2622089385986328 0.1202373057603836 -0.19987019896507263 0.1913972645998001 -0.054781362414360046 -0.2613060176372528 0.17398618161678314 0.04175707697868347 0.11908275634050369 0.04178379476070404 -0.25450530648231506 0.3881160020828247 0.08784888684749603 -0.03202635422348976 -0.08830723911523819 -0.01459921058267355 -0.2912680506706238 -0.013697007670998573 -0.25988903641700745 0.20833425223827362 0.2680512070655823 0.08540893346071243 0.17431402206420898 0.09480350464582443 0.4099041223526001 -0.0628436952829361 -0.3386938273906708 -0.046997588127851486 0.33909937739372253 0.03141985833644867 0.31060221791267395 0.23970462381839752 0.017083464190363884 0.3074668049812317 -0.05624382570385933 0.13124994933605194 0.0977490097284317 0.291885644197464 0.3706201910972595 0.32820308208465576 -0.16659139096736908 -0.10114310681819916 -0.11579904705286026 0.3314221501350403 0.27263396978378296 -0.14219044148921967 -0.08878309279680252 -0.18662232160568237 -0.03430920094251633 -0.5835059881210327 -0.19157619774341583 0.17554646730422974 0.22723488509655 0.3436640799045563 0.057975951582193375 -0.131354421377182 -0.470572292804718 -0.11076503247022629 -0.1621050238609314 -0.2825669050216675 -0.09809789061546326 0.000532296544406563 -0.18775077164173126 -0.04393428564071655 -0.20193395018577576 0.27249982953071594 -0.1825210303068161 0.37085220217704773 -0.16657517850399017 0.21150673925876617 0.008077631704509258 9.475421393290162e-05 -0.18339501321315765 -0.17695842683315277 0.3090214729309082 0.35817480087280273 0.1636793166399002 -0.05740948021411896 0.15263241529464722 -0.08265774697065353 0.22428736090660095 0.4304567575454712
Tofu 0.5617899894714355 0.648621678352356 -0.8863364458084106 -0.10560037195682526 -0.06692615151405334 0.37120428681373596 -0.5776849389076233 -0.5473217368125916 -0.19659176468849182 -0.38375771045684814 0.21176350116729736 0.22692731022834778 -0.06984034180641174 -0.4249076247215271 0.15088747441768646 -0.5930511951446533 -0.49633514881134033 0.07087916880846024 0.38591888546943665 -0.594923198223114 -0.10566075146198273 -0.12722371518611908 -0.6550213694572449 -0.08964325487613678 0.4958825409412384 0.39756906032562256 0.32012319564819336 -0.35917019844055176 -0.21651414036750793 0.030676767230033875 -1.0987825393676758 -0.30478328466415405 0.3246314525604248 -0.318074107170105 0.02482307329773903 0.44395408034324646 -0.02821461483836174 -0.8713493347167969 -0.386098712682724 0.28996390104293823 0.18595202267169952 0.2271120250225067 0.07234860211610794 0.3502720296382904 -0.06170139089226723 -0.620358943939209 -0.12784500420093536 0.4314661920070648 -0.01569608598947525 -0.4097999036312103 -0.36441266536712646 -0.5599912405014038 0.2318897396326065 -0.30429762601852417 0.02855158969759941 0.37278375029563904 0.2670512795448303 -0.5907385349273682 1.1845886707305908 -0.09166747331619263 0.9016459584236145 -0.8077531456947327 0.7450429201126099 -0.0620385967195034 -0.10102661699056625 0.04422586038708687 -0.7620925307273865 0.3182685673236847 -1.2160555124282837 0.45749345421791077 -0.35566532611846924 0.1856505274772644 1.1359107494354248 -0.2414068579673767 0.03274267911911011 0.014692805707454681 0.26808997988700867 -0.3784431219100952 -0.3719746172428131 0.19214870035648346 -0.5353277921676636 0.43556520342826843 0.08805572241544724 0.44114646315574646 -0.7182263731956482 0.19971643388271332 -0.566657304763794 0.2984340786933899 0.2192288339138031 -0.14944471418857574 0.27295100688934326 0.3616448938846588 -0.11002647131681442 -0.36817634105682373 -0.08658961951732635 0.07290416955947876 -0.48280036449432373 0.25163787603378296 0.4558570384979248 0.03531423583626747 -0.36540156602859497 0.10852047801017761 0.009892287664115429 -0.6318812370300293 -0.5400030612945557 0.1451358050107956 0.1938934624195099 0.11505606770515442 -0.1732795387506485 -0.5005207657814026 0.586923360824585 -0.062345750629901886 0.07317113876342773 -0.367038369178772 -0.41932523250579834 0.32147377729415894 -0.2898752987384796 0.49501609802246094 0.9561743140220642 -0.21668186783790588 -0.1958298534154892 0.19271834194660187 0.1252984255552292 -0.8740712404251099 0.40525510907173157 -0.5024639964103699 0.18381305038928986 0.07099951803684235 -0.32079899311065674 0.4175291061401367 0.3634321689605713 -0.44164419174194336 0.15008290112018585 -0.2736847400665283 -0.344259113073349 -0.19724972546100616 -0.6228201985359192 0.4655913710594177 0.215941920876503 0.11756039410829544 -0.03445956110954285 0.2599000930786133 0.477872759103775 0.34179720282554626 -0.34739452600479126 -0.17878948152065277 0.6008195281028748 0.3159947097301483 0.49656298756599426 0.8463382720947266 -0.206250861287117 0.43741098046302795 -0.4333394169807434 0.3353573977947235 0.22785282135009766 0.49507594108581543 1.0877594947814941 0.32581984996795654 0.07508233934640884 0.057851601392030716 -0.17594726383686066 0.4260234832763672 0.7766052484512329 -0.2798093557357788 -0.1846221387386322 -0.42361047863960266 -0.6540500521659851 -1.1844276189804077 -0.6412096619606018 0.2766914367675781 0.3997512757778168 0.4501989781856537 -0.3259660601615906 -0.5970256924629211 -0.4942020773887634 0.22681041061878204 -0.4052545428276062 -0.6354546546936035 -0.20053555071353912 0.2583923041820526 -0.16770757734775543 -0.1566181778907776 -0.16386300325393677 0.41625678539276123 -0.41525784134864807 0.7772984504699707 -0.6369580030441284 0.44840097427368164 0.11990302056074142 -0.703833818435669 -0.20212271809577942 0.22485141456127167 0.17052848637104034 0.49666061997413635 0.6025073528289795 0.10122890025377274 0.010325465351343155 -0.3323212265968323 0.5396245121955872 0.7542221546173096
Jewish_cuisine 0.7424030900001526 0.10263390094041824 -0.9187610149383545 -0.5911712646484375 0.5119286775588989 0.19789987802505493 -0.25046294927597046 -0.4536154568195343 -0.19438011944293976 -0.1637035757303238 0.232495978474617 0.8822477459907532 -0.5043012499809265 -0.13572858273983002 0.6159567832946777 -0.5782493352890015 -0.17769795656204224 0.42042288184165955 -0.2691050171852112 0.5136358141899109 -0.3903678059577942 0.2168864905834198 -0.5576478242874146 -0.23686665296554565 0.010381560772657394 0.5459529757499695 -0.46087443828582764 0.3077591061592102 -0.21739991009235382 0.03520943596959114 -0.3009333610534668 0.0028082402423024178 -0.4636152386665344 -0.6272902488708496 -0.289104163646698 0.2291632890701294 -0.41134244203567505 -0.20257477462291718 -0.1928286999464035 0.23608681559562683 -0.04643016681075096 -0.18759851157665253 0.0009605305967852473 0.3784850537776947 0.1129726767539978 -0.3354306221008301 -0.2381664514541626 0.06923272460699081 -0.3315356373786926 0.0505305714905262 -0.15468743443489075 0.04044336453080177 -0.07177045196294785 -0.07861720025539398 0.09625612199306488 -0.12008248269557953 0.16499637067317963 -0.2629493772983551 0.18760299682617188 0.09307394921779633 0.35605329275131226 -0.8454417586326599 -0.0898718386888504 -0.28685638308525085 0.02373541332781315 -0.6514304876327515 -0.2574128806591034 0.1547943651676178 0.38088491559028625 0.2838136553764343 -0.35321712493896484 0.028808513656258583 0.9421867728233337 0.0207098126411438 0.19948798418045044 -0.128509059548378 0.30231237411499023 -0.2293844372034073 0.05759743973612785 0.018122361972928047 -0.5963282585144043 0.5910631418228149 -0.2648659944534302 -0.29309290647506714 -0.543220043182373 -0.02574359066784382 -0.8038486242294312 0.14576609432697296 0.48211774230003357 -0.0742669403553009 -0.15433719754219055 0.3097023069858551 -0.47286853194236755 -0.18086062371730804 0.3925565779209137 -0.03224068507552147 -0.539663553237915 0.653447151184082 0.23549170792102814 -0.003967427182942629 -0.24624693393707275 0.7049375772476196 0.010376937687397003 -0.23875197768211365 0.018972327932715416 -0.09303396195173264 0.049985893070697784 0.6056190133094788 -0.16159702837467194 -0.049647290259599686 0.5371826887130737 -0.22334425151348114 0.23378849029541016 -0.6984207630157471 0.25402510166168213 0.33583691716194153 -0.37576255202293396 0.4601520895957947 0.6521709561347961 0.05965466797351837 0.20658016204833984 0.3132726848125458 0.05503438040614128 -0.6876567602157593 0.3857947885990143 -0.4003385007381439 -0.39426618814468384 0.32876089215278625 -0.06016474589705467 0.12261240929365158 0.3826843798160553 -0.23636232316493988 -0.0735822319984436 -0.10187214612960815 -0.27895230054855347 -0.2737533450126648 -0.6291763782501221 0.09822255373001099 0.13314063847064972 0.300946980714798 -0.4390580952167511 0.07690869271755219 0.9733937978744507 -0.33957305550575256 -0.5251167416572571 0.1132095605134964 0.5725305080413818 0.18823333084583282 0.8828593492507935 0.21252748370170593 -0.0412822887301445 -0.13891912996768951 0.18158677220344543 0.41704151034355164 -0.5683369636535645 0.6187245845794678 0.9703890681266785 0.5971342921257019 0.12307537347078323 0.0024482249282300472 0.48347967863082886 -0.006264687515795231 0.23160137236118317 0.3523162603378296 -0.25154322385787964 -0.4447252154350281 -0.5464146733283997 -0.7850614786148071 -0.35282593965530396 0.36722415685653687 0.6882842183113098 0.409988135099411 0.5389748215675354 -0.4866527318954468 0.018225155770778656 0.19311638176441193 -0.10161517560482025 -0.3605692386627197 0.5295433402061462 -0.1581634283065796 -0.4187646508216858 0.4764748811721802 -0.411653995513916 0.8482831716537476 -0.1307969093322754 0.6827425360679626 -0.12931354343891144 0.2593369781970978 0.41836461424827576 0.09650157392024994 0.5363228917121887 0.0018894466338679194 0.18772630393505096 -0.047613754868507385 0.39326760172843933 -0.2899416387081146 0.1036156490445137 -0.43358758091926575 0.4830612540245056 -0.06018807366490364
Chinese_cuisine 0.22058077156543732 0.7091561555862427 -0.742343008518219 -0.13454213738441467 -0.8018945455551147 0.31166544556617737 -0.30367353558540344 -0.6629049181938171 -1.1265345811843872 -0.7710703611373901 1.0483195781707764 -0.25057023763656616 -0.1818559616804123 -0.14576002955436707 0.4076768457889557 -0.5864320993423462 -0.8774972558021545 0.40747442841529846 0.03982167690992355 -0.2886122763156891 -0.769126832485199 -0.062459081411361694 -0.06539294868707657 -0.2505630552768707 0.4353262484073639 0.19471663236618042 0.3290972411632538 0.1320396512746811 -0.2608126997947693 -0.23130322992801666 -0.635593831539154 -0.5313076376914978 -0.04715079441666603 -0.31333062052726746 0.006873771082609892 0.3019053041934967 -1.018043875694275 -0.6463128924369812 -0.1704457551240921 -0.25992316007614136 -0.13451170921325684 0.13706105947494507 -0.03468954190611839 0.4016675353050232 0.2123081237077713 -0.6138012409210205 -0.06932488828897476 0.47659263014793396 -0.0713239386677742 -0.5706871151924133 -0.15110783278942108 -0.03422105684876442 0.4030103087425232 -0.24159428477287292 0.2824937701225281 0.2639811933040619 0.018800996243953705 -0.8704109191894531 0.9194740056991577 0.0024761778768152 0.909309446811676 -0.4948190748691559 0.3466487526893616 -0.6378116607666016 -0.2921942472457886 -0.09404779225587845 -0.13894250988960266 0.549272894859314 -0.3851527273654938 0.5633332133293152 -0.3534832000732422 -0.32222068309783936 1.0466639995574951 -0.5775874257087708 -0.030477866530418396 0.20996905863285065 0.25222593545913696 -0.9071328043937683 0.19542726874351501 -0.1574879288673401 -0.32524922490119934 0.723872721195221 0.11196649074554443 -0.03092905692756176 -0.1483272761106491 -0.353963166475296 -0.5882397294044495 1.1238456964492798 -0.5446680188179016 -0.32534319162368774 0.12512332201004028 0.739222526550293 -0.009647071361541748 -0.7110012769699097 -0.5144500136375427 0.3220386803150177 -0.44285306334495544 1.2168445587158203 0.7215178608894348 -0.618806004524231 -0.6705158948898315 0.725206732749939 0.21059802174568176 -0.7512692809104919 0.012091525830328465 -0.034008484333753586 0.28955456614494324 0.6687532067298889 -0.6454723477363586 -0.10044693201780319 0.8075529932975769 0.03880128636956215 0.1335364580154419 -0.592823326587677 0.030139213427901268 0.8162737488746643 -0.4859387278556824 0.8345704078674316 0.4801536500453949 0.24604997038841248 -0.608306884765625 -0.11133357137441635 0.7712651491165161 -0.5627259016036987 0.7108157277107239 -0.44080016016960144 -0.24243512749671936 0.2612919211387634 -0.27168208360671997 0.09790361672639847 0.3326391577720642 -0.14103703200817108 -0.31313055753707886 -0.5170880556106567 -0.44274187088012695 -1.0390692949295044 -0.3399485647678375 -0.12701740860939026 0.3179919719696045 -0.5189651250839233 -0.6509988307952881 0.4244077801704407 0.15659378468990326 -0.32295337319374084 -0.7335993051528931 0.20389099419116974 0.3483450412750244 0.3689049482345581 0.5814279913902283 0.2864668369293213 0.34052595496177673 0.35620880126953125 -0.18487860262393951 0.32426315546035767 0.4789322316646576 0.2244584709405899 0.7876624464988708 0.6550399661064148 0.23996640741825104 0.4694250226020813 -0.13495776057243347 -0.14631196856498718 0.4272609055042267 0.4074239134788513 -0.2913207709789276 -0.9907369017601013 0.07255832105875015 -0.979709804058075 -0.37200021743774414 0.3645525574684143 0.41196611523628235 0.4498666822910309 0.5041739344596863 -0.8027680516242981 -0.2484257072210312 0.4342237114906311 0.027937352657318115 -1.0746082067489624 -0.11738104373216629 0.3966304659843445 0.1243351399898529 0.1618754267692566 -1.0814253091812134 0.49996620416641235 -0.10065369307994843 0.6186038255691528 -1.0110307931900024 0.8085420727729797 0.3932473361492157 -0.40726298093795776 -0.38392576575279236 0.33427393436431885 0.3151331841945648 0.38674187660217285 0.17888477444648743 0.2483571469783783 -0.9869328737258911 -0.35455673933029175 0.003752734512090683 0.8682807087898254
Hittite_cuisine -0.08614575862884521 0.04066656529903412 0.031332459300756454 -0.159071147441864 0.09447929263114929 0.1696067750453949 -0.05430670827627182 -0.16624678671360016 0.03242405503988266 0.2509528398513794 0.09962507337331772 0.0890515148639679 0.007862703874707222 -0.01764531247317791 0.050702180713415146 -0.08125610649585724 -0.08187559247016907 0.03687987104058266 0.003614787245169282 0.023337267339229584 -0.13317066431045532 0.23206761479377747 -0.04247405007481575 -0.048891499638557434 -0.11802785098552704 0.08784641325473785 0.019255386665463448 -0.061019573360681534 -0.002646526088938117 -0.05993329733610153 0.11794618517160416 0.13658882677555084 -0.12379331141710281 -0.01334986463189125 -0.04943300783634186 0.15835319459438324 0.19331562519073486 -0.16776251792907715 0.0060785431414842606 0.006949797738343477 -0.0035804728977382183 0.006728071253746748 0.10737518221139908 0.24881304800510406 -0.04230107367038727 -0.22506535053253174 0.1443857103586197 -0.014219246804714203 -0.026571618393063545 0.046769242733716965 -0.02730542980134487 0.04506184905767441 0.14962716400623322 0.07108894735574722 0.12857761979103088 0.016749607399106026 0.1142263412475586 -0.013982776552438736 0.22322224080562592 0.02923414669930935 0.13801302015781403 -0.0862172394990921 0.14564736187458038 -0.00560161704197526 0.09287244826555252 -0.128407821059227 -0.21440115571022034 0.06549388915300369 -0.05522456392645836 0.028115099295973778 -0.054351743310689926 0.11259002983570099 0.2550855875015259 0.24624037742614746 0.12703008949756622 0.09504861384630203 -0.07640363276004791 0.07781190425157547 -0.061664026230573654 0.1981859654188156 -0.03768263757228851 -0.0752057433128357 -0.10152478516101837 -0.13341324031352997 -0.24402789771556854 -0.07202590256929398 -0.13033071160316467 0.23215334117412567 0.12234808504581451 -0.005328215658664703 -0.014590014703571796 0.05920359864830971 -0.2584163248538971 0.004872273188084364 0.12892884016036987 0.06735699623823166 -0.36541393399238586 0.24465607106685638 0.1438094824552536 0.025484029203653336 0.027749232947826385 0.2143809199333191 0.20247317850589752 -0.06109730899333954 -0.015184626914560795 0.09013480693101883 0.02736497111618519 0.0802096426486969 0.040525659918785095 -0.020998142659664154 0.07892125099897385 0.02195081301033497 0.10943929851055145 -0.11629870533943176 0.08154933154582977 -0.05080847442150116 -0.21110476553440094 0.23067423701286316 0.2822388708591461 0.04384153336286545 -0.08278103172779083 0.03217492625117302 -0.10937707126140594 -0.08137734979391098 0.12781040370464325 -0.03781850263476372 0.02904694899916649 0.030400853604078293 -0.12074945122003555 0.1346912384033203 0.044194549322128296 0.005583666730672121 -0.17095531523227692 0.10593234747648239 0.05462014675140381 -0.10383991152048111 -0.08154000341892242 0.2198912650346756 0.09170591086149216 0.0723593682050705 0.06944621354341507 -0.057491905987262726 0.2560637295246124 -0.013475950807332993 -0.2450580894947052 0.02479449100792408 0.2924655079841614 0.16063810884952545 0.14757360517978668 0.23737885057926178 -0.03385074436664581 0.007841144688427448 0.10025153309106827 0.08149237930774689 0.011890427209436893 0.07119527459144592 0.08146265149116516 0.23078419268131256 -0.15176831185817719 0.03806738182902336 -0.06867199391126633 0.08209233731031418 0.07661275565624237 -0.08949308097362518 0.05318475514650345 -0.15740299224853516 -0.05214076116681099 -0.2823382019996643 -0.043687380850315094 0.037966303527355194 0.10044783353805542 0.2361689805984497 -0.047926854342222214 0.07175106555223465 0.00703972764313221 -0.01228236686438322 -0.08172786980867386 0.019501730799674988 -0.10165594518184662 -0.08134761452674866 -0.03162907436490059 0.020693255588412285 -0.06752120703458786 0.16948632895946503 -0.17506805062294006 0.05674098804593086 -0.0800134614109993 0.08005381375551224 0.05978517606854439 -0.031607598066329956 -0.15264181792736053 -0.050361666828393936 -0.08259177207946777 0.1185615211725235 0.23349924385547638 -0.21890833973884583 0.05885840952396393 0.009004052728414536 -0.11699984967708588 0.22437411546707153
Fusion_cuisine 0.5933125615119934 0.2736434042453766 -0.4727923274040222 0.06951003521680832 -0.2852339446544647 0.15986493229866028 -0.25844427943229675 -0.32693877816200256 -0.3929295241832733 -0.2734368145465851 0.4816305339336395 0.2796555161476135 -0.23285886645317078 -0.06685657054185867 0.2065606266260147 -0.523219883441925 -0.254376620054245 0.5242360830307007 0.09775962680578232 -0.11985675990581512 0.008943076245486736 -0.13591311872005463 -0.3666433095932007 -0.4418310225009918 0.3108985424041748 0.2503093481063843 0.19878503680229187 0.2879866659641266 0.014766626060009003 -0.024115337058901787 -0.40944743156433105 -0.45389875769615173 -0.271168053150177 -0.3576025366783142 -0.012602566741406918 -0.08130869269371033 -0.4140448570251465 -0.29136767983436584 -0.25793197751045227 -0.022882837802171707 -0.23086918890476227 0.027902640402317047 0.19113948941230774 0.10096979886293411 0.22405952215194702 -0.008042343892157078 0.2866447865962982 0.3659729063510895 -0.004220343194901943 0.36071935296058655 -0.11758122593164444 -0.13782848417758942 -0.08285124599933624 0.08425231277942657 0.07148902863264084 0.052472855895757675 0.5002666711807251 0.10889541357755661 0.8371357917785645 -0.20412853360176086 0.20377272367477417 -0.21601958572864532 0.5149317383766174 -0.5235452651977539 -0.17221689224243164 -0.5371055006980896 -0.2697063982486725 0.36892855167388916 -0.06443637609481812 0.2928726375102997 -0.3678986430168152 0.15630216896533966 0.8206760287284851 0.06226310133934021 0.08766181021928787 0.04144434258341789 0.23575833439826965 -0.1964293122291565 0.12174902856349945 0.024259816855192184 -0.40274083614349365 0.3474128544330597 0.05995049327611923 0.06360282748937607 -0.5842443108558655 0.3293542265892029 -0.18351690471172333 0.5550399422645569 0.18479114770889282 -0.05622173100709915 -0.15535913407802582 0.16050143539905548 -0.1573357731103897 -0.5435444116592407 -0.11948312073945999 0.1164223700761795 -0.2611923813819885 0.6562727689743042 0.27252522110939026 -0.5190633535385132 -0.17006289958953857 0.4494466483592987 0.22636672854423523 -0.4537339508533478 0.007239822298288345 0.0208729337900877 0.09322956949472427 0.34773746132850647 -0.06403616815805435 -0.30254411697387695 0.4208727478981018 0.24245330691337585 0.1594141125679016 -0.41091471910476685 -0.1901051551103592 0.2596336603164673 -0.7135196924209595 0.41150835156440735 0.33871448040008545 0.11565328389406204 -0.008818335831165314 0.06536566466093063 0.30526939034461975 -0.465440958738327 0.3706668019294739 -0.23740583658218384 0.00912469532340765 0.20715828239917755 -0.4126057028770447 0.4851464033126831 -0.009399314410984516 -0.27587997913360596 -0.0705077201128006 -0.5414631366729736 -0.7008283734321594 -0.5417197942733765 -0.2787538766860962 -0.04988551139831543 0.40681594610214233 -0.06695722043514252 0.04063669964671135 0.2666410505771637 0.20955123007297516 -0.28918221592903137 -0.2377154529094696 0.28263235092163086 0.18749383091926575 0.1490049660205841 0.5329731106758118 0.23736637830734253 0.17014043033123016 0.06232762336730957 0.09043098986148834 0.5824824571609497 -0.011682647280395031 0.5962706208229065 0.7736782431602478 0.26447203755378723 -0.10563524812459946 -0.010248835198581219 -0.10981132090091705 0.05114196240901947 0.2012033760547638 -0.1795477271080017 0.04314235970377922 -0.2843332290649414 -0.31452077627182007 -0.963551938533783 -0.2708876132965088 0.27742326259613037 0.4254154562950134 0.5920754075050354 0.337419718503952 -0.5023918747901917 -0.3421499729156494 0.37642332911491394 -0.02353370003402233 -0.38722339272499084 0.179189532995224 -0.028144875541329384 0.10432487726211548 0.09321892261505127 -0.4804975986480713 0.35073572397232056 -0.2958548665046692 0.5613647103309631 -0.32283952832221985 0.5977849960327148 0.24558308720588684 0.02266332320868969 -0.017706971615552902 0.05209687724709511 0.2819734215736389 0.1090627908706665 0.12689818441867828 0.1191399022936821 -0.12144972383975983 -0.46406227350234985 0.12502388656139374 0.3278313875198364
Jiaozi 0.1127973198890686 0.21488057076931 -0.809619665145874 -0.19663697481155396 0.024261273443698883 -0.015385926701128483 -0.4812120795249939 -0.6815276145935059 -0.22411344945430756 -0.20390082895755768 0.8917859792709351 -0.21195238828659058 -0.5211753845214844 -0.37809625267982483 0.06262800842523575 -0.45984089374542236 -0.2256394773721695 0.4057943820953369 0.058842211961746216 -0.7394686937332153 -0.4436447322368622 -0.18215377628803253 -0.3533020317554474 -0.16232836246490479 0.12267502397298813 0.3676617443561554 0.1287510097026825 -0.21679353713989258 -0.33489617705345154 -0.16824619472026825 -0.46418365836143494 -0.477240651845932 0.19559916853904724 -0.18747204542160034 0.30927255749702454 0.3167145550251007 0.03344200551509857 -0.5466492772102356 -0.14510589838027954 -0.19135160744190216 -0.11014486849308014 0.016233226284384727 -0.1185135766863823 0.5462378263473511 -0.056339435279369354 -0.2683640718460083 -0.20762211084365845 0.2631682753562927 -0.03884980082511902 -0.12023323029279709 -0.24826450645923615 0.12403571605682373 0.5541735887527466 -0.2199760377407074 0.44439777731895447 -0.08662240952253342 0.7804152369499207 -0.2121526449918747 0.4280008375644684 -0.4392751157283783 0.40710699558258057 -0.6390812993049622 0.19971489906311035 -0.4129316210746765 -0.08207357674837112 -0.2467191070318222 -0.5564581751823425 0.21671412885189056 -0.4188493490219116 0.17654038965702057 -0.2610943615436554 0.24523887038230896 1.1090447902679443 -0.26519775390625 0.47092920541763306 -0.2397826611995697 0.3671557605266571 -0.35986804962158203 0.3707963228225708 0.19247180223464966 -0.3132001757621765 0.32525530457496643 0.5158416628837585 0.06057719886302948 -0.6593427658081055 0.6665902137756348 -0.686537504196167 0.7871976494789124 0.09853184223175049 -0.12599048018455505 0.3604627847671509 -0.1885155439376831 -0.20875102281570435 0.11583392322063446 0.1277788132429123 -0.13207553327083588 -0.45093318819999695 0.13188494741916656 0.3717115819454193 -0.5348408222198486 0.16227591037750244 0.3328418433666229 0.5136820077896118 -0.7107996940612793 -0.7308689951896667 -0.06352898478507996 0.06770513206720352 0.23889537155628204 -0.06600375473499298 -0.6112728118896484 0.26871439814567566 0.09696158766746521 -0.266829252243042 -0.4711909890174866 -0.18441924452781677 -0.3138343095779419 -1.1207047700881958 0.5201039910316467 0.7434588074684143 0.03543539345264435 -0.4249025583267212 -0.11244648694992065 -0.061792440712451935 -0.3811924159526825 0.02663419209420681 -0.17534327507019043 0.13397938013076782 0.2308373600244522 -0.16780856251716614 0.5329543948173523 -0.23540988564491272 -0.2822458744049072 0.028679344803094864 -0.20385096967220306 -0.21463532745838165 0.045841146260499954 -0.13719242811203003 0.5461685657501221 0.40655580163002014 -0.23749186098575592 0.2716609835624695 0.08986631035804749 0.2813072204589844 -0.3546324372291565 -0.549356997013092 -0.12763233482837677 0.611001193523407 -0.0526372492313385 0.42746850848197937 0.9714023470878601 -0.3212791085243225 0.3057194650173187 0.10239311307668686 0.43151795864105225 0.5596153140068054 0.19329199194908142 1.0356700420379639 0.3980872631072998 -0.030946848914027214 -0.36510252952575684 -0.12551093101501465 0.8760663270950317 0.22919607162475586 0.03520600497722626 0.14761996269226074 -0.2089841663837433 -0.0496218204498291 -0.6283886432647705 -0.5895769596099854 0.43054425716400146 0.5160650014877319 0.671236515045166 0.2554640769958496 -0.5090410113334656 0.47442126274108887 0.18661554157733917 -0.11822594702243805 -0.4708452820777893 -0.4408573508262634 0.23470592498779297 0.3302365243434906 -0.2785337567329407 -0.557759702205658 0.4730110466480255 -0.27255627512931824 0.6861825585365295 -0.5009376406669617 0.5138080716133118 0.16045373678207397 -0.020344244316220284 0.16540956497192383 -0.44131484627723694 0.17809954285621643 0.003342788200825453 0.45992258191108704 0.058943651616573334 -0.10902676731348038 -0.3385521173477173 0.6836332678794861 0.5388590693473816
